genomestart 12
trait 1 0.15625 0 0 0.045236 0.00991489 0.0202821 0 0 
trait 2 0.2 0 0 0 0 0 0 0 
trait 3 0.295888 0.00732364 0 0 0 0.00355155 0 0.00705202 
node 1 1 1 1
node 2 3 1 1
node 3 1 1 1
node 4 2 1 1
node 5 3 1 1
node 6 1 1 1
node 7 1 1 1
node 8 2 1 1
node 9 3 1 1
node 10 2 1 1
node 11 1 1 1
node 12 3 1 1
node 13 3 1 1
node 14 3 1 1
node 15 1 1 1
node 16 1 1 1
node 17 2 1 1
node 18 1 1 1
node 19 1 1 1
node 20 1 1 1
node 21 1 1 1
node 22 3 1 1
node 23 3 1 1
node 24 2 1 1
node 25 2 1 1
node 26 2 1 1
node 27 1 1 1
node 28 2 1 1
node 29 2 1 1
node 30 1 1 1
node 31 3 1 1
node 32 3 1 1
node 33 3 1 1
node 34 1 1 1
node 35 2 1 1
node 36 3 1 1
node 37 2 1 1
node 38 2 1 1
node 39 2 1 1
node 40 2 1 1
node 41 1 1 1
node 42 3 1 1
node 43 1 1 1
node 44 3 1 1
node 45 2 1 1
node 46 2 1 1
node 47 1 1 1
node 48 2 1 1
node 49 3 1 1
node 50 2 1 1
node 51 3 1 1
node 52 1 1 1
node 53 2 1 1
node 54 2 1 1
node 55 3 1 1
node 56 1 1 1
node 57 3 1 1
node 58 3 1 1
node 59 2 1 1
node 60 2 1 1
node 61 1 1 1
node 62 3 1 1
node 63 2 1 1
node 64 1 1 1
node 65 1 1 1
node 66 3 1 1
node 67 1 1 1
node 68 2 1 1
node 69 3 1 1
node 70 2 1 1
node 71 3 1 1
node 72 3 1 1
node 73 2 1 1
node 74 2 1 1
node 75 1 1 1
node 76 1 1 1
node 77 1 1 1
node 78 2 1 1
node 79 2 1 1
node 80 1 1 1
node 81 1 1 1
node 82 1 1 1
node 83 2 1 1
node 84 2 1 1
node 85 3 1 1
node 86 1 1 1
node 87 3 1 1
node 88 2 1 1
node 89 1 1 1
node 90 3 1 1
node 91 2 1 1
node 92 1 1 1
node 93 2 1 1
node 94 3 1 1
node 95 2 1 1
node 96 2 1 1
node 97 3 1 1
node 98 2 1 1
node 99 1 1 1
node 100 3 1 1
node 101 3 1 1
node 102 1 1 1
node 103 1 1 1
node 104 2 1 1
node 105 2 1 1
node 106 1 1 1
node 107 3 1 1
node 108 3 1 1
node 109 3 1 1
node 110 2 1 1
node 111 1 1 1
node 112 3 1 1
node 113 1 1 1
node 114 2 1 1
node 115 2 1 1
node 116 3 1 1
node 117 3 1 1
node 118 1 1 1
node 119 3 1 1
node 120 3 1 1
node 121 3 1 1
node 122 1 1 1
node 123 1 1 1
node 124 2 1 1
node 125 1 1 1
node 126 2 1 1
node 127 1 1 1
node 128 1 1 1
node 129 1 1 1
node 130 1 1 1
node 131 1 1 1
node 132 1 1 1
node 133 3 1 1
node 134 2 1 1
node 135 3 1 1
node 136 1 1 1
node 137 3 1 1
node 138 3 1 1
node 139 1 1 1
node 140 2 1 1
node 141 2 1 1
node 142 1 1 1
node 143 1 1 1
node 144 2 1 1
node 145 3 1 1
node 146 3 1 1
node 147 2 1 1
node 148 2 1 1
node 149 3 1 1
node 150 1 1 1
node 151 2 1 1
node 152 1 1 1
node 153 2 1 1
node 154 2 1 1
node 155 2 1 1
node 156 2 1 1
node 157 1 1 1
node 158 1 1 1
node 159 3 1 1
node 160 1 1 1
node 161 2 1 1
node 162 3 1 1
node 163 2 1 1
node 164 1 1 1
node 165 1 1 1
node 166 2 1 1
node 167 2 1 1
node 168 1 1 1
node 169 2 1 1
node 170 3 1 1
node 171 2 1 1
node 172 3 1 1
node 173 1 1 1
node 174 3 1 1
node 175 2 1 1
node 176 1 1 1
node 177 2 1 1
node 178 3 1 1
node 179 3 1 1
node 180 3 1 1
node 181 1 1 1
node 182 1 1 1
node 183 3 1 1
node 184 2 1 1
node 185 1 1 1
node 186 2 1 1
node 187 1 1 1
node 188 2 1 1
node 189 2 1 1
node 190 3 1 1
node 191 1 1 1
node 192 1 1 1
node 193 1 1 1
node 194 3 1 1
node 195 2 1 1
node 196 2 1 1
node 197 1 1 1
node 198 1 1 1
node 199 3 1 1
node 200 2 1 1
node 201 1 1 1
node 202 2 1 1
node 203 2 1 1
node 204 2 1 1
node 205 2 1 1
node 206 3 1 1
node 207 2 1 1
node 208 1 1 1
node 209 3 1 1
node 210 2 1 1
node 211 3 1 1
node 212 3 1 1
node 213 1 1 1
node 214 2 1 1
node 215 2 1 1
node 216 1 1 1
node 217 1 1 1
node 218 3 1 1
node 219 3 1 1
node 220 3 1 1
node 221 1 1 3
node 223 3 0 2
node 224 1 0 2
node 225 1 0 2
node 226 2 0 2
node 228 1 0 0
node 238 1 0 0
node 249 1 0 0
gene 3 110 224 1.18255 0 1 1.18255 0
gene 1 112 226 -0.176081 0 2 -0.176081 0
gene 3 91 223 -1.26819 0 3 -1.26819 0
gene 3 131 225 2.33248 0 4 2.33248 1
gene 3 110 228 -1.27635 0 6 -1.27635 1
gene 3 228 224 -0.440321 0 7 -0.440321 1
gene 3 91 238 -0.655105 0 161 -0.655105 1
gene 3 238 223 1.85832 0 162 1.85832 1
gene 1 135 223 -0.512587 0 270 -0.512587 1
gene 1 112 249 2.80613 0 293 2.80613 1
gene 1 249 226 1.19769 0 294 1.19769 1
gene 2 223 223 -2.54329 1 732 -2.54329 1
gene 3 172 226 1.80517 0 867 1.80517 1
gene 1 225 225 0.0342565 1 1207 0.0342565 1
genomeend 12
