/* Organism #240 Fitness: 1595.64 Error: 0 */
genomestart 240
trait 1 1 0.782812 0.570505 0.14697 0.185916 0.346989 0.0488081 0.212018 
trait 2 0.326278 0.138854 0.0302955 0.26227 0.06707 0 0 0.268192 
trait 3 0.337872 0.0838675 0.166244 0.0726995 0 0.144577 0 0.0768965 
node 1 1 1 1
node 2 2 1 1
node 3 1 1 1
node 4 1 1 1
node 5 3 1 1
node 6 2 1 1
node 7 1 1 1
node 8 1 1 1
node 9 2 1 1
node 10 1 1 1
node 11 3 1 1
node 12 1 1 1
node 13 2 1 1
node 14 2 1 1
node 15 1 1 1
node 16 3 1 1
node 17 3 1 1
node 18 3 1 1
node 19 3 1 1
node 20 3 1 1
node 21 1 1 1
node 22 3 1 1
node 23 3 1 1
node 24 2 1 1
node 25 2 1 1
node 26 1 1 1
node 27 1 1 1
node 28 3 1 1
node 29 2 1 1
node 30 2 1 1
node 31 2 1 1
node 32 2 1 1
node 33 1 1 1
node 34 2 1 1
node 35 3 1 1
node 36 1 1 1
node 37 1 1 1
node 38 3 1 1
node 39 2 1 1
node 40 2 1 1
node 41 2 1 1
node 42 2 1 1
node 43 2 1 1
node 44 3 1 1
node 45 2 1 1
node 46 1 1 1
node 47 1 1 1
node 48 3 1 1
node 49 3 1 1
node 50 3 1 1
node 51 2 1 1
node 52 1 1 1
node 53 2 1 1
node 54 2 1 1
node 55 3 1 1
node 56 1 1 1
node 57 3 1 1
node 58 1 1 1
node 59 3 1 1
node 60 2 1 1
node 61 3 1 1
node 62 2 1 1
node 63 1 1 1
node 64 3 1 1
node 65 2 1 1
node 66 1 1 1
node 67 3 1 1
node 68 2 1 1
node 69 1 1 1
node 70 2 1 1
node 71 1 1 1
node 72 2 1 1
node 73 2 1 1
node 74 3 1 1
node 75 2 1 1
node 76 3 1 1
node 77 1 1 1
node 78 2 1 1
node 79 2 1 1
node 80 1 1 1
node 81 1 1 1
node 82 1 1 1
node 83 2 1 1
node 84 1 1 1
node 85 1 1 1
node 86 2 1 1
node 87 1 1 1
node 88 3 1 1
node 89 3 1 1
node 90 1 1 1
node 91 2 1 1
node 92 3 1 1
node 93 3 1 1
node 94 3 1 1
node 95 3 1 1
node 96 1 1 1
node 97 1 1 1
node 98 3 1 1
node 99 3 1 1
node 100 1 1 1
node 101 2 1 1
node 102 1 1 1
node 103 3 1 1
node 104 3 1 1
node 105 1 1 1
node 106 1 1 1
node 107 1 1 1
node 108 2 1 1
node 109 3 1 1
node 110 1 1 1
node 111 2 1 1
node 112 1 1 1
node 113 2 1 1
node 114 1 1 1
node 115 1 1 1
node 116 2 1 1
node 117 1 1 1
node 118 2 1 1
node 119 2 1 1
node 120 3 1 1
node 121 3 1 1
node 122 1 1 1
node 123 1 1 1
node 124 3 1 1
node 125 1 1 1
node 126 3 1 1
node 127 3 1 1
node 128 1 1 1
node 129 3 1 1
node 130 3 1 1
node 131 2 1 1
node 132 2 1 1
node 133 3 1 1
node 134 1 1 1
node 135 2 1 1
node 136 1 1 1
node 137 2 1 1
node 138 2 1 1
node 139 3 1 1
node 140 1 1 1
node 141 3 1 1
node 142 2 1 1
node 143 2 1 1
node 144 1 1 1
node 145 3 1 1
node 146 3 1 1
node 147 3 1 1
node 148 1 1 1
node 149 2 1 1
node 150 1 1 1
node 151 1 1 1
node 152 1 1 1
node 153 2 1 1
node 154 1 1 1
node 155 3 1 1
node 156 2 1 1
node 157 1 1 1
node 158 1 1 1
node 159 3 1 1
node 160 3 1 1
node 161 3 1 1
node 162 2 1 1
node 163 2 1 1
node 164 3 1 1
node 165 2 1 1
node 166 2 1 1
node 167 2 1 1
node 168 2 1 1
node 169 1 1 1
node 170 1 1 1
node 171 3 1 1
node 172 3 1 1
node 173 2 1 1
node 174 2 1 1
node 175 3 1 1
node 176 1 1 1
node 177 2 1 1
node 178 3 1 1
node 179 2 1 1
node 180 1 1 1
node 181 1 1 1
node 182 3 1 1
node 183 2 1 1
node 184 2 1 1
node 185 3 1 1
node 186 3 1 1
node 187 2 1 1
node 188 1 1 1
node 189 3 1 1
node 190 1 1 1
node 191 2 1 1
node 192 3 1 1
node 193 2 1 1
node 194 3 1 1
node 195 3 1 1
node 196 2 1 1
node 197 2 1 1
node 198 3 1 1
node 199 1 1 1
node 200 3 1 1
node 201 3 1 1
node 202 3 1 1
node 203 2 1 1
node 204 3 1 1
node 205 2 1 1
node 206 3 1 1
node 207 1 1 1
node 208 1 1 1
node 209 2 1 1
node 210 3 1 1
node 211 1 1 1
node 212 3 1 1
node 213 2 1 1
node 214 3 1 1
node 215 2 1 1
node 216 1 1 1
node 217 2 1 1
node 218 3 1 1
node 219 3 1 1
node 220 2 1 1
node 221 1 1 3
node 223 1 0 2
node 224 2 0 2
node 225 3 0 2
node 226 1 0 2
node 286 3 0 0
node 333 1 0 0
node 351 1 0 0
gene 2 110 224 5.90877 0 1 5.90877 1
gene 3 112 226 7.85876 0 2 7.85876 1
gene 2 91 223 5.97856 0 3 5.97856 1
gene 2 131 225 2.89555 0 4 2.89555 1
gene 2 15 225 -0.717774 0 113 -0.717774 1
gene 2 226 226 -0.19743 1 153 -0.19743 1
gene 2 151 224 -6.60835 0 330 -6.60835 1
gene 1 63 225 2.23992 0 866 2.23992 1
gene 1 167 225 4.37953 0 968 4.37953 0
gene 3 223 223 1.00876 1 1062 1.00876 1
gene 1 61 226 -0.86197 0 1110 -0.86197 1
gene 2 41 223 1.41177 0 1259 1.41177 1
gene 1 149 223 -1.77515 0 1318 -1.77515 1
gene 2 115 224 -0.444912 0 1367 -0.444912 1
gene 1 142 223 -0.99752 0 1500 -0.99752 1
gene 2 88 225 2.23342 0 1622 2.23342 1
gene 2 90 225 -3.03386 0 1840 -3.03386 1
gene 1 30 224 3.07255 0 2432 3.07255 1
gene 2 159 223 -3.41346 0 2514 -3.41346 1
gene 3 167 223 -2.96373 0 2930 -2.96373 1
gene 3 126 225 6.41948 0 3459 6.41948 1
gene 3 37 223 8 0 4567 8 1
gene 2 9 225 -1.4615 0 4646 -1.4615 1
gene 1 39 224 -0.878147 0 4854 -0.878147 0
gene 1 140 223 -4.03477 0 4923 -4.03477 1
gene 1 202 225 1.88471 0 5177 1.88471 1
gene 2 225 225 -1.94697 1 5420 -1.94697 1
gene 2 224 224 2.79375 1 5429 2.79375 1
gene 3 60 223 -5.94907 0 5761 -5.94907 1
gene 3 81 225 0.290578 0 6640 0.290578 1
gene 1 225 286 3.02172 1 6848 3.02172 1
gene 2 286 225 5.28783 0 6849 5.28783 1
gene 2 164 223 -5.66929 0 7009 -5.66929 1
gene 3 161 225 -0.890499 0 7279 -0.890499 1
gene 1 195 286 -3.49661 0 7371 -3.49661 1
gene 2 181 224 3.58522 0 7607 3.58522 1
gene 3 45 224 -1.80982 0 7682 -1.80982 1
gene 3 105 223 2.88927 0 7822 2.88927 1
gene 2 124 224 6.16657 0 8099 6.16657 1
gene 1 42 225 -1.62835 0 9150 -1.62835 1
gene 3 67 225 2.14873 0 9430 2.14873 1
gene 2 103 224 -0.119983 0 9434 -0.119983 1
gene 2 113 225 -0.0772224 0 10243 -0.0772224 1
gene 3 125 286 -2.11709 0 10450 -2.11709 1
gene 1 196 226 5.29116 0 10522 5.29116 1
gene 1 141 286 2.71248 0 10843 2.71248 1
gene 1 62 286 4.90993 0 10980 4.90993 1
gene 1 88 286 -6.42247 0 11435 -6.42247 1
gene 2 101 286 3.86579 0 11813 3.86579 1
gene 1 31 223 -0.329422 0 11908 -0.329422 1
gene 2 87 224 7.47698 0 12669 7.47698 1
gene 2 77 286 -1.69251 0 13277 -1.69251 1
gene 1 94 223 -0.0416089 0 13640 -0.0416089 1
gene 3 107 224 4.05155 0 14353 4.05155 1
gene 1 131 224 0.188755 0 14728 0.188755 1
gene 1 108 286 -4.65869 0 15336 -4.65869 1
gene 3 120 224 -0.111807 0 15772 -0.111807 1
gene 1 13 286 0.370957 0 16002 0.370957 1
gene 3 30 226 0.284095 0 16057 0.284095 0
gene 1 59 224 2.65106 0 16285 2.65106 1
gene 1 286 286 -4.91929 1 16410 -4.91929 1
gene 2 9 223 2.47667 0 17370 2.47667 1
gene 2 131 333 -3.1506 0 17455 -3.1506 1
gene 2 333 225 -1.43372 0 17456 -1.43372 1
gene 2 18 226 -3.25656 0 17604 -3.25656 1
gene 3 30 351 -2.90764 0 17713 -2.90764 1
gene 3 351 226 -2.25055 0 17714 -2.25055 1
gene 3 165 226 0.936024 0 17841 0.936024 1
gene 2 116 223 -1.77565 0 18589 -1.77565 1
gene 2 172 351 -0.465108 0 19024 -0.465108 1
gene 1 147 226 -1.95094 0 19243 -1.95094 1
gene 2 38 226 2.03303 0 19449 2.03303 1
gene 2 211 333 2.3801 0 19691 2.3801 1
gene 1 351 224 0.308269 0 19817 0.308269 1
gene 2 26 351 1.24599 0 21136 1.24599 1
gene 2 333 333 -4.87667 1 21571 -4.87667 1
gene 2 14 351 1.0761 0 21953 1.0761 1
gene 3 102 224 2.28875 0 22776 2.28875 1
gene 1 110 226 -1.19934 0 23398 -1.19934 1
gene 1 221 333 -0.704941 0 23654 -0.704941 1
gene 2 123 225 1.05032 0 24130 1.05032 1
gene 2 64 333 -0.0758515 0 24276 -0.0758515 1
gene 2 79 286 -3.53382 0 24543 -3.53382 1
gene 1 48 223 1.29135 0 24614 1.29135 1
gene 2 94 286 -0.891106 0 24745 -0.891106 1
gene 1 164 225 0.204421 0 25072 0.204421 1
gene 3 144 351 0.290709 0 25145 0.290709 1
gene 1 17 351 -0.397281 0 25313 -0.397281 1
gene 3 19 226 0.279517 0 25462 0.279517 1
gene 1 351 351 -0.737947 1 25580 -0.737947 1
gene 3 149 333 0.775176 0 25779 0.775176 1
gene 3 171 225 -0.188184 0 25944 -0.188184 1
gene 1 171 351 -1.3341 0 26303 -1.3341 1
gene 3 53 223 0.989354 0 26500 0.989354 1
gene 1 180 351 0.548656 0 26597 0.548656 1
gene 1 2 226 0.709478 0 26692 0.709478 1
gene 2 181 226 0.683143 0 26858 0.683143 1
gene 2 86 286 -0.528293 0 26970 -0.528293 1
gene 3 17 224 -0.849751 0 27069 -0.849751 1
gene 2 7 224 0.835787 0 27229 0.835787 1
gene 1 224 351 -0.447316 1 27300 -0.447316 1
gene 3 188 223 0.5751 0 27451 0.5751 1
gene 3 43 286 -0.0935999 0 27633 -0.0935999 1
gene 2 54 286 0.782153 0 27861 0.782153 1
gene 1 9 224 -0.917554 0 28081 -0.917554 1
gene 3 83 286 -0.085841 0 28176 -0.085841 1
genomeend 240



/* Organism #465 Fitness: 761.184 Error: 0 */
genomestart 465
trait 1 1 0.434787 0.970227 0.135503 0.185916 0.349678 0.125978 0.46098 
trait 2 0.326278 0.138854 0.0302955 0.26227 0.06707 0 0 0.268192 
trait 3 0.530211 0.0417332 0.167671 0.0663778 0.468217 0.145818 0 0.038486 
node 1 1 1 1
node 2 2 1 1
node 3 1 1 1
node 4 1 1 1
node 5 3 1 1
node 6 2 1 1
node 7 1 1 1
node 8 1 1 1
node 9 2 1 1
node 10 1 1 1
node 11 3 1 1
node 12 1 1 1
node 13 2 1 1
node 14 2 1 1
node 15 1 1 1
node 16 3 1 1
node 17 3 1 1
node 18 3 1 1
node 19 3 1 1
node 20 3 1 1
node 21 1 1 1
node 22 3 1 1
node 23 3 1 1
node 24 2 1 1
node 25 2 1 1
node 26 1 1 1
node 27 1 1 1
node 28 3 1 1
node 29 2 1 1
node 30 2 1 1
node 31 2 1 1
node 32 2 1 1
node 33 1 1 1
node 34 2 1 1
node 35 3 1 1
node 36 1 1 1
node 37 1 1 1
node 38 3 1 1
node 39 2 1 1
node 40 2 1 1
node 41 2 1 1
node 42 2 1 1
node 43 2 1 1
node 44 3 1 1
node 45 2 1 1
node 46 1 1 1
node 47 1 1 1
node 48 3 1 1
node 49 3 1 1
node 50 3 1 1
node 51 2 1 1
node 52 1 1 1
node 53 2 1 1
node 54 2 1 1
node 55 3 1 1
node 56 1 1 1
node 57 3 1 1
node 58 1 1 1
node 59 3 1 1
node 60 2 1 1
node 61 3 1 1
node 62 2 1 1
node 63 1 1 1
node 64 3 1 1
node 65 2 1 1
node 66 1 1 1
node 67 3 1 1
node 68 2 1 1
node 69 1 1 1
node 70 2 1 1
node 71 1 1 1
node 72 2 1 1
node 73 2 1 1
node 74 3 1 1
node 75 2 1 1
node 76 3 1 1
node 77 1 1 1
node 78 2 1 1
node 79 2 1 1
node 80 1 1 1
node 81 1 1 1
node 82 1 1 1
node 83 2 1 1
node 84 1 1 1
node 85 1 1 1
node 86 2 1 1
node 87 1 1 1
node 88 3 1 1
node 89 3 1 1
node 90 1 1 1
node 91 2 1 1
node 92 3 1 1
node 93 3 1 1
node 94 3 1 1
node 95 3 1 1
node 96 1 1 1
node 97 1 1 1
node 98 3 1 1
node 99 3 1 1
node 100 1 1 1
node 101 2 1 1
node 102 1 1 1
node 103 3 1 1
node 104 3 1 1
node 105 1 1 1
node 106 1 1 1
node 107 1 1 1
node 108 2 1 1
node 109 3 1 1
node 110 1 1 1
node 111 2 1 1
node 112 1 1 1
node 113 2 1 1
node 114 1 1 1
node 115 1 1 1
node 116 2 1 1
node 117 1 1 1
node 118 2 1 1
node 119 2 1 1
node 120 3 1 1
node 121 3 1 1
node 122 1 1 1
node 123 1 1 1
node 124 3 1 1
node 125 1 1 1
node 126 3 1 1
node 127 3 1 1
node 128 1 1 1
node 129 3 1 1
node 130 3 1 1
node 131 2 1 1
node 132 2 1 1
node 133 3 1 1
node 134 1 1 1
node 135 2 1 1
node 136 1 1 1
node 137 2 1 1
node 138 2 1 1
node 139 3 1 1
node 140 1 1 1
node 141 3 1 1
node 142 2 1 1
node 143 2 1 1
node 144 1 1 1
node 145 3 1 1
node 146 3 1 1
node 147 3 1 1
node 148 1 1 1
node 149 2 1 1
node 150 1 1 1
node 151 1 1 1
node 152 1 1 1
node 153 2 1 1
node 154 1 1 1
node 155 3 1 1
node 156 2 1 1
node 157 1 1 1
node 158 1 1 1
node 159 3 1 1
node 160 3 1 1
node 161 3 1 1
node 162 2 1 1
node 163 2 1 1
node 164 3 1 1
node 165 2 1 1
node 166 2 1 1
node 167 1 1 1
node 168 2 1 1
node 169 1 1 1
node 170 1 1 1
node 171 3 1 1
node 172 3 1 1
node 173 2 1 1
node 174 2 1 1
node 175 3 1 1
node 176 1 1 1
node 177 2 1 1
node 178 3 1 1
node 179 2 1 1
node 180 1 1 1
node 181 1 1 1
node 182 3 1 1
node 183 2 1 1
node 184 2 1 1
node 185 3 1 1
node 186 3 1 1
node 187 2 1 1
node 188 1 1 1
node 189 3 1 1
node 190 1 1 1
node 191 2 1 1
node 192 3 1 1
node 193 2 1 1
node 194 3 1 1
node 195 3 1 1
node 196 2 1 1
node 197 2 1 1
node 198 3 1 1
node 199 1 1 1
node 200 3 1 1
node 201 3 1 1
node 202 3 1 1
node 203 2 1 1
node 204 3 1 1
node 205 2 1 1
node 206 3 1 1
node 207 1 1 1
node 208 1 1 1
node 209 2 1 1
node 210 3 1 1
node 211 1 1 1
node 212 3 1 1
node 213 2 1 1
node 214 3 1 1
node 215 2 1 1
node 216 1 1 1
node 217 2 1 1
node 218 3 1 1
node 219 3 1 1
node 220 2 1 1
node 221 1 1 3
node 223 1 0 2
node 224 2 0 2
node 225 3 0 2
node 226 1 0 2
node 286 3 0 0
node 333 1 0 0
node 351 1 0 0
node 602 1 0 0
gene 2 110 224 3.09392 0 1 3.09392 1
gene 3 112 226 6.13682 0 2 6.13682 1
gene 2 91 223 4.56622 0 3 4.56622 1
gene 2 131 225 0.550615 0 4 0.550615 0
gene 2 15 225 2.0312 0 113 2.0312 1
gene 2 226 226 0.424461 1 153 0.424461 1
gene 2 151 224 -5.82402 0 330 -5.82402 1
gene 1 63 225 0.91426 0 866 0.91426 1
gene 1 167 225 4.41886 0 968 4.41886 1
gene 3 223 223 -2.09711 1 1062 -2.09711 1
gene 1 61 226 -0.131815 0 1110 -0.131815 1
gene 2 41 223 -0.500377 0 1259 -0.500377 1
gene 1 149 223 -1.40501 0 1318 -1.40501 1
gene 2 115 224 1.51901 0 1367 1.51901 1
gene 1 142 223 -1.14001 0 1500 -1.14001 1
gene 2 88 225 1.50882 0 1622 1.50882 1
gene 2 90 225 -0.630816 0 1840 -0.630816 1
gene 1 30 224 2.00185 0 2432 2.00185 1
gene 2 159 223 -2.48319 0 2514 -2.48319 1
gene 3 167 223 -2.19324 0 2930 -2.19324 1
gene 3 126 225 7.92074 0 3459 7.92074 1
gene 3 37 223 5.83067 0 4567 5.83067 1
gene 2 9 225 -1.16715 0 4646 -1.16715 1
gene 1 39 224 0.227252 0 4854 0.227252 1
gene 1 140 223 -1.61563 0 4923 -1.61563 1
gene 1 202 225 1.35421 0 5177 1.35421 1
gene 2 225 225 -3.84316 1 5420 -3.84316 1
gene 2 224 224 2.69619 1 5429 2.69619 1
gene 3 60 223 -5.57491 0 5761 -5.57491 1
gene 3 81 225 1.76211 0 6640 1.76211 1
gene 1 225 286 2.87587 1 6848 2.87587 1
gene 2 286 225 4.20504 0 6849 4.20504 1
gene 2 164 223 -3.29375 0 7009 -3.29375 1
gene 3 161 225 -2.36421 0 7279 -2.36421 1
gene 1 195 286 -2.98491 0 7371 -2.98491 1
gene 2 181 224 2.20397 0 7607 2.20397 1
gene 3 45 224 -0.0408033 0 7682 -0.0408033 1
gene 3 105 223 -0.914817 0 7822 -0.914817 1
gene 2 124 224 3.8432 0 8099 3.8432 1
gene 1 42 225 -2.45194 0 9150 -2.45194 1
gene 3 67 225 1.49851 0 9430 1.49851 1
gene 2 103 224 -0.080859 0 9434 -0.080859 1
gene 2 113 225 0.842834 0 10243 0.842834 1
gene 3 125 286 -2.81539 0 10450 -2.81539 1
gene 1 196 226 1.36628 0 10522 1.36628 1
gene 1 141 286 1.68714 0 10843 1.68714 1
gene 1 62 286 3.14495 0 10980 3.14495 1
gene 1 88 286 -6.58052 0 11435 -6.58052 1
gene 2 101 286 5.36864 0 11813 5.36864 1
gene 1 31 223 -0.432847 0 11908 -0.432847 1
gene 2 87 224 2.16177 0 12669 2.16177 1
gene 2 77 286 -0.407292 0 13277 -0.407292 1
gene 1 94 223 1.08838 0 13640 1.08838 1
gene 3 107 224 1.83931 0 14353 1.83931 1
gene 1 131 224 -0.604795 0 14728 -0.604795 1
gene 1 108 286 -4.66062 0 15336 -4.66062 1
gene 3 120 224 2.62362 0 15772 2.62362 1
gene 1 13 286 1.54495 0 16002 1.54495 1
gene 3 30 226 -1.59372 0 16057 -1.59372 1
gene 1 59 224 2.11532 0 16285 2.11532 1
gene 1 286 286 -3.94925 1 16410 -3.94925 1
gene 2 9 223 0.901227 0 17370 0.901227 1
gene 2 131 333 -4.49568 0 17455 -4.49568 1
gene 2 333 225 -0.35877 0 17456 -0.35877 1
gene 2 18 226 -2.33945 0 17604 -2.33945 1
gene 3 30 351 -2.18264 0 17713 -2.18264 1
gene 3 351 226 -3.51777 0 17714 -3.51777 1
gene 3 165 226 0.0422047 0 17841 0.0422047 1
gene 2 116 223 -0.444672 0 18589 -0.444672 1
gene 2 172 351 -1.86026 0 19024 -1.86026 1
gene 1 147 226 -0.970498 0 19243 -0.970498 1
gene 2 38 226 0.0515946 0 19449 0.0515946 1
gene 2 211 333 -0.00952388 0 19691 -0.00952388 0
gene 1 351 224 -0.589384 0 19817 -0.589384 1
gene 2 26 351 -0.888152 0 21136 -0.888152 1
gene 2 333 333 -1.81949 1 21571 -1.81949 1
gene 2 14 351 0.354736 0 21953 0.354736 1
gene 3 102 224 -0.802117 0 22776 -0.802117 1
gene 1 110 226 0.691186 0 23398 0.691186 1
gene 1 221 333 -0.0575032 0 23654 -0.0575032 1
gene 2 123 225 0.07775 0 24130 0.07775 1
gene 2 64 333 -0.0940288 0 24276 -0.0940288 1
gene 2 79 286 0.365774 0 24543 0.365774 1
gene 1 48 223 -0.354466 0 24614 -0.354466 1
gene 2 94 286 0.69726 0 24745 0.69726 1
gene 1 164 225 0.584278 0 25072 0.584278 1
gene 3 206 351 0.597256 0 25141 0.597256 1
gene 2 211 602 1 0 25311 0 1
gene 2 602 333 -0.00952388 0 25312 0 1
gene 3 602 602 -0.56663 1 25774 -0.56663 1
gene 2 126 223 -0.863752 0 25939 -0.863752 1
genomeend 465



/* Organism #138 Fitness: 593.708 Error: 0 */
genomestart 138
trait 1 0.76733 0.837109 0.597202 0.110227 0.139437 0.346989 0.167555 0.139137 
trait 2 0.902458 0.171255 0 0.247336 0.804953 0.132118 0.262438 0.559869 
trait 3 0.581808 0.0838675 0.380735 0.821534 0 0.294887 0 0.123817 
node 1 3 1 1
node 2 1 1 1
node 3 3 1 1
node 4 2 1 1
node 5 3 1 1
node 6 2 1 1
node 7 1 1 1
node 8 2 1 1
node 9 1 1 1
node 10 3 1 1
node 11 1 1 1
node 12 2 1 1
node 13 2 1 1
node 14 3 1 1
node 15 2 1 1
node 16 3 1 1
node 17 1 1 1
node 18 2 1 1
node 19 3 1 1
node 20 1 1 1
node 21 3 1 1
node 22 3 1 1
node 23 1 1 1
node 24 2 1 1
node 25 2 1 1
node 26 2 1 1
node 27 2 1 1
node 28 2 1 1
node 29 1 1 1
node 30 2 1 1
node 31 1 1 1
node 32 3 1 1
node 33 3 1 1
node 34 1 1 1
node 35 2 1 1
node 36 2 1 1
node 37 2 1 1
node 38 2 1 1
node 39 3 1 1
node 40 3 1 1
node 41 2 1 1
node 42 2 1 1
node 43 1 1 1
node 44 1 1 1
node 45 2 1 1
node 46 3 1 1
node 47 1 1 1
node 48 3 1 1
node 49 1 1 1
node 50 3 1 1
node 51 3 1 1
node 52 2 1 1
node 53 3 1 1
node 54 2 1 1
node 55 1 1 1
node 56 2 1 1
node 57 3 1 1
node 58 2 1 1
node 59 3 1 1
node 60 1 1 1
node 61 1 1 1
node 62 1 1 1
node 63 3 1 1
node 64 1 1 1
node 65 1 1 1
node 66 2 1 1
node 67 3 1 1
node 68 3 1 1
node 69 3 1 1
node 70 3 1 1
node 71 2 1 1
node 72 3 1 1
node 73 2 1 1
node 74 3 1 1
node 75 1 1 1
node 76 1 1 1
node 77 2 1 1
node 78 1 1 1
node 79 3 1 1
node 80 1 1 1
node 81 1 1 1
node 82 1 1 1
node 83 2 1 1
node 84 1 1 1
node 85 2 1 1
node 86 2 1 1
node 87 3 1 1
node 88 2 1 1
node 89 1 1 1
node 90 2 1 1
node 91 3 1 1
node 92 3 1 1
node 93 1 1 1
node 94 3 1 1
node 95 3 1 1
node 96 1 1 1
node 97 2 1 1
node 98 2 1 1
node 99 1 1 1
node 100 1 1 1
node 101 2 1 1
node 102 3 1 1
node 103 1 1 1
node 104 1 1 1
node 105 3 1 1
node 106 1 1 1
node 107 1 1 1
node 108 1 1 1
node 109 2 1 1
node 110 2 1 1
node 111 2 1 1
node 112 3 1 1
node 113 3 1 1
node 114 1 1 1
node 115 1 1 1
node 116 1 1 1
node 117 3 1 1
node 118 3 1 1
node 119 3 1 1
node 120 1 1 1
node 121 2 1 1
node 122 2 1 1
node 123 1 1 1
node 124 2 1 1
node 125 2 1 1
node 126 3 1 1
node 127 3 1 1
node 128 1 1 1
node 129 2 1 1
node 130 1 1 1
node 131 2 1 1
node 132 2 1 1
node 133 3 1 1
node 134 3 1 1
node 135 3 1 1
node 136 3 1 1
node 137 3 1 1
node 138 1 1 1
node 139 1 1 1
node 140 3 1 1
node 141 3 1 1
node 142 3 1 1
node 143 2 1 1
node 144 2 1 1
node 145 1 1 1
node 146 2 1 1
node 147 3 1 1
node 148 3 1 1
node 149 1 1 1
node 150 2 1 1
node 151 1 1 1
node 152 3 1 1
node 153 2 1 1
node 154 1 1 1
node 155 1 1 1
node 156 1 1 1
node 157 3 1 1
node 158 1 1 1
node 159 1 1 1
node 160 3 1 1
node 161 1 1 1
node 162 2 1 1
node 163 1 1 1
node 164 2 1 1
node 165 2 1 1
node 166 3 1 1
node 167 1 1 1
node 168 2 1 1
node 169 3 1 1
node 170 2 1 1
node 171 1 1 1
node 172 2 1 1
node 173 2 1 1
node 174 3 1 1
node 175 1 1 1
node 176 2 1 1
node 177 2 1 1
node 178 3 1 1
node 179 1 1 1
node 180 2 1 1
node 181 3 1 1
node 182 2 1 1
node 183 1 1 1
node 184 1 1 1
node 185 3 1 1
node 186 3 1 1
node 187 2 1 1
node 188 1 1 1
node 189 3 1 1
node 190 2 1 1
node 191 3 1 1
node 192 2 1 1
node 193 1 1 1
node 194 1 1 1
node 195 3 1 1
node 196 3 1 1
node 197 3 1 1
node 198 3 1 1
node 199 2 1 1
node 200 1 1 1
node 201 2 1 1
node 202 3 1 1
node 203 3 1 1
node 204 3 1 1
node 205 2 1 1
node 206 1 1 1
node 207 2 1 1
node 208 3 1 1
node 209 1 1 1
node 210 3 1 1
node 211 2 1 1
node 212 3 1 1
node 213 2 1 1
node 214 3 1 1
node 215 1 1 1
node 216 2 1 1
node 217 3 1 1
node 218 2 1 1
node 219 2 1 1
node 220 3 1 1
node 221 3 1 3
node 223 2 0 2
node 224 1 0 2
node 225 2 0 2
node 226 2 0 2
node 286 3 0 0
node 333 1 0 0
node 351 2 0 0
node 693 1 0 0
gene 3 110 224 5.24093 0 1 5.24093 1
gene 2 112 226 1.06333 0 2 1.06333 1
gene 3 91 223 5.84059 0 3 5.84059 1
gene 1 131 225 -2.21885 0 4 -2.21885 1
gene 1 15 225 -7.17046 0 113 -7.17046 1
gene 1 226 226 -5.29664 1 153 -5.29664 1
gene 2 151 224 -6.93913 0 330 -6.93913 1
gene 2 63 225 -3.68876 0 866 -3.68876 1
gene 2 167 225 1.92983 0 968 1.92983 1
gene 2 223 223 7.07779 1 1062 7.07779 1
gene 3 61 226 3.66164 0 1110 3.66164 1
gene 2 41 223 3.08813 0 1259 3.08813 1
gene 3 149 223 4.85287 0 1318 4.85287 1
gene 2 115 224 7.23296 0 1367 7.23296 1
gene 1 142 223 -2.53181 0 1500 -2.53181 1
gene 1 88 225 2.02329 0 1622 2.02329 1
gene 2 90 225 -2.68223 0 1840 -2.68223 1
gene 2 30 224 0.0395639 0 2432 0.0395639 1
gene 3 159 223 3.95732 0 2514 3.95732 1
gene 1 167 223 -1.45846 0 2930 -1.45846 1
gene 1 126 225 -3.73935 0 3459 -3.73935 1
gene 3 37 223 1.27488 0 4567 1.27488 1
gene 3 9 225 0.106362 0 4646 0.106362 1
gene 1 39 224 0.910101 0 4854 0.910101 1
gene 3 140 223 1.14555 0 4923 1.14555 1
gene 3 202 225 0.446989 0 5177 0.446989 1
gene 2 225 225 0.787446 1 5420 0.787446 1
gene 3 224 224 4.34643 1 5429 4.34643 1
gene 1 60 223 1.77504 0 5761 1.77504 1
gene 2 81 225 0.939365 0 6640 0.939365 1
gene 3 225 286 5.49824 1 6848 5.49824 1
gene 1 286 225 -4.65184 0 6849 -4.65184 1
gene 2 164 223 7.64995 0 7009 7.64995 1
gene 1 161 225 1.6981 0 7279 1.6981 1
gene 1 195 286 4.13428 0 7371 4.13428 1
gene 2 181 224 8 0 7607 8 1
gene 1 45 224 3.41808 0 7682 3.41808 1
gene 3 105 223 3.16504 0 7822 3.16504 1
gene 2 124 224 -8 0 8099 -8 1
gene 2 42 225 -3.16115 0 9150 -3.16115 1
gene 2 67 225 -1.89149 0 9430 -1.89149 1
gene 1 103 224 -7.39082 0 9434 -7.39082 1
gene 1 113 225 0.827404 0 10243 0.827404 1
gene 3 125 286 2.36421 0 10450 2.36421 1
gene 3 196 226 -0.682248 0 10522 -0.682248 1
gene 3 141 286 4.97062 0 10843 4.97062 1
gene 3 62 286 -0.335428 0 10980 -0.335428 1
gene 2 88 286 -1.10028 0 11435 -1.10028 1
gene 2 101 286 5.32629 0 11813 5.32629 1
gene 3 31 223 -0.860725 0 11908 -0.860725 1
gene 1 87 224 3.86602 0 12669 3.86602 1
gene 3 77 286 0.542115 0 13277 0.542115 1
gene 3 94 223 -1.39328 0 13640 -1.39328 1
gene 3 107 224 -2.20389 0 14353 -2.20389 1
gene 2 131 224 -5.2214 0 14728 -5.2214 1
gene 2 108 286 4.92976 0 15336 4.92976 1
gene 2 120 224 5.22604 0 15772 5.22604 1
gene 1 13 286 3.40702 0 16002 3.40702 1
gene 3 30 226 0.613285 0 16057 0.613285 1
gene 2 59 224 -0.548438 0 16285 -0.548438 1
gene 3 286 286 0.659798 1 16410 0.659798 1
gene 3 9 223 -2.00123 0 17370 -2.00123 1
gene 1 131 333 3.24835 0 17455 3.24835 1
gene 1 333 225 1.27336 0 17456 1.27336 1
gene 1 18 226 6.2025 0 17604 6.2025 1
gene 3 30 351 0.417584 0 17713 0.417584 1
gene 2 351 226 -4.79459 0 17714 -4.79459 1
gene 1 165 226 -1.12572 0 17841 -1.12572 1
gene 1 116 223 -5.08566 0 18589 -5.08566 1
gene 3 172 351 8 0 19024 8 1
gene 2 147 226 -1.03339 0 19243 -1.03339 1
gene 3 38 226 -2.35838 0 19449 -2.35838 1
gene 2 211 333 6.64717 0 19691 6.64717 1
gene 3 351 224 -2.40359 0 19817 -2.40359 1
gene 2 26 351 2.29165 0 21136 2.29165 1
gene 3 333 333 -6.2078 1 21571 -6.2078 1
gene 2 14 351 0.273292 0 21953 0.273292 1
gene 2 102 224 -1.51557 0 22776 -1.51557 1
gene 1 110 226 4.18036 0 23398 4.18036 1
gene 2 221 333 4.31437 0 23654 4.31437 1
gene 3 123 225 -0.836358 0 24130 -0.836358 1
gene 1 64 333 -0.51741 0 24276 -0.51741 1
gene 2 79 286 -1.38766 0 24543 -1.38766 1
gene 3 48 223 2.15259 0 24614 2.15259 1
gene 3 94 286 1.97526 0 24745 1.97526 1
gene 3 164 225 6.45032 0 25072 6.45032 1
gene 2 144 351 -4.50996 0 25145 -4.50996 1
gene 1 17 351 -1.63014 0 25313 -1.63014 1
gene 3 19 226 -2.64039 0 25462 -2.64039 1
gene 2 351 351 3.33632 1 25580 3.33632 1
gene 2 149 333 5.21832 0 25779 5.21832 1
gene 3 171 225 6.43586 0 25944 6.43586 1
gene 3 171 351 2.40658 0 26303 2.40658 1
gene 1 53 223 -1.81234 0 26500 -1.81234 1
gene 1 180 351 -3.15177 0 26597 -3.15177 1
gene 3 2 226 -5.02793 0 26692 -5.02793 1
gene 3 181 226 0.537345 0 26858 0.537345 1
gene 3 86 286 5.28623 0 26970 5.28623 1
gene 3 17 224 7.28264 0 27069 7.28264 0
gene 3 7 224 -1.9185 0 27229 -1.9185 1
gene 2 224 351 3.12036 1 27300 3.12036 1
gene 2 188 223 4.38402 0 27451 4.38402 1
gene 1 43 286 -0.556086 0 27633 -0.556086 1
gene 2 54 286 -0.338194 0 27861 -0.338194 1
gene 1 9 224 -8 0 28081 -8 1
gene 3 83 286 -1.73731 0 28176 -1.73731 1
gene 3 139 226 -0.534329 0 28211 -0.534329 1
gene 2 221 351 -5.29446 0 28300 -5.29446 1
gene 2 196 286 0.454808 0 28567 0.454808 1
gene 3 195 333 -1.99045 0 28993 -1.99045 1
gene 1 213 226 -0.227705 0 29234 -0.227705 1
gene 3 159 224 0.235204 0 29677 0.235204 1
gene 1 125 224 1.67836 0 30838 1.67836 1
gene 3 71 351 0.244689 0 31084 0.244689 1
gene 3 109 223 -5.786 0 32103 -5.786 1
gene 1 98 351 1.29278 0 32499 1.29278 1
gene 1 206 226 0.442482 0 32704 0.442482 1
gene 1 39 351 0.368396 0 32929 0.368396 1
gene 3 19 224 0.695938 0 33438 0.695938 1
gene 2 216 333 -1.09207 0 33815 -1.09207 1
gene 3 49 225 3.14226 0 34014 3.14226 1
gene 3 186 224 0.489509 0 34229 0.489509 1
gene 2 191 286 -0.939436 0 34341 -0.939436 1
gene 1 49 333 1.72747 0 34585 1.72747 1
gene 3 16 286 0.439135 0 34820 0.439135 1
gene 3 14 226 1.79313 0 35656 1.79313 1
gene 3 23 225 -1.56546 0 35778 -1.56546 1
gene 2 109 286 -0.24101 0 36191 -0.24101 1
gene 1 286 224 0.444785 0 36613 0.444785 1
gene 1 125 333 -0.0169382 0 36809 -0.0169382 1
gene 1 50 223 2.11253 0 37489 2.11253 1
gene 3 17 693 1.96771 0 37708 1.96771 1
gene 3 693 224 -1.46284 0 37709 -1.46284 1
gene 3 57 693 -1.04666 0 37880 -1.04666 1
gene 1 76 225 1.45859 0 38059 1.45859 1
gene 2 22 286 0.22736 0 38306 0.22736 1
gene 1 148 224 0.971121 0 38647 0.971121 1
gene 1 693 693 -1.19489 1 38753 -1.19489 1
gene 2 69 226 -0.130879 0 38916 -0.130879 1
genomeend 138


/* Organism #352 Fitness: 1512.65 Error: 0 */
genomestart 352
trait 1 1 0.781593 0.0953834 0.54259 0.185916 0.732049 0.0381313 0.35649 
trait 2 0.747354 0.10414 0.0227216 0.441 0.0503025 0.0470892 0 0.214722 
trait 3 0.356604 0.0419337 0.166244 0.519589 0.190643 0.144577 0 0.0384483 
node 1 3 1 1
node 2 1 1 1
node 3 3 1 1
node 4 1 1 1
node 5 1 1 1
node 6 3 1 1
node 7 1 1 1
node 8 2 1 1
node 9 1 1 1
node 10 1 1 1
node 11 2 1 1
node 12 2 1 1
node 13 3 1 1
node 14 3 1 1
node 15 1 1 1
node 16 3 1 1
node 17 3 1 1
node 18 3 1 1
node 19 1 1 1
node 20 3 1 1
node 21 2 1 1
node 22 1 1 1
node 23 1 1 1
node 24 3 1 1
node 25 3 1 1
node 26 3 1 1
node 27 3 1 1
node 28 1 1 1
node 29 3 1 1
node 30 1 1 1
node 31 2 1 1
node 32 3 1 1
node 33 2 1 1
node 34 1 1 1
node 35 2 1 1
node 36 2 1 1
node 37 1 1 1
node 38 2 1 1
node 39 1 1 1
node 40 2 1 1
node 41 3 1 1
node 42 3 1 1
node 43 1 1 1
node 44 1 1 1
node 45 2 1 1
node 46 2 1 1
node 47 3 1 1
node 48 3 1 1
node 49 1 1 1
node 50 1 1 1
node 51 3 1 1
node 52 3 1 1
node 53 3 1 1
node 54 3 1 1
node 55 2 1 1
node 56 3 1 1
node 57 1 1 1
node 58 1 1 1
node 59 1 1 1
node 60 3 1 1
node 61 2 1 1
node 62 2 1 1
node 63 1 1 1
node 64 1 1 1
node 65 3 1 1
node 66 2 1 1
node 67 3 1 1
node 68 1 1 1
node 69 1 1 1
node 70 1 1 1
node 71 2 1 1
node 72 3 1 1
node 73 3 1 1
node 74 3 1 1
node 75 1 1 1
node 76 3 1 1
node 77 1 1 1
node 78 1 1 1
node 79 2 1 1
node 80 2 1 1
node 81 2 1 1
node 82 1 1 1
node 83 1 1 1
node 84 2 1 1
node 85 2 1 1
node 86 1 1 1
node 87 1 1 1
node 88 2 1 1
node 89 1 1 1
node 90 1 1 1
node 91 2 1 1
node 92 3 1 1
node 93 3 1 1
node 94 2 1 1
node 95 1 1 1
node 96 2 1 1
node 97 1 1 1
node 98 3 1 1
node 99 2 1 1
node 100 1 1 1
node 101 1 1 1
node 102 2 1 1
node 103 2 1 1
node 104 1 1 1
node 105 1 1 1
node 106 2 1 1
node 107 1 1 1
node 108 2 1 1
node 109 1 1 1
node 110 3 1 1
node 111 1 1 1
node 112 3 1 1
node 113 1 1 1
node 114 2 1 1
node 115 1 1 1
node 116 3 1 1
node 117 2 1 1
node 118 1 1 1
node 119 1 1 1
node 120 3 1 1
node 121 3 1 1
node 122 1 1 1
node 123 3 1 1
node 124 3 1 1
node 125 3 1 1
node 126 3 1 1
node 127 2 1 1
node 128 1 1 1
node 129 3 1 1
node 130 1 1 1
node 131 1 1 1
node 132 3 1 1
node 133 3 1 1
node 134 2 1 1
node 135 1 1 1
node 136 1 1 1
node 137 2 1 1
node 138 2 1 1
node 139 3 1 1
node 140 2 1 1
node 141 1 1 1
node 142 3 1 1
node 143 1 1 1
node 144 3 1 1
node 145 2 1 1
node 146 1 1 1
node 147 2 1 1
node 148 3 1 1
node 149 2 1 1
node 150 1 1 1
node 151 1 1 1
node 152 2 1 1
node 153 1 1 1
node 154 3 1 1
node 155 2 1 1
node 156 3 1 1
node 157 3 1 1
node 158 1 1 1
node 159 1 1 1
node 160 3 1 1
node 161 2 1 1
node 162 2 1 1
node 163 3 1 1
node 164 2 1 1
node 165 1 1 1
node 166 1 1 1
node 167 2 1 1
node 168 2 1 1
node 169 3 1 1
node 170 2 1 1
node 171 1 1 1
node 172 1 1 1
node 173 1 1 1
node 174 1 1 1
node 175 1 1 1
node 176 3 1 1
node 177 2 1 1
node 178 2 1 1
node 179 3 1 1
node 180 2 1 1
node 181 2 1 1
node 182 3 1 1
node 183 3 1 1
node 184 3 1 1
node 185 1 1 1
node 186 1 1 1
node 187 1 1 1
node 188 3 1 1
node 189 2 1 1
node 190 1 1 1
node 191 3 1 1
node 192 1 1 1
node 193 3 1 1
node 194 2 1 1
node 195 2 1 1
node 196 2 1 1
node 197 2 1 1
node 198 1 1 1
node 199 3 1 1
node 200 3 1 1
node 201 2 1 1
node 202 2 1 1
node 203 3 1 1
node 204 2 1 1
node 205 2 1 1
node 206 1 1 1
node 207 2 1 1
node 208 2 1 1
node 209 2 1 1
node 210 2 1 1
node 211 3 1 1
node 212 1 1 1
node 213 2 1 1
node 214 2 1 1
node 215 1 1 1
node 216 2 1 1
node 217 1 1 1
node 218 1 1 1
node 219 1 1 1
node 220 2 1 1
node 221 2 1 3
node 223 3 0 2
node 224 3 0 2
node 225 2 0 2
node 226 3 0 2
node 286 1 0 0
node 333 2 0 0
node 351 2 0 0
node 354 1 0 0
node 491 1 0 0
gene 2 110 224 4.44348 0 1 4.44348 1
gene 1 112 226 2.05971 0 2 2.05971 1
gene 2 91 223 2.88063 0 3 2.88063 1
gene 3 131 225 -1.2357 0 4 -1.2357 1
gene 3 15 225 -0.392789 0 113 -0.392789 1
gene 1 226 226 1.37319 1 153 1.37319 1
gene 3 151 224 -3.41545 0 330 -3.41545 1
gene 2 63 225 1.25549 0 866 1.25549 1
gene 1 167 225 0.510509 0 968 0.510509 0
gene 1 223 223 4.88826 1 1062 4.88826 1
gene 3 61 226 -4.68811 0 1110 -4.68811 1
gene 3 41 223 -2.2148 0 1259 -2.2148 1
gene 3 149 223 2.4464 0 1318 2.4464 1
gene 1 115 224 -1.01302 0 1367 -1.01302 1
gene 3 142 223 2.77969 0 1500 2.77969 1
gene 2 88 225 0.317447 0 1622 0.317447 1
gene 2 90 225 -1.33026 0 1840 -1.33026 1
gene 1 30 224 -2.95523 0 2432 -2.95523 1
gene 3 159 223 -0.629649 0 2514 -0.629649 1
gene 1 167 223 1.23365 0 2930 1.23365 1
gene 3 126 225 -0.776299 0 3459 -0.776299 1
gene 2 37 223 2.00759 0 4567 2.00759 1
gene 3 9 225 0.848468 0 4646 0.848468 1
gene 2 39 224 -3.64308 0 4854 -3.64308 1
gene 2 140 223 -1.65807 0 4923 -1.65807 1
gene 2 202 225 -0.789369 0 5177 -0.789369 1
gene 3 225 225 -0.860487 1 5420 -0.860487 1
gene 1 224 224 0.516117 1 5429 0.516117 1
gene 2 60 223 -1.80295 0 5761 -1.80295 1
gene 1 81 225 0.23887 0 6640 0.23887 1
gene 1 225 286 -0.346794 1 6848 -0.346794 1
gene 2 286 225 1.17629 0 6849 1.17629 1
gene 3 164 223 -0.276567 0 7009 -0.276567 1
gene 3 161 225 -6.32058 0 7279 -6.32058 1
gene 1 195 286 1.89787 0 7371 1.89787 1
gene 2 181 224 4.44279 0 7607 4.44279 1
gene 1 45 224 1.1666 0 7682 1.1666 1
gene 3 105 223 0.391634 0 7822 0.391634 1
gene 2 124 224 0.383373 0 8099 0.383373 1
gene 1 42 225 -2.75257 0 9150 -2.75257 1
gene 2 67 225 -0.495226 0 9430 -0.495226 1
gene 3 103 224 3.14697 0 9434 3.14697 1
gene 1 113 225 0.167357 0 10243 0.167357 1
gene 1 125 286 2.03151 0 10450 2.03151 1
gene 2 196 226 -0.633201 0 10522 -0.633201 1
gene 1 141 286 -4.4149 0 10843 -4.4149 1
gene 2 62 286 -0.60603 0 10980 -0.60603 1
gene 3 88 286 -1.6521 0 11435 -1.6521 1
gene 3 101 286 1.74211 0 11813 1.74211 1
gene 2 31 223 -1.11758 0 11908 -1.11758 1
gene 3 87 224 -1.42834 0 12669 -1.42834 1
gene 2 77 286 -1.1361 0 13277 -1.1361 1
gene 1 94 223 3.43479 0 13640 3.43479 1
gene 2 107 224 -2.9834 0 14353 -2.9834 1
gene 3 131 224 -1.49533 0 14728 -1.49533 1
gene 2 108 286 1.13028 0 15336 1.13028 1
gene 3 120 224 -1.80215 0 15772 -1.80215 1
gene 3 13 286 -4.18314 0 16002 -4.18314 1
gene 1 30 226 -0.0767472 0 16057 -0.0767472 0
gene 2 59 224 -1.03249 0 16285 -1.03249 1
gene 3 286 286 -1.35117 1 16410 -1.35117 1
gene 2 9 223 1.13362 0 17370 1.13362 1
gene 3 131 333 0.101362 0 17455 0.101362 1
gene 3 333 225 -0.7816 0 17456 -0.7816 1
gene 1 18 226 0.252002 0 17604 0.252002 1
gene 1 30 351 3.06234 0 17713 3.06234 1
gene 2 351 226 1.13448 0 17714 1.13448 1
gene 1 165 226 2.19792 0 17841 2.19792 1
gene 1 116 223 -0.64628 0 18589 -0.64628 1
gene 2 172 351 -3.26529 0 19024 -3.26529 1
gene 3 147 226 -2.82303 0 19243 -2.82303 1
gene 3 38 226 1.9654 0 19449 1.9654 1
gene 2 211 333 2.4868 0 19691 2.4868 1
gene 3 351 224 0.69045 0 19817 0.69045 1
gene 1 26 351 1.12031 0 21136 1.12031 1
gene 3 333 333 -0.776533 1 21571 -0.776533 1
gene 1 14 351 -1.69485 0 21953 -1.69485 1
gene 1 102 224 -0.255479 0 22776 -0.255479 1
gene 3 110 226 0.776821 0 23398 0.776821 1
gene 1 221 333 -1.98575 0 23654 -1.98575 1
gene 1 123 225 -1.91905 0 24130 -1.91905 1
gene 1 64 333 4.79023 0 24276 4.79023 1
gene 3 79 286 -1.16496 0 24543 -1.16496 1
gene 3 48 223 -4.11956 0 24614 -4.11956 1
gene 1 94 286 1.6207 0 24745 1.6207 1
gene 3 164 225 0.153102 0 25072 0.153102 1
gene 3 144 351 1.4492 0 25145 1.4492 1
gene 3 17 351 -1.47889 0 25313 -1.47889 1
gene 2 19 226 1.52182 0 25462 1.52182 1
gene 1 351 351 -1.39702 1 25580 -1.39702 1
gene 1 149 333 -0.800576 0 25779 -0.800576 1
gene 2 171 225 0.80484 0 25944 0.80484 1
gene 3 171 351 -0.609308 0 26303 -0.609308 1
gene 1 53 223 0.210499 0 26500 0.210499 1
gene 1 180 351 1.34261 0 26597 1.34261 1
gene 3 2 226 0.499385 0 26692 0.499385 1
gene 2 181 226 0.694221 0 26858 0.694221 1
gene 2 86 286 -0.468338 0 26970 -0.468338 1
gene 1 17 224 0.598375 0 27069 0.598375 1
gene 3 7 224 3.78358 0 27229 3.78358 1
gene 2 224 351 0.124839 1 27300 0.124839 1
gene 3 188 223 2.22047 0 27451 2.22047 1
gene 1 43 286 0.616633 0 27633 0.616633 1
gene 3 54 286 0.456425 0 27861 0.456425 1
gene 1 9 224 0.325949 0 28081 0.325949 1
gene 2 83 286 -2.84229 0 28176 -2.84229 1
gene 1 226 354 -2.08845 1 28316 -2.08845 1
gene 1 354 226 -1.43165 0 28317 -1.43165 1
gene 2 82 223 0.750755 0 28679 0.750755 1
gene 2 33 354 -1.47635 0 29133 -1.47635 1
gene 3 177 354 2.28211 0 29642 2.28211 1
gene 1 126 226 0.66612 0 29866 0.66612 1
gene 1 354 354 -1.87041 1 30100 -1.87041 1
gene 3 90 223 1.76101 0 30421 1.76101 1
gene 2 114 354 0.876478 0 30619 0.876478 1
gene 2 97 333 -0.886533 0 30749 -0.886533 1
gene 3 218 223 0.846852 0 31085 0.846852 1
gene 2 210 351 -1.06615 0 31518 -1.06615 1
gene 2 28 351 -1.67365 0 31646 -1.67365 1
gene 1 30 491 -0.399073 0 31822 -0.399073 1
gene 1 491 226 -1.47237 0 31823 -1.47237 1
gene 3 491 491 0.466058 1 32143 0.466058 1
gene 2 100 226 -0.45901 0 32469 -0.45901 1
gene 3 60 333 -0.201313 0 32967 -0.201313 1
gene 3 85 333 0.345047 0 33166 0.345047 1
gene 1 71 224 0.765995 0 33557 0.765995 1
gene 1 194 223 -0.251454 0 33659 -0.251454 1
gene 3 68 286 -0.29574 0 33784 -0.29574 1
gene 3 83 351 -0.380412 0 34025 -0.380412 1
gene 1 148 226 0.570921 0 34149 0.570921 1
genomeend 352

/* Organism #17 Fitness: 2453.09 Error: 0 */
genomestart 17
trait 1 1 1 0.122091 0.885647 0.185916 0.732049 0.682833 0.35649 
trait 2 0.84736 0.138854 0.238464 0.237682 0.109689 0.107548 0.0322578 0.107361 
trait 3 0 0.0419337 0 1 0.10475 0.340142 0 0.0228286 
node 1 3 1 1
node 2 1 1 1
node 3 3 1 1
node 4 1 1 1
node 5 1 1 1
node 6 3 1 1
node 7 1 1 1
node 8 2 1 1
node 9 1 1 1
node 10 1 1 1
node 11 2 1 1
node 12 2 1 1
node 13 3 1 1
node 14 3 1 1
node 15 1 1 1
node 16 3 1 1
node 17 3 1 1
node 18 3 1 1
node 19 1 1 1
node 20 3 1 1
node 21 2 1 1
node 22 1 1 1
node 23 1 1 1
node 24 3 1 1
node 25 3 1 1
node 26 3 1 1
node 27 3 1 1
node 28 1 1 1
node 29 3 1 1
node 30 1 1 1
node 31 2 1 1
node 32 3 1 1
node 33 2 1 1
node 34 1 1 1
node 35 2 1 1
node 36 2 1 1
node 37 1 1 1
node 38 2 1 1
node 39 1 1 1
node 40 2 1 1
node 41 3 1 1
node 42 3 1 1
node 43 1 1 1
node 44 1 1 1
node 45 2 1 1
node 46 2 1 1
node 47 3 1 1
node 48 3 1 1
node 49 1 1 1
node 50 3 1 1
node 51 3 1 1
node 52 3 1 1
node 53 3 1 1
node 54 3 1 1
node 55 2 1 1
node 56 3 1 1
node 57 1 1 1
node 58 1 1 1
node 59 1 1 1
node 60 3 1 1
node 61 2 1 1
node 62 2 1 1
node 63 1 1 1
node 64 1 1 1
node 65 3 1 1
node 66 2 1 1
node 67 3 1 1
node 68 1 1 1
node 69 1 1 1
node 70 1 1 1
node 71 2 1 1
node 72 3 1 1
node 73 3 1 1
node 74 3 1 1
node 75 1 1 1
node 76 3 1 1
node 77 1 1 1
node 78 1 1 1
node 79 2 1 1
node 80 2 1 1
node 81 2 1 1
node 82 1 1 1
node 83 1 1 1
node 84 2 1 1
node 85 2 1 1
node 86 1 1 1
node 87 1 1 1
node 88 2 1 1
node 89 1 1 1
node 90 1 1 1
node 91 2 1 1
node 92 3 1 1
node 93 3 1 1
node 94 2 1 1
node 95 1 1 1
node 96 2 1 1
node 97 1 1 1
node 98 3 1 1
node 99 2 1 1
node 100 1 1 1
node 101 1 1 1
node 102 2 1 1
node 103 2 1 1
node 104 1 1 1
node 105 1 1 1
node 106 2 1 1
node 107 1 1 1
node 108 2 1 1
node 109 1 1 1
node 110 3 1 1
node 111 1 1 1
node 112 3 1 1
node 113 1 1 1
node 114 2 1 1
node 115 1 1 1
node 116 3 1 1
node 117 2 1 1
node 118 1 1 1
node 119 1 1 1
node 120 3 1 1
node 121 3 1 1
node 122 1 1 1
node 123 3 1 1
node 124 3 1 1
node 125 3 1 1
node 126 3 1 1
node 127 2 1 1
node 128 1 1 1
node 129 3 1 1
node 130 1 1 1
node 131 1 1 1
node 132 3 1 1
node 133 3 1 1
node 134 2 1 1
node 135 1 1 1
node 136 1 1 1
node 137 2 1 1
node 138 2 1 1
node 139 3 1 1
node 140 2 1 1
node 141 1 1 1
node 142 3 1 1
node 143 1 1 1
node 144 2 1 1
node 145 2 1 1
node 146 1 1 1
node 147 2 1 1
node 148 3 1 1
node 149 2 1 1
node 150 1 1 1
node 151 1 1 1
node 152 2 1 1
node 153 1 1 1
node 154 3 1 1
node 155 2 1 1
node 156 3 1 1
node 157 3 1 1
node 158 2 1 1
node 159 1 1 1
node 160 3 1 1
node 161 2 1 1
node 162 2 1 1
node 163 3 1 1
node 164 2 1 1
node 165 1 1 1
node 166 1 1 1
node 167 2 1 1
node 168 2 1 1
node 169 3 1 1
node 170 2 1 1
node 171 2 1 1
node 172 1 1 1
node 173 1 1 1
node 174 1 1 1
node 175 1 1 1
node 176 3 1 1
node 177 2 1 1
node 178 2 1 1
node 179 3 1 1
node 180 2 1 1
node 181 2 1 1
node 182 3 1 1
node 183 3 1 1
node 184 3 1 1
node 185 1 1 1
node 186 1 1 1
node 187 1 1 1
node 188 3 1 1
node 189 2 1 1
node 190 1 1 1
node 191 3 1 1
node 192 1 1 1
node 193 3 1 1
node 194 2 1 1
node 195 2 1 1
node 196 2 1 1
node 197 2 1 1
node 198 1 1 1
node 199 3 1 1
node 200 3 1 1
node 201 2 1 1
node 202 2 1 1
node 203 3 1 1
node 204 2 1 1
node 205 2 1 1
node 206 1 1 1
node 207 2 1 1
node 208 2 1 1
node 209 2 1 1
node 210 2 1 1
node 211 3 1 1
node 212 1 1 1
node 213 2 1 1
node 214 2 1 1
node 215 1 1 1
node 216 2 1 1
node 217 1 1 1
node 218 1 1 1
node 219 1 1 1
node 220 2 1 1
node 221 2 1 3
node 223 3 0 2
node 224 3 0 2
node 225 2 0 2
node 226 3 0 2
node 286 1 0 0
node 333 2 0 0
node 351 2 0 0
node 354 1 0 0
node 495 1 0 0
gene 2 110 224 7.56483 0 1 7.56483 1
gene 1 112 226 1.0529 0 2 1.0529 1
gene 2 91 223 4.05293 0 3 4.05293 1
gene 3 131 225 5.24233 0 4 5.24233 1
gene 3 15 225 -2.35906 0 113 -2.35906 1
gene 1 226 226 -2.71087 1 153 -2.71087 1
gene 3 151 224 -6.73783 0 330 -6.73783 1
gene 2 63 225 5.45156 0 866 5.45156 1
gene 1 167 225 2.10792 0 968 2.10792 1
gene 1 223 223 6.1219 1 1062 6.1219 1
gene 3 61 226 -0.374415 0 1110 -0.374415 1
gene 3 41 223 -5.73482 0 1259 -5.73482 1
gene 3 149 223 -0.928711 0 1318 -0.928711 1
gene 1 115 224 0.975608 0 1367 0.975608 1
gene 3 142 223 4.35172 0 1500 4.35172 1
gene 2 88 225 -1.19821 0 1622 -1.19821 1
gene 2 90 225 -1.77597 0 1840 -1.77597 1
gene 1 30 224 -7.92952 0 2432 -7.92952 1
gene 3 159 223 -6.49855 0 2514 -6.49855 1
gene 1 167 223 3.69392 0 2930 3.69392 1
gene 3 126 225 -3.05793 0 3459 -3.05793 1
gene 2 37 223 -2.46491 0 4567 -2.46491 1
gene 3 9 225 -2.02722 0 4646 -2.02722 1
gene 2 39 224 -2.41732 0 4854 -2.41732 1
gene 2 140 223 1.09316 0 4923 1.09316 1
gene 2 202 225 2.99667 0 5177 2.99667 1
gene 3 225 225 1.07204 1 5420 1.07204 1
gene 1 224 224 1.82438 1 5429 1.82438 1
gene 2 60 223 0.498103 0 5761 0.498103 1
gene 1 81 225 -3.32294 0 6640 -3.32294 1
gene 1 225 286 0.257615 1 6848 0.257615 1
gene 2 286 225 -1.04309 0 6849 -1.04309 1
gene 3 164 223 -8 0 7009 -8 1
gene 3 161 225 0.403735 0 7279 0.403735 1
gene 1 195 286 3.62964 0 7371 3.62964 1
gene 2 181 224 5.81109 0 7607 5.81109 1
gene 1 45 224 -3.02156 0 7682 -3.02156 1
gene 3 105 223 -2.12147 0 7822 -2.12147 1
gene 2 124 224 -0.244965 0 8099 -0.244965 1
gene 1 42 225 0.0328876 0 9150 0.0328876 1
gene 2 67 225 -1.68262 0 9430 -1.68262 1
gene 3 103 224 2.00288 0 9434 2.00288 1
gene 1 113 225 2.98338 0 10243 2.98338 1
gene 1 125 286 0.322023 0 10450 0.322023 1
gene 2 196 226 2.03581 0 10522 2.03581 1
gene 1 141 286 -2.21622 0 10843 -2.21622 1
gene 2 62 286 -2.07166 0 10980 -2.07166 1
gene 3 88 286 -2.62713 0 11435 -2.62713 1
gene 3 101 286 -6.36656 0 11813 -6.36656 1
gene 2 31 223 2.04536 0 11908 2.04536 1
gene 3 87 224 -0.248456 0 12669 -0.248456 1
gene 2 77 286 -0.955091 0 13277 -0.955091 1
gene 1 94 223 -0.0431735 0 13640 -0.0431735 1
gene 2 107 224 -2.51497 0 14353 -2.51497 1
gene 3 131 224 -0.973648 0 14728 -0.973648 1
gene 2 108 286 -3.35242 0 15336 -3.35242 1
gene 3 120 224 1.74284 0 15772 1.74284 1
gene 3 13 286 -7.09208 0 16002 -7.09208 1
gene 1 30 226 -2.73493 0 16057 -2.73493 1
gene 2 59 224 4.21521 0 16285 4.21521 1
gene 3 286 286 -0.112354 1 16410 -0.112354 1
gene 2 9 223 -0.0818242 0 17370 -0.0818242 1
gene 3 131 333 2.23523 0 17455 2.23523 1
gene 3 333 225 -0.174682 0 17456 -0.174682 1
gene 1 18 226 0.730269 0 17604 0.730269 1
gene 1 30 351 -1.70944 0 17713 -1.70944 1
gene 2 351 226 -3.06674 0 17714 -3.06674 1
gene 1 165 226 0.341616 0 17841 0.341616 1
gene 1 116 223 -0.387521 0 18589 -0.387521 1
gene 2 172 351 -0.340936 0 19024 -0.340936 1
gene 3 147 226 4.17317 0 19243 4.17317 1
gene 3 38 226 -0.531475 0 19449 -0.531475 1
gene 2 211 333 -4.61591 0 19691 -4.61591 1
gene 3 351 224 -0.0497904 0 19817 -0.0497904 1
gene 1 26 351 -1.69901 0 21136 -1.69901 1
gene 3 333 333 1.07611 1 21571 1.07611 1
gene 1 14 351 -0.416563 0 21953 -0.416563 1
gene 1 102 224 -1.05556 0 22776 -1.05556 1
gene 3 110 226 0.722549 0 23398 0.722549 1
gene 1 221 333 1.83732 0 23654 1.83732 1
gene 1 123 225 0.765429 0 24130 0.765429 1
gene 1 64 333 -1.89472 0 24276 -1.89472 1
gene 3 79 286 1.43505 0 24543 1.43505 1
gene 3 48 223 -8 0 24614 -8 1
gene 1 94 286 0.910382 0 24745 0.910382 1
gene 3 164 225 3.6216 0 25072 3.6216 1
gene 3 144 351 7.65921 0 25145 7.65921 1
gene 3 17 351 -4.53757 0 25313 -4.53757 1
gene 2 19 226 -1.85795 0 25462 -1.85795 1
gene 1 351 351 1.12382 1 25580 1.12382 1
gene 1 149 333 -7.60112 0 25779 -7.60112 1
gene 2 171 225 -2.30238 0 25944 -2.30238 1
gene 3 171 351 -2.89099 0 26303 -2.89099 1
gene 1 53 223 0.728286 0 26500 0.728286 1
gene 1 180 351 2.16917 0 26597 2.16917 1
gene 3 2 226 1.50764 0 26692 1.50764 1
gene 2 181 226 -1.67973 0 26858 -1.67973 1
gene 2 86 286 0.487976 0 26970 0.487976 1
gene 1 17 224 0.168607 0 27069 0.168607 1
gene 3 7 224 -2.26001 0 27229 -2.26001 1
gene 2 224 351 1.16193 1 27300 1.16193 1
gene 3 188 223 -2.25083 0 27451 -2.25083 1
gene 1 43 286 0.690938 0 27633 0.690938 1
gene 3 54 286 0.909013 0 27861 0.909013 1
gene 1 9 224 -1.7819 0 28081 -1.7819 1
gene 2 83 286 1.07745 0 28176 1.07745 1
gene 1 226 354 0.425046 1 28316 0.425046 1
gene 1 354 226 -0.822993 0 28317 -0.822993 1
gene 2 82 223 0.0880403 0 28679 0.0880403 1
gene 2 33 354 -1.1395 0 29133 -1.1395 1
gene 3 177 354 3.11088 0 29642 3.11088 1
gene 2 13 226 0.0110403 0 30099 0.0110403 1
gene 3 190 223 -1.11154 0 30596 -1.11154 1
gene 2 123 224 1.30964 0 30963 1.30964 1
gene 1 34 354 1.48911 0 31082 1.48911 1
gene 2 75 351 -0.705418 0 31258 -0.705418 1
gene 3 138 351 0.69474 0 31571 0.69474 1
gene 1 14 495 0.013153 0 31903 0.013153 1
gene 1 495 351 2.17059 0 31904 2.17059 1
gene 1 495 495 2.42668 1 32436 2.42668 1
gene 2 354 354 0.979687 1 32730 0.979687 1
gene 3 226 286 -0.0482096 0 32836 -0.0482096 1
gene 2 102 495 1.87705 0 33339 1.87705 1
gene 2 21 226 1.69578 0 33605 1.69578 1
gene 3 217 495 0.991329 0 33732 0.991329 1
gene 2 95 226 -1.20938 0 34245 -1.20938 1
gene 3 181 354 -1.38238 0 34587 -1.38238 1
gene 2 4 223 0.52857 0 34975 0.52857 1
gene 2 198 354 -1.41727 0 35769 -1.41727 1
gene 1 111 333 0.646485 0 36149 0.646485 1
gene 3 156 333 -0.0885787 0 36683 -0.0885787 1
gene 2 112 223 0.367139 0 36788 0.367139 1
genomeend 17


/* Organism #292 Fitness: 2646.06 Error: 0 */
genomestart 292
trait 1 1 1 0.122091 0.885647 0.185916 0.732049 0.682833 0.35649 
trait 2 0.84736 0.10414 0.238464 0.178262 0.109689 0.107548 0.107705 0.0805208 
trait 3 0 0.0419337 0 1 0.10475 0.340142 0 0.0228286 
node 1 3 1 1
node 2 1 1 1
node 3 3 1 1
node 4 1 1 1
node 5 1 1 1
node 6 3 1 1
node 7 1 1 1
node 8 2 1 1
node 9 1 1 1
node 10 1 1 1
node 11 2 1 1
node 12 2 1 1
node 13 3 1 1
node 14 3 1 1
node 15 1 1 1
node 16 3 1 1
node 17 3 1 1
node 18 3 1 1
node 19 1 1 1
node 20 3 1 1
node 21 2 1 1
node 22 1 1 1
node 23 1 1 1
node 24 3 1 1
node 25 3 1 1
node 26 3 1 1
node 27 3 1 1
node 28 1 1 1
node 29 3 1 1
node 30 1 1 1
node 31 2 1 1
node 32 3 1 1
node 33 2 1 1
node 34 1 1 1
node 35 2 1 1
node 36 2 1 1
node 37 1 1 1
node 38 2 1 1
node 39 1 1 1
node 40 2 1 1
node 41 3 1 1
node 42 3 1 1
node 43 1 1 1
node 44 1 1 1
node 45 2 1 1
node 46 2 1 1
node 47 3 1 1
node 48 3 1 1
node 49 1 1 1
node 50 3 1 1
node 51 3 1 1
node 52 3 1 1
node 53 3 1 1
node 54 3 1 1
node 55 2 1 1
node 56 3 1 1
node 57 1 1 1
node 58 1 1 1
node 59 1 1 1
node 60 3 1 1
node 61 2 1 1
node 62 2 1 1
node 63 1 1 1
node 64 1 1 1
node 65 3 1 1
node 66 2 1 1
node 67 3 1 1
node 68 1 1 1
node 69 1 1 1
node 70 1 1 1
node 71 2 1 1
node 72 3 1 1
node 73 3 1 1
node 74 3 1 1
node 75 1 1 1
node 76 3 1 1
node 77 1 1 1
node 78 1 1 1
node 79 2 1 1
node 80 2 1 1
node 81 2 1 1
node 82 1 1 1
node 83 1 1 1
node 84 2 1 1
node 85 2 1 1
node 86 1 1 1
node 87 1 1 1
node 88 2 1 1
node 89 1 1 1
node 90 1 1 1
node 91 2 1 1
node 92 3 1 1
node 93 3 1 1
node 94 2 1 1
node 95 1 1 1
node 96 2 1 1
node 97 1 1 1
node 98 3 1 1
node 99 2 1 1
node 100 1 1 1
node 101 1 1 1
node 102 2 1 1
node 103 2 1 1
node 104 1 1 1
node 105 1 1 1
node 106 2 1 1
node 107 1 1 1
node 108 2 1 1
node 109 1 1 1
node 110 3 1 1
node 111 1 1 1
node 112 3 1 1
node 113 1 1 1
node 114 2 1 1
node 115 1 1 1
node 116 3 1 1
node 117 2 1 1
node 118 1 1 1
node 119 1 1 1
node 120 3 1 1
node 121 3 1 1
node 122 1 1 1
node 123 3 1 1
node 124 3 1 1
node 125 3 1 1
node 126 3 1 1
node 127 2 1 1
node 128 1 1 1
node 129 3 1 1
node 130 1 1 1
node 131 1 1 1
node 132 3 1 1
node 133 3 1 1
node 134 2 1 1
node 135 1 1 1
node 136 1 1 1
node 137 2 1 1
node 138 2 1 1
node 139 3 1 1
node 140 2 1 1
node 141 1 1 1
node 142 3 1 1
node 143 1 1 1
node 144 2 1 1
node 145 2 1 1
node 146 1 1 1
node 147 2 1 1
node 148 3 1 1
node 149 2 1 1
node 150 1 1 1
node 151 1 1 1
node 152 2 1 1
node 153 1 1 1
node 154 3 1 1
node 155 2 1 1
node 156 3 1 1
node 157 3 1 1
node 158 2 1 1
node 159 1 1 1
node 160 3 1 1
node 161 2 1 1
node 162 2 1 1
node 163 3 1 1
node 164 2 1 1
node 165 1 1 1
node 166 1 1 1
node 167 2 1 1
node 168 2 1 1
node 169 3 1 1
node 170 2 1 1
node 171 2 1 1
node 172 1 1 1
node 173 1 1 1
node 174 1 1 1
node 175 1 1 1
node 176 3 1 1
node 177 2 1 1
node 178 2 1 1
node 179 3 1 1
node 180 2 1 1
node 181 2 1 1
node 182 3 1 1
node 183 3 1 1
node 184 3 1 1
node 185 1 1 1
node 186 1 1 1
node 187 1 1 1
node 188 3 1 1
node 189 2 1 1
node 190 1 1 1
node 191 3 1 1
node 192 1 1 1
node 193 3 1 1
node 194 2 1 1
node 195 2 1 1
node 196 2 1 1
node 197 2 1 1
node 198 1 1 1
node 199 3 1 1
node 200 3 1 1
node 201 2 1 1
node 202 2 1 1
node 203 3 1 1
node 204 2 1 1
node 205 2 1 1
node 206 1 1 1
node 207 2 1 1
node 208 2 1 1
node 209 2 1 1
node 210 2 1 1
node 211 3 1 1
node 212 1 1 1
node 213 2 1 1
node 214 2 1 1
node 215 1 1 1
node 216 2 1 1
node 217 1 1 1
node 218 1 1 1
node 219 1 1 1
node 220 2 1 1
node 221 2 1 3
node 223 3 0 2
node 224 3 0 2
node 225 2 0 2
node 226 3 0 2
node 286 1 0 0
node 333 2 0 0
node 351 2 0 0
node 354 1 0 0
node 495 1 0 0
node 689 1 0 0
gene 2 110 224 7.79061 0 1 7.79061 1
gene 1 112 226 2.25791 0 2 2.25791 1
gene 2 91 223 5.45779 0 3 5.45779 1
gene 3 131 225 6.00243 0 4 6.00243 1
gene 3 15 225 -0.900292 0 113 -0.900292 1
gene 1 226 226 -1.14086 1 153 -1.14086 1
gene 3 151 224 -6.60125 0 330 -6.60125 1
gene 2 63 225 2.46961 0 866 2.46961 1
gene 1 167 225 0.574821 0 968 0.574821 1
gene 1 223 223 5.72944 1 1062 5.72944 1
gene 3 61 226 -1.60158 0 1110 -1.60158 1
gene 3 41 223 -4.42073 0 1259 -4.42073 1
gene 3 149 223 -0.237469 0 1318 -0.237469 1
gene 1 115 224 0.179541 0 1367 0.179541 1
gene 3 142 223 3.13561 0 1500 3.13561 1
gene 2 88 225 -3.57396 0 1622 -3.57396 1
gene 2 90 225 -2.82889 0 1840 -2.82889 1
gene 1 30 224 -5.66977 0 2432 -5.66977 1
gene 3 159 223 -5.46802 0 2514 -5.46802 1
gene 1 167 223 4.38139 0 2930 4.38139 1
gene 3 126 225 -2.61383 0 3459 -2.61383 1
gene 2 37 223 -1.49334 0 4567 -1.49334 1
gene 3 9 225 -2.23924 0 4646 -2.23924 1
gene 2 39 224 -1.5726 0 4854 -1.5726 1
gene 2 140 223 0.332427 0 4923 0.332427 1
gene 2 202 225 4.23774 0 5177 4.23774 1
gene 3 225 225 2.2939 1 5420 2.2939 1
gene 1 224 224 1.07248 1 5429 1.07248 1
gene 2 60 223 1.28004 0 5761 1.28004 1
gene 1 81 225 -3.95181 0 6640 -3.95181 1
gene 1 225 286 -0.762031 1 6848 -0.762031 1
gene 2 286 225 -0.826153 0 6849 -0.826153 1
gene 3 164 223 -7.65931 0 7009 -7.65931 1
gene 3 161 225 0.0981634 0 7279 0.0981634 1
gene 1 195 286 1.20366 0 7371 1.20366 1
gene 2 181 224 6.68193 0 7607 6.68193 1
gene 1 45 224 -2.65829 0 7682 -2.65829 1
gene 3 105 223 -1.10155 0 7822 -1.10155 1
gene 2 124 224 -0.883368 0 8099 -0.883368 1
gene 1 42 225 0.303564 0 9150 0.303564 1
gene 2 67 225 -3.44963 0 9430 -3.44963 1
gene 3 103 224 1.53792 0 9434 1.53792 1
gene 1 113 225 4.23114 0 10243 4.23114 1
gene 1 125 286 0.312665 0 10450 0.312665 1
gene 2 196 226 2.65938 0 10522 2.65938 1
gene 1 141 286 -0.652928 0 10843 -0.652928 1
gene 2 62 286 -1.61208 0 10980 -1.61208 1
gene 3 88 286 -2.314 0 11435 -2.314 1
gene 3 101 286 -6.21789 0 11813 -6.21789 1
gene 2 31 223 -0.0625265 0 11908 -0.0625265 1
gene 3 87 224 -0.737543 0 12669 -0.737543 1
gene 2 77 286 0.729987 0 13277 0.729987 1
gene 1 94 223 0.963875 0 13640 0.963875 1
gene 2 107 224 -3.83917 0 14353 -3.83917 1
gene 3 131 224 -1.93928 0 14728 -1.93928 1
gene 2 108 286 -2.62663 0 15336 -2.62663 1
gene 3 120 224 0.048675 0 15772 0.048675 1
gene 3 13 286 -5.28703 0 16002 -5.28703 1
gene 1 30 226 -3.67169 0 16057 -3.67169 1
gene 2 59 224 4.44533 0 16285 4.44533 1
gene 3 286 286 1.22482 1 16410 1.22482 1
gene 2 9 223 0.0830123 0 17370 0.0830123 1
gene 3 131 333 2.23172 0 17455 2.23172 1
gene 3 333 225 -1.33394 0 17456 -1.33394 1
gene 1 18 226 -0.790051 0 17604 -0.790051 1
gene 1 30 351 0.0423015 0 17713 0.0423015 1
gene 2 351 226 -3.83906 0 17714 -3.83906 1
gene 1 165 226 -0.170031 0 17841 -0.170031 1
gene 1 116 223 -1.35819 0 18589 -1.35819 1
gene 2 172 351 1.28443 0 19024 1.28443 1
gene 3 147 226 3.26903 0 19243 3.26903 1
gene 3 38 226 -0.498703 0 19449 -0.498703 1
gene 2 211 333 -4.44535 0 19691 -4.44535 1
gene 3 351 224 1.08615 0 19817 1.08615 1
gene 1 26 351 -1.96512 0 21136 -1.96512 1
gene 3 333 333 1.04013 1 21571 1.04013 1
gene 1 14 351 -2.7547 0 21953 -2.7547 1
gene 1 102 224 -2.07786 0 22776 -2.07786 1
gene 3 110 226 0.0952083 0 23398 0.0952083 1
gene 1 221 333 2.8201 0 23654 2.8201 1
gene 1 123 225 0.12904 0 24130 0.12904 1
gene 1 64 333 -0.914241 0 24276 -0.914241 1
gene 3 79 286 -0.874493 0 24543 -0.874493 1
gene 3 48 223 -7.15693 0 24614 -7.15693 1
gene 1 94 286 -0.942267 0 24745 -0.942267 1
gene 3 164 225 1.60486 0 25072 1.60486 1
gene 3 144 351 6.45855 0 25145 6.45855 1
gene 3 17 351 -4.55262 0 25313 -4.55262 1
gene 2 19 226 -1.1882 0 25462 -1.1882 1
gene 1 351 351 1.98602 1 25580 1.98602 1
gene 1 149 333 -5.71483 0 25779 -5.71483 1
gene 2 171 225 0.245733 0 25944 0.245733 1
gene 3 171 351 -3.05431 0 26303 -3.05431 1
gene 1 53 223 0.728286 0 26500 0.728286 1
gene 1 180 351 1.52708 0 26597 1.52708 1
gene 3 2 226 1.25256 0 26692 1.25256 1
gene 2 181 226 -2.00362 0 26858 -2.00362 1
gene 2 86 286 -0.180559 0 26970 -0.180559 1
gene 1 17 224 -1.40572 0 27069 -1.40572 1
gene 3 7 224 -2.3858 0 27229 -2.3858 1
gene 2 224 351 2.60217 1 27300 2.60217 1
gene 3 188 223 -2.89406 0 27451 -2.89406 1
gene 1 43 286 1.88688 0 27633 1.88688 1
gene 3 54 286 0.802826 0 27861 0.802826 1
gene 1 9 224 -1.4655 0 28081 -1.4655 1
gene 2 83 286 1.42804 0 28176 1.42804 1
gene 1 226 354 0.101581 1 28316 0.101581 1
gene 1 354 226 -1.2322 0 28317 -1.2322 1
gene 2 82 223 1.11594 0 28679 1.11594 1
gene 2 33 354 -1.224 0 29133 -1.224 1
gene 3 177 354 2.25309 0 29642 2.25309 1
gene 2 13 226 0.427314 0 30099 0.427314 1
gene 3 190 223 -2.22693 0 30596 -2.22693 1
gene 2 123 224 1.50201 0 30963 1.50201 1
gene 1 34 354 2.03338 0 31082 2.03338 1
gene 2 75 351 0.801391 0 31258 0.801391 1
gene 3 138 351 -0.0900281 0 31571 -0.0900281 1
gene 1 14 495 2.26957 0 31903 2.26957 1
gene 1 495 351 2.00656 0 31904 2.00656 1
gene 1 495 495 2.28959 1 32436 2.28959 1
gene 2 354 354 0.459046 1 32730 0.459046 1
gene 3 226 286 0.970826 0 32836 0.970826 1
gene 2 102 495 0.196285 0 33339 0.196285 1
gene 2 21 226 -0.0995636 0 33605 -0.0995636 1
gene 3 217 495 2.11306 0 33732 2.11306 1
gene 2 95 226 -1.23161 0 34245 -1.23161 1
gene 3 181 354 -1.38238 0 34587 -1.38238 1
gene 2 4 223 1.13533 0 34975 1.13533 1
gene 2 198 354 -1.17232 0 35769 -1.17232 1
gene 1 111 333 1.31321 0 36149 1.31321 1
gene 3 156 333 1.04738 0 36683 1.04738 1
gene 1 203 223 0.472918 0 36806 0.472918 1
gene 3 79 689 -0.81151 0 36913 -0.81151 1
gene 3 689 286 1.01896 0 36914 1.01896 1
gene 3 689 689 0.582458 1 37167 0.582458 1
gene 1 58 223 -0.260329 0 37609 -0.260329 1
gene 3 29 286 -0.374984 0 37799 -0.374984 1
gene 1 88 689 -0.0963285 0 37905 -0.0963285 1
gene 2 63 224 0.426924 0 38170 0.426924 1
gene 2 137 689 -1.34296 0 38794 -1.34296 1
gene 1 170 354 0.0869872 0 38966 0.0869872 1
gene 1 55 495 -0.352386 0 39280 -0.352386 1
gene 1 44 225 0.00901016 0 39390 0.00901016 1
gene 1 206 226 0.628334 0 39615 0.628334 1
gene 3 225 354 -0.93498 1 39700 -0.93498 1
gene 2 74 286 -0.451779 0 39802 -0.451779 1
genomeend 292


/* Organism #116 Fitness: 2017.92 Error: 0 */
genomestart 116
trait 1 1 0.535144 0.464448 0.885647 0.0897727 0.907892 0.234724 0.190595 
trait 2 0.880303 0.311994 0.45064 0.237682 0.301836 0.0982104 0.0322578 0.176158 
trait 3 0.0163618 0.0314503 0.138485 1 0.135517 0.261084 0.191322 0.036431 
node 1 2 1 1
node 2 1 1 1
node 3 2 1 1
node 4 1 1 1
node 5 2 1 1
node 6 3 1 1
node 7 2 1 1
node 8 3 1 1
node 9 1 1 1
node 10 1 1 1
node 11 1 1 1
node 12 1 1 1
node 13 1 1 1
node 14 3 1 1
node 15 1 1 1
node 16 3 1 1
node 17 3 1 1
node 18 2 1 1
node 19 1 1 1
node 20 2 1 1
node 21 2 1 1
node 22 3 1 1
node 23 2 1 1
node 24 3 1 1
node 25 1 1 1
node 26 2 1 1
node 27 3 1 1
node 28 3 1 1
node 29 2 1 1
node 30 3 1 1
node 31 3 1 1
node 32 3 1 1
node 33 2 1 1
node 34 2 1 1
node 35 1 1 1
node 36 3 1 1
node 37 2 1 1
node 38 3 1 1
node 39 1 1 1
node 40 3 1 1
node 41 3 1 1
node 42 1 1 1
node 43 1 1 1
node 44 2 1 1
node 45 1 1 1
node 46 1 1 1
node 47 1 1 1
node 48 2 1 1
node 49 2 1 1
node 50 2 1 1
node 51 3 1 1
node 52 1 1 1
node 53 2 1 1
node 54 2 1 1
node 55 1 1 1
node 56 3 1 1
node 57 1 1 1
node 58 3 1 1
node 59 2 1 1
node 60 2 1 1
node 61 1 1 1
node 62 3 1 1
node 63 2 1 1
node 64 2 1 1
node 65 2 1 1
node 66 1 1 1
node 67 2 1 1
node 68 1 1 1
node 69 3 1 1
node 70 2 1 1
node 71 3 1 1
node 72 1 1 1
node 73 3 1 1
node 74 3 1 1
node 75 2 1 1
node 76 1 1 1
node 77 1 1 1
node 78 3 1 1
node 79 3 1 1
node 80 3 1 1
node 81 1 1 1
node 82 2 1 1
node 83 3 1 1
node 84 3 1 1
node 85 3 1 1
node 86 2 1 1
node 87 2 1 1
node 88 1 1 1
node 89 1 1 1
node 90 2 1 1
node 91 2 1 1
node 92 2 1 1
node 93 1 1 1
node 94 2 1 1
node 95 1 1 1
node 96 3 1 1
node 97 2 1 1
node 98 3 1 1
node 99 3 1 1
node 100 1 1 1
node 101 1 1 1
node 102 3 1 1
node 103 1 1 1
node 104 2 1 1
node 105 3 1 1
node 106 3 1 1
node 107 3 1 1
node 108 3 1 1
node 109 2 1 1
node 110 2 1 1
node 111 3 1 1
node 112 3 1 1
node 113 1 1 1
node 114 3 1 1
node 115 2 1 1
node 116 1 1 1
node 117 1 1 1
node 118 2 1 1
node 119 2 1 1
node 120 3 1 1
node 121 3 1 1
node 122 1 1 1
node 123 1 1 1
node 124 1 1 1
node 125 2 1 1
node 126 2 1 1
node 127 1 1 1
node 128 1 1 1
node 129 2 1 1
node 130 3 1 1
node 131 2 1 1
node 132 3 1 1
node 133 3 1 1
node 134 3 1 1
node 135 1 1 1
node 136 3 1 1
node 137 3 1 1
node 138 3 1 1
node 139 3 1 1
node 140 2 1 1
node 141 2 1 1
node 142 2 1 1
node 143 1 1 1
node 144 3 1 1
node 145 1 1 1
node 146 1 1 1
node 147 1 1 1
node 148 3 1 1
node 149 3 1 1
node 150 3 1 1
node 151 2 1 1
node 152 2 1 1
node 153 3 1 1
node 154 3 1 1
node 155 3 1 1
node 156 3 1 1
node 157 2 1 1
node 158 3 1 1
node 159 3 1 1
node 160 3 1 1
node 161 3 1 1
node 162 2 1 1
node 163 3 1 1
node 164 3 1 1
node 165 2 1 1
node 166 3 1 1
node 167 2 1 1
node 168 2 1 1
node 169 1 1 1
node 170 1 1 1
node 171 3 1 1
node 172 3 1 1
node 173 2 1 1
node 174 2 1 1
node 175 3 1 1
node 176 3 1 1
node 177 3 1 1
node 178 3 1 1
node 179 2 1 1
node 180 2 1 1
node 181 2 1 1
node 182 3 1 1
node 183 1 1 1
node 184 2 1 1
node 185 3 1 1
node 186 1 1 1
node 187 1 1 1
node 188 1 1 1
node 189 3 1 1
node 190 2 1 1
node 191 1 1 1
node 192 3 1 1
node 193 1 1 1
node 194 1 1 1
node 195 2 1 1
node 196 3 1 1
node 197 1 1 1
node 198 1 1 1
node 199 1 1 1
node 200 1 1 1
node 201 1 1 1
node 202 2 1 1
node 203 2 1 1
node 204 2 1 1
node 205 1 1 1
node 206 1 1 1
node 207 1 1 1
node 208 1 1 1
node 209 1 1 1
node 210 1 1 1
node 211 2 1 1
node 212 3 1 1
node 213 3 1 1
node 214 3 1 1
node 215 1 1 1
node 216 3 1 1
node 217 3 1 1
node 218 3 1 1
node 219 2 1 1
node 220 3 1 1
node 221 2 1 3
node 223 3 0 2
node 224 3 0 2
node 225 2 0 2
node 226 1 0 2
node 286 1 0 0
node 333 2 0 0
node 351 1 0 0
node 354 1 0 0
node 495 1 0 0
node 599 1 0 0
gene 3 110 224 7.27045 0 1 7.27045 1
gene 3 112 226 1.18029 0 2 1.18029 1
gene 1 91 223 2.71184 0 3 2.71184 1
gene 1 131 225 4.68725 0 4 4.68725 1
gene 1 15 225 -0.715828 0 113 -0.715828 1
gene 1 226 226 -3.91515 1 153 -3.91515 1
gene 1 151 224 -4.07807 0 330 -4.07807 1
gene 2 63 225 -0.111353 0 866 -0.111353 1
gene 1 167 225 -1.44217 0 968 -1.44217 1
gene 3 223 223 3.72483 1 1062 3.72483 1
gene 1 61 226 0.81686 0 1110 0.81686 1
gene 1 41 223 5.17241 0 1259 5.17241 1
gene 1 149 223 -1.0001 0 1318 -1.0001 1
gene 2 115 224 1.98904 0 1367 1.98904 1
gene 3 142 223 0.0401076 0 1500 0.0401076 1
gene 2 88 225 -2.74 0 1622 -2.74 1
gene 3 90 225 -3.04789 0 1840 -3.04789 1
gene 2 30 224 -4.54383 0 2432 -4.54383 1
gene 1 159 223 0.50207 0 2514 0.50207 1
gene 1 167 223 2.64518 0 2930 2.64518 1
gene 2 126 225 -1.20489 0 3459 -1.20489 1
gene 2 37 223 -4.58668 0 4567 -4.58668 1
gene 3 9 225 1.49065 0 4646 1.49065 1
gene 1 39 224 -6.30634 0 4854 -6.30634 1
gene 2 140 223 -0.679713 0 4923 -0.679713 1
gene 2 202 225 2.85434 0 5177 2.85434 1
gene 2 225 225 0.300403 1 5420 0.300403 1
gene 1 224 224 2.89865 1 5429 2.89865 1
gene 2 60 223 1.14259 0 5761 1.14259 1
gene 3 81 225 -0.786201 0 6640 -0.786201 1
gene 2 225 286 -0.946582 1 6848 -0.946582 1
gene 1 286 225 -3.64003 0 6849 -3.64003 1
gene 3 164 223 -7.16359 0 7009 -7.16359 1
gene 3 161 225 -4.24798 0 7279 -4.24798 1
gene 2 195 286 3.13155 0 7371 3.13155 1
gene 3 181 224 0.297967 0 7607 0.297967 1
gene 2 45 224 3.03163 0 7682 3.03163 1
gene 2 105 223 2.24237 0 7822 2.24237 1
gene 1 124 224 0.676317 0 8099 0.676317 1
gene 2 42 225 5.01978 0 9150 5.01978 1
gene 3 67 225 1.60489 0 9430 1.60489 1
gene 3 103 224 1.22982 0 9434 1.22982 1
gene 1 113 225 0.0819434 0 10243 0.0819434 1
gene 1 125 286 -0.602681 0 10450 -0.602681 1
gene 3 196 226 1.65646 0 10522 1.65646 1
gene 2 141 286 0.45848 0 10843 0.45848 1
gene 2 62 286 2.5896 0 10980 2.5896 1
gene 3 88 286 3.33064 0 11435 3.33064 1
gene 1 101 286 0.61063 0 11813 0.61063 1
gene 1 31 223 -0.214943 0 11908 -0.214943 1
gene 2 87 224 2.71048 0 12669 2.71048 1
gene 2 77 286 -1.27092 0 13277 -1.27092 1
gene 1 94 223 -4.18694 0 13640 -4.18694 1
gene 2 107 224 3.5162 0 14353 3.5162 1
gene 2 131 224 -1.34498 0 14728 -1.34498 1
gene 3 108 286 0.846428 0 15336 0.846428 1
gene 1 120 224 -0.0565899 0 15772 -0.0565899 1
gene 1 13 286 1.26025 0 16002 1.26025 1
gene 1 30 226 -0.850428 0 16057 -0.850428 1
gene 3 59 224 0.265429 0 16285 0.265429 1
gene 3 286 286 0.700053 1 16410 0.700053 1
gene 1 9 223 -0.200982 0 17370 -0.200982 1
gene 1 131 333 -3.85949 0 17455 -3.85949 1
gene 1 333 225 -2.29855 0 17456 -2.29855 1
gene 2 18 226 -2.44765 0 17604 -2.44765 1
gene 2 30 351 3.76842 0 17713 3.76842 1
gene 1 351 226 0.0480879 0 17714 0.0480879 1
gene 1 165 226 -1.53696 0 17841 -1.53696 1
gene 2 116 223 -0.532443 0 18589 -0.532443 1
gene 2 172 351 1.42995 0 19024 1.42995 1
gene 1 147 226 -4.70096 0 19243 -4.70096 1
gene 1 38 226 -4.2954 0 19449 -4.2954 1
gene 2 211 333 1.92089 0 19691 1.92089 1
gene 1 351 224 1.00782 0 19817 1.00782 1
gene 2 26 351 -0.967061 0 21136 -0.967061 1
gene 2 333 333 3.51824 1 21571 3.51824 1
gene 2 14 351 -1.14483 0 21953 -1.14483 1
gene 1 102 224 0.728535 0 22776 0.728535 1
gene 3 110 226 1.68867 0 23398 1.68867 1
gene 1 221 333 1.22586 0 23654 1.22586 1
gene 1 123 225 -0.804899 0 24130 -0.804899 1
gene 2 64 333 -0.0569546 0 24276 -0.0569546 1
gene 1 79 286 -0.801672 0 24543 -0.801672 1
gene 3 48 223 1.35787 0 24614 1.35787 1
gene 2 94 286 1.06569 0 24745 1.06569 1
gene 1 164 225 -4.36304 0 25072 -4.36304 1
gene 3 144 351 1.09126 0 25145 1.09126 1
gene 2 17 351 -2.25014 0 25313 -2.25014 1
gene 1 19 226 -1.14357 0 25462 -1.14357 1
gene 2 351 351 2.82757 1 25580 2.82757 1
gene 1 149 333 2.75166 0 25779 2.75166 1
gene 3 171 225 1.67396 0 25944 1.67396 1
gene 2 171 351 -7.73472 0 26303 -7.73472 1
gene 1 53 223 -0.580852 0 26500 -0.580852 1
gene 1 180 351 2.46302 0 26597 2.46302 1
gene 2 2 226 -3.39573 0 26692 -3.39573 1
gene 2 181 226 -0.368217 0 26858 -0.368217 1
gene 3 86 286 -1.06789 0 26970 -1.06789 1
gene 1 17 224 0.0609961 0 27069 0.0609961 1
gene 3 7 224 2.1286 0 27229 2.1286 1
gene 1 224 351 -2.23446 1 27300 -2.23446 1
gene 1 188 223 2.05465 0 27451 2.05465 1
gene 3 43 286 -0.235981 0 27633 -0.235981 1
gene 2 54 286 4.64307 0 27861 4.64307 1
gene 2 9 224 -3.50121 0 28081 -3.50121 1
gene 2 83 286 0.161726 0 28176 0.161726 1
gene 2 226 354 1.34552 1 28316 1.34552 1
gene 2 354 226 -3.87468 0 28317 -3.87468 1
gene 2 82 223 -1.17792 0 28679 -1.17792 1
gene 1 33 354 -1.06978 0 29133 -1.06978 1
gene 2 177 354 -1.52405 0 29642 -1.52405 1
gene 2 13 226 -1.81079 0 30099 -1.81079 1
gene 3 190 223 -3.95398 0 30596 -3.95398 1
gene 2 123 224 -0.259578 0 30963 -0.259578 1
gene 3 34 354 -2.02125 0 31082 -2.02125 1
gene 1 75 351 0.174937 0 31258 0.174937 1
gene 1 138 351 1.77412 0 31571 1.77412 1
gene 3 14 495 -0.892774 0 31903 -0.892774 1
gene 2 495 351 -3.35448 0 31904 -3.35448 1
gene 1 495 495 2.46715 1 32436 2.46715 1
gene 3 354 354 -3.58613 1 32730 -3.58613 1
gene 1 226 286 -0.700472 0 32836 -0.700472 1
gene 1 102 495 -0.298045 0 33339 -0.298045 1
gene 1 21 226 0.915129 0 33605 0.915129 1
gene 2 217 495 -1.15972 0 33732 -1.15972 1
gene 3 95 226 -0.341992 0 34245 -0.341992 1
gene 1 181 354 0.992015 0 34587 0.992015 1
gene 2 4 223 -3.64799 0 34975 -3.64799 1
gene 1 198 354 0.436678 0 35769 0.436678 1
gene 3 111 333 -0.139135 0 36149 -0.139135 1
gene 3 156 333 3.17035 0 36683 3.17035 1
gene 2 112 223 0.223048 0 36788 0.223048 1
gene 1 106 495 -0.944653 0 37006 -0.944653 1
gene 3 89 286 -0.438843 0 37182 -0.438843 1
gene 2 183 354 0.697675 0 37781 0.697675 1
gene 3 22 224 -0.322405 0 38088 -0.322405 1
gene 2 80 351 -0.846881 0 38223 -0.846881 1
gene 2 200 495 -0.0284194 0 38654 -0.0284194 1
gene 1 55 226 0.565807 0 39066 0.565807 1
gene 1 351 599 -1.52653 0 39307 -1.52653 0
gene 1 599 226 1.44164 0 39308 1.44164 1
gene 1 217 226 -1.79965 0 39833 -1.79965 1
gene 3 213 224 0.131879 0 39960 0.131879 1
gene 1 19 495 0.447036 0 40140 0.447036 1
gene 1 599 599 0.77299 1 40346 0.77299 1
gene 2 16 333 -0.153738 0 40787 -0.153738 1
gene 1 225 226 1.61999 1 41016 1.61999 1
gene 1 100 495 -0.961093 0 41136 -0.961093 1
gene 1 19 286 0.995675 0 41266 0.995675 1
gene 2 18 495 0.518337 0 41467 0.518337 1
gene 1 47 354 0.263943 0 41890 0.263943 1
gene 3 351 495 0.56856 1 42028 0.56856 1
gene 2 3 333 -1.14601 0 42486 -1.14601 1
gene 1 3 599 0.189905 0 42760 0.189905 1
gene 3 225 351 0.441943 1 42968 0.441943 1
gene 3 191 599 -0.110655 0 43305 -0.110655 1
gene 3 94 599 0.188411 0 43514 0.188411 1
gene 2 124 599 2.35487 0 43848 2.35487 1
gene 1 286 226 0.388926 1 43974 0.388926 1
gene 1 203 354 0.900002 0 44099 0.900002 1
gene 1 166 599 -1.83266 0 44299 -1.83266 1
gene 1 124 351 -0.36089 0 44825 -0.36089 1
gene 3 35 286 -0.525832 0 44993 -0.525832 1
gene 2 53 226 -1.03989 0 45128 -1.03989 1
gene 2 201 599 -0.791998 0 45221 -0.791998 1
gene 3 333 286 -1.34354 0 45460 -1.34354 1
gene 3 104 354 -0.162855 0 45592 -0.162855 1
gene 1 88 224 1.18933 0 45826 1.18933 1
gene 3 181 333 1.11874 0 45939 1.11874 1
gene 2 62 351 -0.478048 0 46200 -0.478048 1
gene 2 67 495 0.855604 0 46494 0.855604 1
gene 3 155 226 0.986198 0 46729 0.986198 1
genomeend 116


/* Organism #293 Fitness: 2646.06 Error: 0 */
genomestart 293
trait 1 1 1 0.122091 0.885647 0.185916 0.732049 0.682833 0.35649 
trait 2 0.84736 0.10414 0.238464 0.178262 0.109689 0.107548 0.107705 0.0805208 
trait 3 0 0.0419337 0 1 0.10475 0.340142 0 0.0228286 
node 1 3 1 1
node 2 1 1 1
node 3 3 1 1
node 4 1 1 1
node 5 1 1 1
node 6 3 1 1
node 7 1 1 1
node 8 2 1 1
node 9 1 1 1
node 10 1 1 1
node 11 2 1 1
node 12 2 1 1
node 13 3 1 1
node 14 3 1 1
node 15 1 1 1
node 16 3 1 1
node 17 3 1 1
node 18 3 1 1
node 19 1 1 1
node 20 3 1 1
node 21 2 1 1
node 22 1 1 1
node 23 1 1 1
node 24 3 1 1
node 25 3 1 1
node 26 3 1 1
node 27 3 1 1
node 28 1 1 1
node 29 3 1 1
node 30 1 1 1
node 31 2 1 1
node 32 3 1 1
node 33 2 1 1
node 34 1 1 1
node 35 2 1 1
node 36 2 1 1
node 37 1 1 1
node 38 2 1 1
node 39 1 1 1
node 40 2 1 1
node 41 3 1 1
node 42 3 1 1
node 43 1 1 1
node 44 1 1 1
node 45 2 1 1
node 46 2 1 1
node 47 3 1 1
node 48 3 1 1
node 49 1 1 1
node 50 3 1 1
node 51 3 1 1
node 52 3 1 1
node 53 3 1 1
node 54 3 1 1
node 55 2 1 1
node 56 3 1 1
node 57 1 1 1
node 58 1 1 1
node 59 1 1 1
node 60 3 1 1
node 61 2 1 1
node 62 2 1 1
node 63 1 1 1
node 64 1 1 1
node 65 3 1 1
node 66 2 1 1
node 67 3 1 1
node 68 1 1 1
node 69 1 1 1
node 70 1 1 1
node 71 2 1 1
node 72 3 1 1
node 73 3 1 1
node 74 3 1 1
node 75 1 1 1
node 76 3 1 1
node 77 1 1 1
node 78 1 1 1
node 79 2 1 1
node 80 2 1 1
node 81 2 1 1
node 82 1 1 1
node 83 1 1 1
node 84 2 1 1
node 85 2 1 1
node 86 1 1 1
node 87 1 1 1
node 88 2 1 1
node 89 1 1 1
node 90 1 1 1
node 91 2 1 1
node 92 3 1 1
node 93 3 1 1
node 94 2 1 1
node 95 1 1 1
node 96 2 1 1
node 97 1 1 1
node 98 3 1 1
node 99 2 1 1
node 100 1 1 1
node 101 1 1 1
node 102 2 1 1
node 103 2 1 1
node 104 1 1 1
node 105 1 1 1
node 106 2 1 1
node 107 1 1 1
node 108 2 1 1
node 109 1 1 1
node 110 3 1 1
node 111 1 1 1
node 112 3 1 1
node 113 1 1 1
node 114 2 1 1
node 115 1 1 1
node 116 3 1 1
node 117 2 1 1
node 118 1 1 1
node 119 1 1 1
node 120 3 1 1
node 121 3 1 1
node 122 1 1 1
node 123 3 1 1
node 124 3 1 1
node 125 3 1 1
node 126 3 1 1
node 127 2 1 1
node 128 1 1 1
node 129 3 1 1
node 130 1 1 1
node 131 1 1 1
node 132 3 1 1
node 133 3 1 1
node 134 2 1 1
node 135 1 1 1
node 136 1 1 1
node 137 2 1 1
node 138 2 1 1
node 139 3 1 1
node 140 2 1 1
node 141 1 1 1
node 142 3 1 1
node 143 1 1 1
node 144 2 1 1
node 145 2 1 1
node 146 1 1 1
node 147 2 1 1
node 148 3 1 1
node 149 2 1 1
node 150 1 1 1
node 151 1 1 1
node 152 2 1 1
node 153 1 1 1
node 154 3 1 1
node 155 2 1 1
node 156 3 1 1
node 157 3 1 1
node 158 2 1 1
node 159 1 1 1
node 160 3 1 1
node 161 2 1 1
node 162 2 1 1
node 163 3 1 1
node 164 2 1 1
node 165 1 1 1
node 166 1 1 1
node 167 2 1 1
node 168 2 1 1
node 169 3 1 1
node 170 2 1 1
node 171 2 1 1
node 172 1 1 1
node 173 1 1 1
node 174 1 1 1
node 175 1 1 1
node 176 3 1 1
node 177 2 1 1
node 178 2 1 1
node 179 3 1 1
node 180 2 1 1
node 181 2 1 1
node 182 3 1 1
node 183 3 1 1
node 184 3 1 1
node 185 1 1 1
node 186 1 1 1
node 187 1 1 1
node 188 3 1 1
node 189 2 1 1
node 190 1 1 1
node 191 3 1 1
node 192 1 1 1
node 193 3 1 1
node 194 2 1 1
node 195 2 1 1
node 196 2 1 1
node 197 2 1 1
node 198 1 1 1
node 199 3 1 1
node 200 3 1 1
node 201 2 1 1
node 202 2 1 1
node 203 3 1 1
node 204 2 1 1
node 205 2 1 1
node 206 1 1 1
node 207 2 1 1
node 208 2 1 1
node 209 2 1 1
node 210 2 1 1
node 211 3 1 1
node 212 1 1 1
node 213 2 1 1
node 214 2 1 1
node 215 1 1 1
node 216 2 1 1
node 217 1 1 1
node 218 1 1 1
node 219 1 1 1
node 220 2 1 1
node 221 2 1 3
node 223 3 0 2
node 224 3 0 2
node 225 2 0 2
node 226 3 0 2
node 286 1 0 0
node 333 2 0 0
node 351 2 0 0
node 354 1 0 0
node 495 1 0 0
node 689 1 0 0
gene 2 110 224 7.79061 0 1 7.79061 1
gene 1 112 226 2.25791 0 2 2.25791 1
gene 2 91 223 5.45779 0 3 5.45779 1
gene 3 131 225 6.00243 0 4 6.00243 1
gene 3 15 225 -0.900292 0 113 -0.900292 1
gene 1 226 226 -1.14086 1 153 -1.14086 1
gene 3 151 224 -6.60125 0 330 -6.60125 1
gene 2 63 225 2.46961 0 866 2.46961 1
gene 1 167 225 0.574821 0 968 0.574821 1
gene 1 223 223 5.72944 1 1062 5.72944 1
gene 3 61 226 -1.60158 0 1110 -1.60158 1
gene 3 41 223 -4.42073 0 1259 -4.42073 1
gene 3 149 223 -0.237469 0 1318 -0.237469 1
gene 1 115 224 0.179541 0 1367 0.179541 1
gene 3 142 223 3.13561 0 1500 3.13561 1
gene 2 88 225 -3.57396 0 1622 -3.57396 1
gene 2 90 225 -2.82889 0 1840 -2.82889 1
gene 1 30 224 -5.66977 0 2432 -5.66977 1
gene 3 159 223 -5.46802 0 2514 -5.46802 1
gene 1 167 223 4.38139 0 2930 4.38139 1
gene 3 126 225 -2.61383 0 3459 -2.61383 1
gene 2 37 223 -1.49334 0 4567 -1.49334 1
gene 3 9 225 -2.23924 0 4646 -2.23924 1
gene 2 39 224 -1.5726 0 4854 -1.5726 1
gene 2 140 223 0.332427 0 4923 0.332427 1
gene 2 202 225 4.23774 0 5177 4.23774 1
gene 3 225 225 2.2939 1 5420 2.2939 1
gene 1 224 224 1.07248 1 5429 1.07248 1
gene 2 60 223 1.28004 0 5761 1.28004 1
gene 1 81 225 -3.95181 0 6640 -3.95181 1
gene 1 225 286 -0.762031 1 6848 -0.762031 1
gene 2 286 225 -0.826153 0 6849 -0.826153 1
gene 3 164 223 -7.65931 0 7009 -7.65931 1
gene 3 161 225 0.0981634 0 7279 0.0981634 1
gene 1 195 286 1.20366 0 7371 1.20366 1
gene 2 181 224 6.68193 0 7607 6.68193 1
gene 1 45 224 -2.65829 0 7682 -2.65829 1
gene 3 105 223 -1.10155 0 7822 -1.10155 1
gene 2 124 224 -0.883368 0 8099 -0.883368 1
gene 1 42 225 0.303564 0 9150 0.303564 1
gene 2 67 225 -3.44963 0 9430 -3.44963 1
gene 3 103 224 1.53792 0 9434 1.53792 1
gene 1 113 225 4.23114 0 10243 4.23114 1
gene 1 125 286 0.312665 0 10450 0.312665 1
gene 2 196 226 2.65938 0 10522 2.65938 1
gene 1 141 286 -0.652928 0 10843 -0.652928 1
gene 2 62 286 -1.61208 0 10980 -1.61208 1
gene 3 88 286 -2.314 0 11435 -2.314 1
gene 3 101 286 -6.21789 0 11813 -6.21789 1
gene 2 31 223 -0.0625265 0 11908 -0.0625265 1
gene 3 87 224 -0.737543 0 12669 -0.737543 1
gene 2 77 286 0.729987 0 13277 0.729987 1
gene 1 94 223 0.963875 0 13640 0.963875 1
gene 2 107 224 -3.83917 0 14353 -3.83917 1
gene 3 131 224 -1.93928 0 14728 -1.93928 1
gene 2 108 286 -2.62663 0 15336 -2.62663 1
gene 3 120 224 0.048675 0 15772 0.048675 1
gene 3 13 286 -5.28703 0 16002 -5.28703 1
gene 1 30 226 -3.67169 0 16057 -3.67169 1
gene 2 59 224 4.44533 0 16285 4.44533 1
gene 3 286 286 1.22482 1 16410 1.22482 1
gene 2 9 223 0.0830123 0 17370 0.0830123 1
gene 3 131 333 2.23172 0 17455 2.23172 1
gene 3 333 225 -1.33394 0 17456 -1.33394 1
gene 1 18 226 -0.790051 0 17604 -0.790051 1
gene 1 30 351 0.0423015 0 17713 0.0423015 1
gene 2 351 226 -3.83906 0 17714 -3.83906 1
gene 1 165 226 -0.170031 0 17841 -0.170031 1
gene 1 116 223 -1.35819 0 18589 -1.35819 1
gene 2 172 351 1.28443 0 19024 1.28443 1
gene 3 147 226 3.26903 0 19243 3.26903 1
gene 3 38 226 -0.498703 0 19449 -0.498703 1
gene 2 211 333 -4.44535 0 19691 -4.44535 1
gene 3 351 224 1.08615 0 19817 1.08615 1
gene 1 26 351 -1.96512 0 21136 -1.96512 1
gene 3 333 333 1.04013 1 21571 1.04013 1
gene 1 14 351 -2.7547 0 21953 -2.7547 1
gene 1 102 224 -2.07786 0 22776 -2.07786 1
gene 3 110 226 0.0952083 0 23398 0.0952083 1
gene 1 221 333 2.8201 0 23654 2.8201 1
gene 1 123 225 0.12904 0 24130 0.12904 1
gene 1 64 333 -0.914241 0 24276 -0.914241 1
gene 3 79 286 -0.874493 0 24543 -0.874493 1
gene 3 48 223 -7.15693 0 24614 -7.15693 1
gene 1 94 286 -0.942267 0 24745 -0.942267 1
gene 3 164 225 1.60486 0 25072 1.60486 1
gene 3 144 351 6.45855 0 25145 6.45855 1
gene 3 17 351 -4.55262 0 25313 -4.55262 1
gene 2 19 226 -1.1882 0 25462 -1.1882 1
gene 1 351 351 1.98602 1 25580 1.98602 1
gene 1 149 333 -5.71483 0 25779 -5.71483 1
gene 2 171 225 0.245733 0 25944 0.245733 1
gene 3 171 351 -3.05431 0 26303 -3.05431 1
gene 1 53 223 0.728286 0 26500 0.728286 1
gene 1 180 351 1.52708 0 26597 1.52708 1
gene 3 2 226 1.25256 0 26692 1.25256 1
gene 2 181 226 -2.00362 0 26858 -2.00362 1
gene 2 86 286 -0.180559 0 26970 -0.180559 1
gene 1 17 224 -1.40572 0 27069 -1.40572 1
gene 3 7 224 -2.3858 0 27229 -2.3858 1
gene 2 224 351 2.60217 1 27300 2.60217 1
gene 3 188 223 -2.89406 0 27451 -2.89406 1
gene 1 43 286 1.88688 0 27633 1.88688 1
gene 3 54 286 0.802826 0 27861 0.802826 1
gene 1 9 224 -1.4655 0 28081 -1.4655 1
gene 2 83 286 1.42804 0 28176 1.42804 1
gene 1 226 354 0.101581 1 28316 0.101581 1
gene 1 354 226 -1.2322 0 28317 -1.2322 1
gene 2 82 223 1.11594 0 28679 1.11594 1
gene 2 33 354 -1.224 0 29133 -1.224 1
gene 3 177 354 2.25309 0 29642 2.25309 1
gene 2 13 226 0.427314 0 30099 0.427314 1
gene 3 190 223 -2.22693 0 30596 -2.22693 1
gene 2 123 224 1.50201 0 30963 1.50201 1
gene 1 34 354 2.03338 0 31082 2.03338 1
gene 2 75 351 0.801391 0 31258 0.801391 1
gene 3 138 351 -0.0900281 0 31571 -0.0900281 1
gene 1 14 495 2.26957 0 31903 2.26957 1
gene 1 495 351 2.00656 0 31904 2.00656 1
gene 1 495 495 2.28959 1 32436 2.28959 1
gene 2 354 354 0.459046 1 32730 0.459046 1
gene 3 226 286 0.970826 0 32836 0.970826 1
gene 2 102 495 0.196285 0 33339 0.196285 1
gene 2 21 226 -0.0995636 0 33605 -0.0995636 1
gene 3 217 495 2.11306 0 33732 2.11306 1
gene 2 95 226 -1.23161 0 34245 -1.23161 1
gene 3 181 354 -1.38238 0 34587 -1.38238 1
gene 2 4 223 1.13533 0 34975 1.13533 1
gene 2 198 354 -1.17232 0 35769 -1.17232 1
gene 1 111 333 1.31321 0 36149 1.31321 1
gene 3 156 333 1.04738 0 36683 1.04738 1
gene 1 203 223 0.472918 0 36806 0.472918 1
gene 3 79 689 -0.81151 0 36913 -0.81151 1
gene 3 689 286 1.01896 0 36914 1.01896 1
gene 3 689 689 0.582458 1 37167 0.582458 1
gene 1 58 223 -0.260329 0 37609 -0.260329 1
gene 3 29 286 -0.374984 0 37799 -0.374984 1
gene 1 88 689 -0.0963285 0 37905 -0.0963285 1
gene 2 63 224 0.426924 0 38170 0.426924 1
gene 2 137 689 -1.34296 0 38794 -1.34296 1
gene 1 170 354 0.0869872 0 38966 0.0869872 1
gene 1 55 495 -0.352386 0 39280 -0.352386 1
gene 1 44 225 0.00901016 0 39390 0.00901016 1
gene 1 206 226 0.628334 0 39615 0.628334 1
gene 3 225 354 -0.93498 1 39700 -0.93498 1
gene 1 150 226 -0.686201 0 39803 -0.686201 1
genomeend 293

/* Organism #291 Fitness: 2646.06 Error: 0 */
genomestart 291
trait 1 1 1 0.122091 0.885647 0.185916 0.732049 0.682833 0.35649 
trait 2 0.84736 0.10414 0.238464 0.178262 0.109689 0.107548 0.107705 0.0805208 
trait 3 0 0.0419337 0 1 0.10475 0.340142 0 0.0228286 
node 1 3 1 1
node 2 1 1 1
node 3 3 1 1
node 4 1 1 1
node 5 1 1 1
node 6 3 1 1
node 7 1 1 1
node 8 2 1 1
node 9 1 1 1
node 10 1 1 1
node 11 2 1 1
node 12 2 1 1
node 13 3 1 1
node 14 3 1 1
node 15 1 1 1
node 16 3 1 1
node 17 3 1 1
node 18 3 1 1
node 19 1 1 1
node 20 3 1 1
node 21 2 1 1
node 22 1 1 1
node 23 1 1 1
node 24 3 1 1
node 25 3 1 1
node 26 3 1 1
node 27 3 1 1
node 28 1 1 1
node 29 3 1 1
node 30 1 1 1
node 31 2 1 1
node 32 3 1 1
node 33 2 1 1
node 34 1 1 1
node 35 2 1 1
node 36 2 1 1
node 37 1 1 1
node 38 2 1 1
node 39 1 1 1
node 40 2 1 1
node 41 3 1 1
node 42 3 1 1
node 43 1 1 1
node 44 1 1 1
node 45 2 1 1
node 46 2 1 1
node 47 3 1 1
node 48 3 1 1
node 49 1 1 1
node 50 3 1 1
node 51 3 1 1
node 52 3 1 1
node 53 3 1 1
node 54 3 1 1
node 55 2 1 1
node 56 3 1 1
node 57 1 1 1
node 58 1 1 1
node 59 1 1 1
node 60 3 1 1
node 61 2 1 1
node 62 2 1 1
node 63 1 1 1
node 64 1 1 1
node 65 3 1 1
node 66 2 1 1
node 67 3 1 1
node 68 1 1 1
node 69 1 1 1
node 70 1 1 1
node 71 2 1 1
node 72 3 1 1
node 73 3 1 1
node 74 3 1 1
node 75 1 1 1
node 76 3 1 1
node 77 1 1 1
node 78 1 1 1
node 79 2 1 1
node 80 2 1 1
node 81 2 1 1
node 82 1 1 1
node 83 1 1 1
node 84 2 1 1
node 85 2 1 1
node 86 1 1 1
node 87 1 1 1
node 88 2 1 1
node 89 1 1 1
node 90 1 1 1
node 91 2 1 1
node 92 3 1 1
node 93 3 1 1
node 94 2 1 1
node 95 1 1 1
node 96 2 1 1
node 97 1 1 1
node 98 3 1 1
node 99 2 1 1
node 100 1 1 1
node 101 1 1 1
node 102 2 1 1
node 103 2 1 1
node 104 1 1 1
node 105 1 1 1
node 106 2 1 1
node 107 1 1 1
node 108 2 1 1
node 109 1 1 1
node 110 3 1 1
node 111 1 1 1
node 112 3 1 1
node 113 1 1 1
node 114 2 1 1
node 115 1 1 1
node 116 3 1 1
node 117 2 1 1
node 118 1 1 1
node 119 1 1 1
node 120 3 1 1
node 121 3 1 1
node 122 1 1 1
node 123 3 1 1
node 124 3 1 1
node 125 3 1 1
node 126 3 1 1
node 127 2 1 1
node 128 1 1 1
node 129 3 1 1
node 130 1 1 1
node 131 1 1 1
node 132 3 1 1
node 133 3 1 1
node 134 2 1 1
node 135 1 1 1
node 136 1 1 1
node 137 2 1 1
node 138 2 1 1
node 139 3 1 1
node 140 2 1 1
node 141 1 1 1
node 142 3 1 1
node 143 1 1 1
node 144 2 1 1
node 145 2 1 1
node 146 1 1 1
node 147 2 1 1
node 148 3 1 1
node 149 2 1 1
node 150 1 1 1
node 151 1 1 1
node 152 2 1 1
node 153 1 1 1
node 154 3 1 1
node 155 2 1 1
node 156 3 1 1
node 157 3 1 1
node 158 2 1 1
node 159 1 1 1
node 160 3 1 1
node 161 2 1 1
node 162 2 1 1
node 163 3 1 1
node 164 2 1 1
node 165 1 1 1
node 166 1 1 1
node 167 2 1 1
node 168 2 1 1
node 169 3 1 1
node 170 2 1 1
node 171 2 1 1
node 172 1 1 1
node 173 1 1 1
node 174 1 1 1
node 175 1 1 1
node 176 3 1 1
node 177 2 1 1
node 178 2 1 1
node 179 3 1 1
node 180 2 1 1
node 181 2 1 1
node 182 3 1 1
node 183 3 1 1
node 184 3 1 1
node 185 1 1 1
node 186 1 1 1
node 187 1 1 1
node 188 3 1 1
node 189 2 1 1
node 190 1 1 1
node 191 3 1 1
node 192 1 1 1
node 193 3 1 1
node 194 2 1 1
node 195 2 1 1
node 196 2 1 1
node 197 2 1 1
node 198 1 1 1
node 199 3 1 1
node 200 3 1 1
node 201 2 1 1
node 202 2 1 1
node 203 3 1 1
node 204 2 1 1
node 205 2 1 1
node 206 1 1 1
node 207 2 1 1
node 208 2 1 1
node 209 2 1 1
node 210 2 1 1
node 211 3 1 1
node 212 1 1 1
node 213 2 1 1
node 214 2 1 1
node 215 1 1 1
node 216 2 1 1
node 217 1 1 1
node 218 1 1 1
node 219 1 1 1
node 220 2 1 1
node 221 2 1 3
node 223 3 0 2
node 224 3 0 2
node 225 2 0 2
node 226 3 0 2
node 286 1 0 0
node 333 2 0 0
node 351 2 0 0
node 354 1 0 0
node 495 1 0 0
node 689 1 0 0
gene 2 110 224 7.79061 0 1 7.79061 1
gene 1 112 226 2.25791 0 2 2.25791 1
gene 2 91 223 5.45779 0 3 5.45779 1
gene 3 131 225 6.00243 0 4 6.00243 1
gene 3 15 225 -0.900292 0 113 -0.900292 1
gene 1 226 226 -1.14086 1 153 -1.14086 1
gene 3 151 224 -6.60125 0 330 -6.60125 1
gene 2 63 225 2.46961 0 866 2.46961 1
gene 1 167 225 0.574821 0 968 0.574821 1
gene 1 223 223 5.72944 1 1062 5.72944 1
gene 3 61 226 -1.60158 0 1110 -1.60158 1
gene 3 41 223 -4.42073 0 1259 -4.42073 1
gene 3 149 223 -0.237469 0 1318 -0.237469 1
gene 1 115 224 0.179541 0 1367 0.179541 1
gene 3 142 223 3.13561 0 1500 3.13561 1
gene 2 88 225 -3.57396 0 1622 -3.57396 1
gene 2 90 225 -2.82889 0 1840 -2.82889 1
gene 1 30 224 -5.66977 0 2432 -5.66977 1
gene 3 159 223 -5.46802 0 2514 -5.46802 1
gene 1 167 223 4.38139 0 2930 4.38139 1
gene 3 126 225 -2.61383 0 3459 -2.61383 1
gene 2 37 223 -1.49334 0 4567 -1.49334 1
gene 3 9 225 -2.23924 0 4646 -2.23924 1
gene 2 39 224 -1.5726 0 4854 -1.5726 1
gene 2 140 223 0.332427 0 4923 0.332427 1
gene 2 202 225 4.23774 0 5177 4.23774 1
gene 3 225 225 2.2939 1 5420 2.2939 1
gene 1 224 224 1.07248 1 5429 1.07248 1
gene 2 60 223 1.28004 0 5761 1.28004 1
gene 1 81 225 -3.95181 0 6640 -3.95181 1
gene 1 225 286 -0.762031 1 6848 -0.762031 1
gene 2 286 225 -0.826153 0 6849 -0.826153 1
gene 3 164 223 -7.65931 0 7009 -7.65931 1
gene 3 161 225 0.0981634 0 7279 0.0981634 1
gene 1 195 286 1.20366 0 7371 1.20366 1
gene 2 181 224 6.68193 0 7607 6.68193 1
gene 1 45 224 -2.65829 0 7682 -2.65829 1
gene 3 105 223 -1.10155 0 7822 -1.10155 1
gene 2 124 224 -0.883368 0 8099 -0.883368 1
gene 1 42 225 0.303564 0 9150 0.303564 1
gene 2 67 225 -3.44963 0 9430 -3.44963 1
gene 3 103 224 1.53792 0 9434 1.53792 1
gene 1 113 225 4.23114 0 10243 4.23114 1
gene 1 125 286 0.312665 0 10450 0.312665 1
gene 2 196 226 2.65938 0 10522 2.65938 1
gene 1 141 286 -0.652928 0 10843 -0.652928 1
gene 2 62 286 -1.61208 0 10980 -1.61208 1
gene 3 88 286 -2.314 0 11435 -2.314 1
gene 3 101 286 -6.21789 0 11813 -6.21789 1
gene 2 31 223 -0.0625265 0 11908 -0.0625265 1
gene 3 87 224 -0.737543 0 12669 -0.737543 1
gene 2 77 286 0.729987 0 13277 0.729987 1
gene 1 94 223 0.963875 0 13640 0.963875 1
gene 2 107 224 -3.83917 0 14353 -3.83917 1
gene 3 131 224 -1.93928 0 14728 -1.93928 1
gene 2 108 286 -2.62663 0 15336 -2.62663 1
gene 3 120 224 0.048675 0 15772 0.048675 1
gene 3 13 286 -5.28703 0 16002 -5.28703 1
gene 1 30 226 -3.67169 0 16057 -3.67169 1
gene 2 59 224 4.44533 0 16285 4.44533 1
gene 3 286 286 1.22482 1 16410 1.22482 1
gene 2 9 223 0.0830123 0 17370 0.0830123 1
gene 3 131 333 2.23172 0 17455 2.23172 1
gene 3 333 225 -1.33394 0 17456 -1.33394 1
gene 1 18 226 -0.790051 0 17604 -0.790051 1
gene 1 30 351 0.0423015 0 17713 0.0423015 1
gene 2 351 226 -3.83906 0 17714 -3.83906 1
gene 1 165 226 -0.170031 0 17841 -0.170031 1
gene 1 116 223 -1.35819 0 18589 -1.35819 1
gene 2 172 351 1.28443 0 19024 1.28443 1
gene 3 147 226 3.26903 0 19243 3.26903 1
gene 3 38 226 -0.498703 0 19449 -0.498703 1
gene 2 211 333 -4.44535 0 19691 -4.44535 1
gene 3 351 224 1.08615 0 19817 1.08615 1
gene 1 26 351 -1.96512 0 21136 -1.96512 1
gene 3 333 333 1.04013 1 21571 1.04013 1
gene 1 14 351 -2.7547 0 21953 -2.7547 1
gene 1 102 224 -2.07786 0 22776 -2.07786 1
gene 3 110 226 0.0952083 0 23398 0.0952083 1
gene 1 221 333 2.8201 0 23654 2.8201 1
gene 1 123 225 0.12904 0 24130 0.12904 1
gene 1 64 333 -0.914241 0 24276 -0.914241 1
gene 3 79 286 -0.874493 0 24543 -0.874493 1
gene 3 48 223 -7.15693 0 24614 -7.15693 1
gene 1 94 286 -0.942267 0 24745 -0.942267 1
gene 3 164 225 1.60486 0 25072 1.60486 1
gene 3 144 351 6.45855 0 25145 6.45855 1
gene 3 17 351 -4.55262 0 25313 -4.55262 1
gene 2 19 226 -1.1882 0 25462 -1.1882 1
gene 1 351 351 1.98602 1 25580 1.98602 1
gene 1 149 333 -5.71483 0 25779 -5.71483 1
gene 2 171 225 0.245733 0 25944 0.245733 1
gene 3 171 351 -3.05431 0 26303 -3.05431 1
gene 1 53 223 0.728286 0 26500 0.728286 1
gene 1 180 351 1.52708 0 26597 1.52708 1
gene 3 2 226 1.25256 0 26692 1.25256 1
gene 2 181 226 -2.00362 0 26858 -2.00362 1
gene 2 86 286 -0.180559 0 26970 -0.180559 1
gene 1 17 224 -1.40572 0 27069 -1.40572 1
gene 3 7 224 -2.3858 0 27229 -2.3858 1
gene 2 224 351 2.60217 1 27300 2.60217 1
gene 3 188 223 -2.89406 0 27451 -2.89406 1
gene 1 43 286 1.88688 0 27633 1.88688 1
gene 3 54 286 0.802826 0 27861 0.802826 1
gene 1 9 224 -1.4655 0 28081 -1.4655 1
gene 2 83 286 1.42804 0 28176 1.42804 1
gene 1 226 354 0.101581 1 28316 0.101581 1
gene 1 354 226 -1.2322 0 28317 -1.2322 1
gene 2 82 223 1.11594 0 28679 1.11594 1
gene 2 33 354 -1.224 0 29133 -1.224 1
gene 3 177 354 2.25309 0 29642 2.25309 1
gene 2 13 226 0.427314 0 30099 0.427314 1
gene 3 190 223 -2.22693 0 30596 -2.22693 1
gene 2 123 224 1.50201 0 30963 1.50201 1
gene 1 34 354 2.03338 0 31082 2.03338 1
gene 2 75 351 0.801391 0 31258 0.801391 1
gene 3 138 351 -0.0900281 0 31571 -0.0900281 1
gene 1 14 495 2.26957 0 31903 2.26957 1
gene 1 495 351 2.00656 0 31904 2.00656 1
gene 1 495 495 2.28959 1 32436 2.28959 1
gene 2 354 354 0.459046 1 32730 0.459046 1
gene 3 226 286 0.970826 0 32836 0.970826 1
gene 2 102 495 0.196285 0 33339 0.196285 1
gene 2 21 226 -0.0995636 0 33605 -0.0995636 1
gene 3 217 495 2.11306 0 33732 2.11306 1
gene 2 95 226 -1.23161 0 34245 -1.23161 1
gene 3 181 354 -1.38238 0 34587 -1.38238 1
gene 2 4 223 1.13533 0 34975 1.13533 1
gene 2 198 354 -1.17232 0 35769 -1.17232 1
gene 1 111 333 1.31321 0 36149 1.31321 1
gene 3 156 333 1.04738 0 36683 1.04738 1
gene 1 203 223 0.472918 0 36806 0.472918 1
gene 3 79 689 -0.81151 0 36913 -0.81151 1
gene 3 689 286 1.01896 0 36914 1.01896 1
gene 3 689 689 0.582458 1 37167 0.582458 1
gene 1 58 223 -0.260329 0 37609 -0.260329 1
gene 3 29 286 -0.374984 0 37799 -0.374984 1
gene 1 88 689 -0.0963285 0 37905 -0.0963285 1
gene 2 63 224 0.426924 0 38170 0.426924 1
gene 2 137 689 -1.34296 0 38794 -1.34296 1
gene 1 170 354 0.0869872 0 38966 0.0869872 1
gene 1 55 495 -0.352386 0 39280 -0.352386 1
gene 1 44 225 0.00901016 0 39390 0.00901016 1
gene 1 206 226 0.628334 0 39615 0.628334 1
gene 3 225 354 -0.93498 1 39700 -0.93498 1
genomeend 291


/* Organism #407 Fitness: 3444.14 Error: 0 */
genomestart 407
trait 1 1 0.786348 0.0990823 0.885647 0.185916 0.732049 0.682833 0.35649 
trait 2 0.464538 0.0471884 0.253827 0.178262 0.0994057 0.15267 0.265599 0.0402604 
trait 3 0.53309 0.132741 0.374063 0.157706 1 0 0.44949 0.748873 
node 1 1 1 1
node 2 3 1 1
node 3 1 1 1
node 4 2 1 1
node 5 1 1 1
node 6 1 1 1
node 7 3 1 1
node 8 2 1 1
node 9 1 1 1
node 10 2 1 1
node 11 3 1 1
node 12 1 1 1
node 13 2 1 1
node 14 2 1 1
node 15 2 1 1
node 16 1 1 1
node 17 1 1 1
node 18 1 1 1
node 19 3 1 1
node 20 1 1 1
node 21 2 1 1
node 22 1 1 1
node 23 3 1 1
node 24 2 1 1
node 25 1 1 1
node 26 3 1 1
node 27 1 1 1
node 28 1 1 1
node 29 3 1 1
node 30 1 1 1
node 31 2 1 1
node 32 3 1 1
node 33 1 1 1
node 34 2 1 1
node 35 3 1 1
node 36 1 1 1
node 37 1 1 1
node 38 3 1 1
node 39 1 1 1
node 40 1 1 1
node 41 2 1 1
node 42 3 1 1
node 43 3 1 1
node 44 1 1 1
node 45 2 1 1
node 46 1 1 1
node 47 1 1 1
node 48 1 1 1
node 49 3 1 1
node 50 1 1 1
node 51 1 1 1
node 52 2 1 1
node 53 2 1 1
node 54 3 1 1
node 55 3 1 1
node 56 2 1 1
node 57 3 1 1
node 58 3 1 1
node 59 3 1 1
node 60 1 1 1
node 61 1 1 1
node 62 1 1 1
node 63 3 1 1
node 64 2 1 1
node 65 1 1 1
node 66 2 1 1
node 67 2 1 1
node 68 1 1 1
node 69 2 1 1
node 70 3 1 1
node 71 3 1 1
node 72 1 1 1
node 73 1 1 1
node 74 2 1 1
node 75 1 1 1
node 76 2 1 1
node 77 3 1 1
node 78 3 1 1
node 79 3 1 1
node 80 2 1 1
node 81 3 1 1
node 82 2 1 1
node 83 1 1 1
node 84 2 1 1
node 85 2 1 1
node 86 3 1 1
node 87 1 1 1
node 88 3 1 1
node 89 1 1 1
node 90 3 1 1
node 91 3 1 1
node 92 1 1 1
node 93 2 1 1
node 94 2 1 1
node 95 2 1 1
node 96 2 1 1
node 97 2 1 1
node 98 2 1 1
node 99 3 1 1
node 100 1 1 1
node 101 2 1 1
node 102 2 1 1
node 103 2 1 1
node 104 2 1 1
node 105 1 1 1
node 106 3 1 1
node 107 1 1 1
node 108 1 1 1
node 109 2 1 1
node 110 2 1 1
node 111 2 1 1
node 112 2 1 1
node 113 2 1 1
node 114 3 1 1
node 115 1 1 1
node 116 3 1 1
node 117 1 1 1
node 118 2 1 1
node 119 2 1 1
node 120 1 1 1
node 121 2 1 1
node 122 2 1 1
node 123 2 1 1
node 124 3 1 1
node 125 2 1 1
node 126 2 1 1
node 127 2 1 1
node 128 3 1 1
node 129 1 1 1
node 130 2 1 1
node 131 1 1 1
node 132 2 1 1
node 133 1 1 1
node 134 2 1 1
node 135 1 1 1
node 136 3 1 1
node 137 2 1 1
node 138 2 1 1
node 139 3 1 1
node 140 1 1 1
node 141 1 1 1
node 142 2 1 1
node 143 3 1 1
node 144 2 1 1
node 145 2 1 1
node 146 3 1 1
node 147 3 1 1
node 148 2 1 1
node 149 2 1 1
node 150 1 1 1
node 151 3 1 1
node 152 1 1 1
node 153 1 1 1
node 154 1 1 1
node 155 3 1 1
node 156 2 1 1
node 157 2 1 1
node 158 3 1 1
node 159 1 1 1
node 160 2 1 1
node 161 1 1 1
node 162 2 1 1
node 163 2 1 1
node 164 3 1 1
node 165 1 1 1
node 166 2 1 1
node 167 2 1 1
node 168 2 1 1
node 169 1 1 1
node 170 1 1 1
node 171 3 1 1
node 172 1 1 1
node 173 1 1 1
node 174 1 1 1
node 175 1 1 1
node 176 2 1 1
node 177 1 1 1
node 178 3 1 1
node 179 1 1 1
node 180 3 1 1
node 181 1 1 1
node 182 3 1 1
node 183 3 1 1
node 184 1 1 1
node 185 3 1 1
node 186 3 1 1
node 187 2 1 1
node 188 3 1 1
node 189 2 1 1
node 190 3 1 1
node 191 2 1 1
node 192 3 1 1
node 193 2 1 1
node 194 3 1 1
node 195 3 1 1
node 196 2 1 1
node 197 2 1 1
node 198 2 1 1
node 199 2 1 1
node 200 2 1 1
node 201 3 1 1
node 202 2 1 1
node 203 1 1 1
node 204 3 1 1
node 205 2 1 1
node 206 1 1 1
node 207 2 1 1
node 208 3 1 1
node 209 1 1 1
node 210 2 1 1
node 211 2 1 1
node 212 1 1 1
node 213 2 1 1
node 214 1 1 1
node 215 3 1 1
node 216 1 1 1
node 217 1 1 1
node 218 1 1 1
node 219 3 1 1
node 220 1 1 1
node 221 2 1 3
node 223 3 0 2
node 224 3 0 2
node 225 3 0 2
node 226 2 0 2
node 286 1 0 0
node 333 2 0 0
node 351 1 0 0
node 354 2 0 0
node 495 2 0 0
node 689 1 0 0
node 723 1 0 0
node 959 2 0 0
node 1179 1 0 0
node 1237 1 0 0
node 1330 1 0 0
node 1400 1 0 0
node 1508 1 0 0
gene 1 110 224 6.60235 0 1 6.60235 1
gene 3 112 226 -3.25057 0 2 -3.25057 1
gene 2 91 223 5.62709 0 3 5.62709 1
gene 2 131 225 0.8268 0 4 0.8268 1
gene 1 15 225 2.97415 0 113 2.97415 1
gene 3 226 226 -6.14153 1 153 -6.14153 1
gene 1 151 224 -4.68786 0 330 -4.68786 1
gene 1 63 225 -4.76317 0 866 -4.76317 1
gene 2 167 225 -3.93746 0 968 -3.93746 1
gene 2 223 223 4.70804 1 1062 4.70804 1
gene 2 61 226 3.26108 0 1110 3.26108 1
gene 3 41 223 0.38768 0 1259 0.38768 1
gene 3 149 223 -1.57942 0 1318 -1.57942 1
gene 2 115 224 -2.19921 0 1367 -2.19921 1
gene 2 142 223 4.09361 0 1500 4.09361 1
gene 3 88 225 3.4375 0 1622 3.4375 1
gene 2 90 225 -7.6132 0 1840 -7.6132 1
gene 2 30 224 -8 0 2432 -8 1
gene 2 159 223 -0.421227 0 2514 -0.421227 1
gene 3 167 223 1.46357 0 2930 1.46357 1
gene 2 126 225 -1.75715 0 3459 -1.75715 1
gene 3 37 223 0.372921 0 4567 0.372921 1
gene 2 9 225 0.884318 0 4646 0.884318 1
gene 1 39 224 -5.59303 0 4854 -5.59303 1
gene 1 140 223 1.89935 0 4923 1.89935 1
gene 3 202 225 5.39071 0 5177 5.39071 1
gene 2 225 225 -5.7217 1 5420 -5.7217 1
gene 1 224 224 -1.34469 1 5429 -1.34469 1
gene 1 60 223 0.464979 0 5761 0.464979 1
gene 2 81 225 6.96394 0 6640 6.96394 1
gene 3 225 286 3.42294 1 6848 3.42294 1
gene 1 286 225 -3.69443 0 6849 -3.69443 1
gene 2 164 223 -2.84828 0 7009 -2.84828 1
gene 3 161 225 0.328392 0 7279 0.328392 1
gene 1 195 286 0.907653 0 7371 0.907653 1
gene 2 181 224 0.154362 0 7607 0.154362 1
gene 1 45 224 -2.49456 0 7682 -2.49456 1
gene 2 105 223 0.463989 0 7822 0.463989 1
gene 2 124 224 7.36718 0 8099 7.36718 1
gene 3 42 225 0.730564 0 9150 0.730564 1
gene 3 67 225 6.04471 0 9430 6.04471 1
gene 3 103 224 -4.90221 0 9434 -4.90221 1
gene 2 113 225 3.77103 0 10243 3.77103 1
gene 1 125 286 3.08507 0 10450 3.08507 1
gene 2 196 226 -2.60494 0 10522 -2.60494 1
gene 3 141 286 -0.606504 0 10843 -0.606504 1
gene 1 62 286 -6.38202 0 10980 -6.38202 1
gene 1 88 286 -3.51955 0 11435 -3.51955 1
gene 1 101 286 1.46528 0 11813 1.46528 1
gene 2 31 223 2.03733 0 11908 2.03733 1
gene 1 87 224 -5.61858 0 12669 -5.61858 1
gene 3 77 286 -1.39334 0 13277 -1.39334 1
gene 1 94 223 -0.264363 0 13640 -0.264363 1
gene 1 107 224 -6.07257 0 14353 -6.07257 1
gene 2 131 224 -2.26306 0 14728 -2.26306 1
gene 2 108 286 -2.56462 0 15336 -2.56462 1
gene 1 120 224 -4.86793 0 15772 -4.86793 1
gene 1 13 286 4.11614 0 16002 4.11614 1
gene 3 30 226 -6.5062 0 16057 -6.5062 1
gene 1 59 224 3.2844 0 16285 3.2844 1
gene 3 286 286 3.62775 1 16410 3.62775 1
gene 2 9 223 3.92715 0 17370 3.92715 1
gene 3 131 333 -5.01409 0 17455 -5.01409 1
gene 1 333 225 -5.72227 0 17456 -5.72227 1
gene 2 18 226 7.04364 0 17604 7.04364 1
gene 2 30 351 -2.0579 0 17713 -2.0579 1
gene 2 351 226 -2.82178 0 17714 -2.82178 1
gene 3 165 226 -1.7504 0 17841 -1.7504 1
gene 3 116 223 -0.50813 0 18589 -0.50813 1
gene 1 172 351 -1.45377 0 19024 -1.45377 1
gene 2 147 226 -2.75063 0 19243 -2.75063 1
gene 2 38 226 -2.65803 0 19449 -2.65803 1
gene 3 211 333 -5.72229 0 19691 -5.72229 1
gene 1 351 224 0.0257533 0 19817 0.0257533 1
gene 1 26 351 -1.29068 0 21136 -1.29068 1
gene 2 333 333 1.60084 1 21571 1.60084 1
gene 1 14 351 -1.01397 0 21953 -1.01397 1
gene 2 102 224 1.48171 0 22776 1.48171 1
gene 3 110 226 4.59383 0 23398 4.59383 1
gene 1 221 333 -2.89833 0 23654 -2.89833 1
gene 3 123 225 0.0223693 0 24130 0.0223693 1
gene 1 64 333 -1.38284 0 24276 -1.38284 1
gene 1 79 286 2.57891 0 24543 2.57891 1
gene 1 48 223 -8 0 24614 -8 1
gene 1 94 286 -1.81729 0 24745 -1.81729 1
gene 3 164 225 -3.73834 0 25072 -3.73834 1
gene 1 144 351 -4.84708 0 25145 -4.84708 1
gene 3 17 351 -5.14549 0 25313 -5.14549 1
gene 1 19 226 -2.56337 0 25462 -2.56337 1
gene 3 351 351 7.55571 1 25580 7.55571 1
gene 3 149 333 -4.10626 0 25779 -4.10626 1
gene 2 171 225 6.23178 0 25944 6.23178 1
gene 3 171 351 -0.918366 0 26303 -0.918366 1
gene 3 53 223 3.74556 0 26500 3.74556 1
gene 2 180 351 1.49706 0 26597 1.49706 1
gene 1 2 226 -3.04145 0 26692 -3.04145 1
gene 1 181 226 -0.0395632 0 26858 -0.0395632 1
gene 3 86 286 -1.08313 0 26970 -1.08313 1
gene 3 17 224 -0.0253503 0 27069 -0.0253503 1
gene 1 7 224 -1.38469 0 27229 -1.38469 1
gene 1 224 351 2.58006 1 27300 2.58006 1
gene 2 188 223 -1.5823 0 27451 -1.5823 1
gene 3 43 286 0.785078 0 27633 0.785078 1
gene 3 54 286 -1.41666 0 27861 -1.41666 1
gene 2 9 224 2.01796 0 28081 2.01796 1
gene 2 83 286 3.02712 0 28176 3.02712 1
gene 3 226 354 2.46232 1 28316 2.46232 1
gene 1 354 226 -4.94952 0 28317 -4.94952 1
gene 1 82 223 0.168027 0 28679 0.168027 1
gene 2 33 354 3.27634 0 29133 3.27634 1
gene 1 177 354 0.603993 0 29642 0.603993 1
gene 1 13 226 1.08745 0 30099 1.08745 1
gene 2 190 223 1.12364 0 30596 1.12364 1
gene 3 123 224 -0.212993 0 30963 -0.212993 0
gene 1 34 354 -1.96022 0 31082 -1.96022 1
gene 1 75 351 -8 0 31258 -8 1
gene 2 138 351 -3.80317 0 31571 -3.80317 1
gene 1 14 495 -2.6376 0 31903 -2.6376 1
gene 1 495 351 -0.971976 0 31904 -0.971976 1
gene 1 495 495 -4.57991 1 32436 -4.57991 1
gene 2 354 354 3.07681 1 32730 3.07681 1
gene 1 226 286 7.49144 0 32836 7.49144 1
gene 1 102 495 8 0 33339 8 1
gene 1 21 226 6.66166 0 33605 6.66166 1
gene 2 217 495 2.08945 0 33732 2.08945 1
gene 3 95 226 5.45115 0 34245 5.45115 1
gene 3 181 354 -6.43511 0 34587 -6.43511 1
gene 2 4 223 -3.24238 0 34975 -3.24238 0
gene 3 198 354 2.52687 0 35769 2.52687 1
gene 1 111 333 0.882358 0 36149 0.882358 1
gene 1 156 333 0.740963 0 36683 0.740963 1
gene 1 203 223 7.17722 0 36806 7.17722 1
gene 2 79 689 -3.35801 0 36913 -3.35801 1
gene 3 689 286 2.24719 0 36914 2.24719 1
gene 1 689 689 2.46389 1 37167 2.46389 1
gene 2 58 223 -5.27695 0 37609 -5.27695 1
gene 1 29 286 4.92922 0 37799 4.92922 1
gene 2 88 689 1.94822 0 37905 1.94822 1
gene 2 63 224 2.53905 0 38170 2.53905 1
gene 3 137 689 -8 0 38794 -8 1
gene 3 170 354 -2.25669 0 38966 -2.25669 1
gene 3 55 495 -5.64699 0 39280 -5.64699 1
gene 3 44 225 0.341478 0 39390 0.341478 1
gene 2 206 226 -0.886081 0 39615 -0.886081 1
gene 2 225 354 -0.262057 1 39700 -0.262057 1
gene 2 74 286 2.53673 0 39802 2.53673 1
gene 3 25 223 -1.74237 0 40136 -1.74237 1
gene 3 38 689 0.545305 0 40337 0.545305 1
gene 2 63 723 -1.89666 0 40819 -1.89666 1
gene 2 723 224 0.0394253 0 40820 0.0394253 1
gene 3 191 333 6.18148 0 41618 6.18148 1
gene 3 723 723 -3.76994 1 42034 -3.76994 1
gene 2 225 495 -2.07141 1 42155 -2.07141 1
gene 2 32 223 -0.284491 0 42576 -0.284491 1
gene 1 122 333 -0.400902 0 42979 -0.400902 1
gene 2 84 689 -2.08027 0 43189 -2.08027 1
gene 3 73 495 2.27545 0 43811 2.27545 1
gene 1 113 351 -7.73356 0 44644 -7.73356 1
gene 1 183 225 3.32753 0 44784 3.32753 1
gene 2 63 495 -2.12483 0 44908 -2.12483 1
gene 3 286 689 0.561865 1 45568 0.561865 1
gene 2 119 223 -2.65029 0 46472 -2.65029 1
gene 1 67 226 -1.72136 0 47032 -1.72136 1
gene 2 19 495 -0.132963 0 47557 -0.132963 0
gene 1 108 351 1.19039 0 47682 1.19039 1
gene 3 127 689 -0.889669 0 47871 -0.889669 1
gene 2 63 959 -3.90563 0 47986 -3.90563 1
gene 2 959 224 0.179568 0 47987 0.179568 1
gene 3 93 723 -5.32424 0 48145 -5.32424 1
gene 3 959 959 -0.472587 1 48220 -0.472587 1
gene 2 54 351 -2.49725 0 48573 -2.49725 1
gene 1 155 689 1.843 0 48827 1.843 1
gene 1 28 723 -4.56182 0 48921 -4.56182 1
gene 3 134 223 1.35746 0 49292 1.35746 1
gene 3 80 723 -2.13365 0 49630 -2.13365 1
gene 1 221 351 0.552201 0 49970 0.552201 1
gene 2 26 723 -2.97939 0 50833 -2.97939 0
gene 1 41 333 -0.00101841 0 50936 -0.00101841 1
gene 3 87 354 2.71248 0 51045 2.71248 1
gene 3 102 223 0.304419 0 51301 0.304419 1
gene 3 3 959 -0.171028 0 52270 -0.171028 1
gene 1 58 689 -1.40066 0 52389 -1.40066 1
gene 2 63 689 1.33386 0 52645 1.33386 1
gene 3 108 226 -1.56415 0 53010 -1.56415 1
gene 1 225 333 2.50445 1 53119 2.50445 1
gene 2 56 495 -0.106627 0 53679 -0.106627 1
gene 3 39 333 0.431828 0 53937 0.431828 1
gene 3 185 286 -0.770613 0 54283 -0.770613 1
gene 3 3 1179 -2.48724 0 54477 -2.48724 1
gene 3 1179 959 0.755705 0 54478 0.755705 1
gene 2 172 333 1.72802 0 54817 1.72802 1
gene 3 27 723 0.872428 0 54932 0.872428 1
gene 1 1179 1179 0.101593 1 55092 0.101593 1
gene 1 205 226 -0.871122 0 55186 -0.871122 1
gene 3 188 226 -2.49162 0 55308 -2.49162 1
gene 2 225 689 3.48754 1 55540 3.48754 1
gene 1 121 959 -0.0397704 0 55778 -0.0397704 1
gene 1 39 1237 -0.665295 0 55904 -0.665295 1
gene 1 1237 224 -0.186785 0 55905 -0.186785 1
gene 3 41 354 -0.823249 0 56245 -0.823249 1
gene 1 118 495 -1.46119 0 56365 -1.46119 1
gene 1 199 351 -0.205544 0 56459 -0.205544 1
gene 3 69 225 1.51267 0 56759 1.51267 1
gene 1 147 1237 0.445935 0 57093 0.445935 1
gene 2 85 689 0.539292 0 57452 0.539292 1
gene 2 224 689 -2.23608 0 57960 -2.23608 1
gene 1 50 351 1.67067 0 58074 1.67067 1
gene 2 49 226 -1.79401 0 58185 -1.79401 1
gene 3 140 495 -0.864979 0 58276 -0.864979 1
gene 1 95 959 0.68392 0 58420 0.68392 1
gene 2 59 689 -0.364843 0 58448 -0.364843 1
gene 3 170 1330 1.08771 0 58644 1.08771 1
gene 3 1330 354 -0.528212 0 58645 -0.528212 1
gene 2 60 333 -0.252637 0 58962 -0.252637 1
gene 1 286 333 -1.40314 0 59387 -1.40314 1
gene 3 123 1400 1.56496 0 60368 1.56496 1
gene 3 1400 224 0.614936 0 60369 0.614936 1
gene 2 84 959 0.329403 0 60492 0.329403 1
gene 3 1237 1237 -0.353979 1 60926 -0.353979 1
gene 2 163 1330 0.639875 0 61295 0.639875 1
gene 3 4 226 -1.07867 0 61623 -1.07867 1
gene 3 91 286 -0.0124317 0 61845 -0.0124317 1
gene 3 9 286 0.252039 0 62041 0.252039 1
gene 2 29 333 -0.0886973 0 62180 -0.0886973 1
gene 3 1330 1330 0.651184 1 62720 0.651184 1
gene 1 16 1237 0.271654 0 62842 0.271654 1
gene 1 89 226 0.894503 0 63048 0.894503 1
gene 2 26 1508 1 0 63297 0 1
gene 2 1508 723 -2.97939 0 63298 0 1
gene 1 1508 223 -0.963086 0 63473 -0.963086 1
genomeend 407