genomestart 1
trait 1 0.1 0 0 0 0 0 0 0
trait 2 0.2 0 0 0 0 0 0 0
trait 3 0.3 0 0 0 0 0 0 0
node 1 0 1 1
node 2 0 1 1
node 3 0 1 1
node 4 0 1 1
node 5 0 1 1
node 6 0 1 1
node 7 0 1 1
node 8 0 1 1
node 9 0 1 1
node 10 0 1 1
node 11 0 1 1
node 12 0 1 1
node 13 0 1 1
node 14 0 1 1
node 15 0 1 1
node 16 0 1 1
node 17 0 1 1
node 18 0 1 1
node 19 0 1 1
node 20 0 1 1
node 21 0 1 1
node 22 0 1 1
node 23 0 1 1
node 24 0 1 1
node 25 0 1 1
node 26 0 1 1
node 27 0 1 1
node 28 0 1 1
node 29 0 1 1
node 30 0 1 1
node 31 0 1 1
node 32 0 1 1
node 33 0 1 1
node 34 0 1 1
node 35 0 1 1
node 36 0 1 1
node 37 0 1 1
node 38 0 1 1
node 39 0 1 1
node 40 0 1 1
node 41 0 1 1
node 42 0 1 1
node 43 0 1 1
node 44 0 1 1
node 45 0 1 1
node 46 0 1 1
node 47 0 1 1
node 48 0 1 1
node 49 0 1 1
node 50 0 1 1
node 51 0 1 1
node 52 0 1 1
node 53 0 1 1
node 54 0 1 1
node 55 0 1 1
node 56 0 1 1
node 57 0 1 1
node 58 0 1 1
node 59 0 1 1
node 60 0 1 1
node 61 0 1 1
node 62 0 1 1
node 63 0 1 1
node 64 0 1 1
node 65 0 1 1
node 66 0 1 1
node 67 0 1 1
node 68 0 1 1
node 69 0 1 1
node 70 0 1 1
node 71 0 1 1
node 72 0 1 1
node 73 0 1 1
node 74 0 1 1
node 75 0 1 1
node 76 0 1 1
node 77 0 1 1
node 78 0 1 1
node 79 0 1 1
node 80 0 1 1
node 81 0 1 1
node 82 0 1 1
node 83 0 1 1
node 84 0 1 1
node 85 0 1 1
node 86 0 1 1
node 87 0 1 1
node 88 0 1 1
node 89 0 1 1
node 90 0 1 1
node 91 0 1 1
node 92 0 1 1
node 93 0 1 1
node 94 0 1 1
node 95 0 1 1
node 96 0 1 1
node 97 0 1 1
node 98 0 1 1
node 99 0 1 1
node 100 0 1 1
node 101 0 1 1
node 102 0 1 1
node 103 0 1 1
node 104 0 1 1
node 105 0 1 1
node 106 0 1 1
node 107 0 1 1
node 108 0 1 1
node 109 0 1 1
node 110 0 1 1
node 111 0 1 1
node 112 0 1 1
node 113 0 1 1
node 114 0 1 1
node 115 0 1 1
node 116 0 1 1
node 117 0 1 1
node 118 0 1 1
node 119 0 1 1
node 120 0 1 1
node 121 0 1 1
node 122 0 1 1
node 123 0 1 1
node 124 0 1 1
node 125 0 1 1
node 126 0 1 1
node 127 0 1 1
node 128 0 1 1
node 129 0 1 1
node 130 0 1 1
node 131 0 1 1
node 132 0 1 1
node 133 0 1 1
node 134 0 1 1
node 135 0 1 1
node 136 0 1 1
node 137 0 1 1
node 138 0 1 1
node 139 0 1 1
node 140 0 1 1
node 141 0 1 1
node 142 0 1 1
node 143 0 1 1
node 144 0 1 1
node 145 0 1 1
node 146 0 1 1
node 147 0 1 1
node 148 0 1 1
node 149 0 1 1
node 150 0 1 1
node 151 0 1 1
node 152 0 1 1
node 153 0 1 1
node 154 0 1 1
node 155 0 1 1
node 156 0 1 1
node 157 0 1 1
node 158 0 1 1
node 159 0 1 1
node 160 0 1 1
node 161 0 1 1
node 162 0 1 1
node 163 0 1 1
node 164 0 1 1
node 165 0 1 1
node 166 0 1 1
node 167 0 1 1
node 168 0 1 1
node 169 0 1 1
node 170 0 1 1
node 171 0 1 1
node 172 0 1 1
node 173 0 1 1
node 174 0 1 1
node 175 0 1 1
node 176 0 1 1
node 177 0 1 1
node 178 0 1 1
node 179 0 1 1
node 180 0 1 1
node 181 0 1 1
node 182 0 1 1
node 183 0 1 1
node 184 0 1 1
node 185 0 1 1
node 186 0 1 1
node 187 0 1 1
node 188 0 1 1
node 189 0 1 1
node 190 0 1 1
node 191 0 1 1
node 192 0 1 1
node 193 0 1 1
node 194 0 1 1
node 195 0 1 1
node 196 0 1 1
node 197 0 1 1
node 198 0 1 1
node 199 0 1 1
node 200 0 1 1
node 201 0 1 1
node 202 0 1 1
node 203 0 1 1
node 204 0 1 1
node 205 0 1 1
node 206 0 1 1
node 207 0 1 1
node 208 0 1 1
node 209 0 1 1
node 210 0 1 1
node 211 0 1 1
node 212 0 1 1
node 213 0 1 1
node 214 0 1 1
node 215 0 1 1
node 216 0 1 1
node 217 0 1 1
node 218 0 1 1
node 219 0 1 1
node 220 0 1 1
node 221 0 1 3 
node 223 0 0 2
node 224 0 0 2
node 225 0 0 2
node 226 0 0 2
gene 1 1 223 0.0 0 1 0 1
gene 2 2 223 0.0 0 2 0 1
gene 3 3 223 0.0 0 3 0 1
gene 1 4 223 0.0 0 4 0 1
gene 2 5 223 0.0 0 5 0 1
gene 2 6 223 0.0 0 6 0 1
gene 2 7 223 0.0 0 7 0 1
gene 3 8 223 0.0 0 8 0 1
gene 3 9 223 0.0 0 9 0 1
gene 1 10 223 0.0 0 10 0 1
gene 1 11 223 0.0 0 11 0 1
gene 2 12 223 0.0 0 12 0 1
gene 3 13 223 0.0 0 13 0 1
gene 1 14 223 0.0 0 14 0 1
gene 2 15 223 0.0 0 15 0 1
gene 2 16 223 0.0 0 16 0 1
gene 2 17 223 0.0 0 17 0 1
gene 3 18 223 0.0 0 18 0 1
gene 3 19 223 0.0 0 19 0 1
gene 1 20 223 0.0 0 20 0 1
gene 1 21 223 0.0 0 21 0 1
gene 2 22 223 0.0 0 22 0 1
gene 3 23 223 0.0 0 23 0 1
gene 1 24 223 0.0 0 24 0 1
gene 2 25 223 0.0 0 25 0 1
gene 2 26 223 0.0 0 26 0 1
gene 2 27 223 0.0 0 27 0 1
gene 3 28 223 0.0 0 28 0 1
gene 3 29 223 0.0 0 29 0 1
gene 1 30 223 0.0 0 30 0 1
gene 1 31 223 0.0 0 31 0 1
gene 2 32 223 0.0 0 32 0 1
gene 3 33 223 0.0 0 33 0 1
gene 1 34 223 0.0 0 34 0 1
gene 2 35 223 0.0 0 35 0 1
gene 2 36 223 0.0 0 36 0 1
gene 2 37 223 0.0 0 37 0 1
gene 3 38 223 0.0 0 38 0 1
gene 3 39 223 0.0 0 39 0 1
gene 1 40 223 0.0 0 40 0 1
gene 1 41 223 0.0 0 41 0 1
gene 2 42 223 0.0 0 42 0 1
gene 3 43 223 0.0 0 43 0 1
gene 1 44 223 0.0 0 44 0 1
gene 2 45 223 0.0 0 45 0 1
gene 2 46 223 0.0 0 46 0 1
gene 2 47 223 0.0 0 47 0 1
gene 3 48 223 0.0 0 48 0 1
gene 3 49 223 0.0 0 49 0 1
gene 1 50 223 0.0 0 50 0 1
gene 1 51 223 0.0 0 51 0 1
gene 2 52 223 0.0 0 52 0 1
gene 3 53 223 0.0 0 53 0 1
gene 1 54 223 0.0 0 54 0 1
gene 2 55 223 0.0 0 55 0 1
gene 2 56 223 0.0 0 56 0 1
gene 2 57 223 0.0 0 57 0 1
gene 3 58 223 0.0 0 58 0 1
gene 3 59 223 0.0 0 59 0 1
gene 1 60 223 0.0 0 60 0 1
gene 1 61 223 0.0 0 61 0 1
gene 2 62 223 0.0 0 62 0 1
gene 3 63 223 0.0 0 63 0 1
gene 1 64 223 0.0 0 64 0 1
gene 2 65 223 0.0 0 65 0 1
gene 2 66 223 0.0 0 66 0 1
gene 2 67 223 0.0 0 67 0 1
gene 3 68 223 0.0 0 68 0 1
gene 3 69 223 0.0 0 69 0 1
gene 1 70 223 0.0 0 70 0 1
gene 1 71 223 0.0 0 71 0 1
gene 2 72 223 0.0 0 72 0 1
gene 3 73 223 0.0 0 73 0 1
gene 1 74 223 0.0 0 74 0 1
gene 2 75 223 0.0 0 75 0 1
gene 2 76 223 0.0 0 76 0 1
gene 2 77 223 0.0 0 77 0 1
gene 3 78 223 0.0 0 78 0 1
gene 3 79 223 0.0 0 79 0 1
gene 1 80 223 0.0 0 80 0 1
gene 1 81 223 0.0 0 81 0 1
gene 2 82 223 0.0 0 82 0 1
gene 3 83 223 0.0 0 83 0 1
gene 1 84 223 0.0 0 84 0 1
gene 2 85 223 0.0 0 85 0 1
gene 2 86 223 0.0 0 86 0 1
gene 2 87 223 0.0 0 87 0 1
gene 3 88 223 0.0 0 88 0 1
gene 3 89 223 0.0 0 89 0 1
gene 1 90 223 0.0 0 90 0 1
gene 1 91 223 0.0 0 91 0 1
gene 2 92 223 0.0 0 92 0 1
gene 3 93 223 0.0 0 93 0 1
gene 1 94 223 0.0 0 94 0 1
gene 2 95 223 0.0 0 95 0 1
gene 2 96 223 0.0 0 96 0 1
gene 2 97 223 0.0 0 97 0 1
gene 3 98 223 0.0 0 98 0 1
gene 3 99 223 0.0 0 99 0 1
gene 1 100 223 0.0 0 100 0 1
gene 1 101 223 0.0 0 101 0 1
gene 2 102 223 0.0 0 102 0 1
gene 3 103 223 0.0 0 103 0 1
gene 1 104 223 0.0 0 104 0 1
gene 2 105 223 0.0 0 105 0 1
gene 2 106 223 0.0 0 106 0 1
gene 2 107 223 0.0 0 107 0 1
gene 3 108 223 0.0 0 108 0 1
gene 3 109 223 0.0 0 109 0 1
gene 1 110 223 0.0 0 110 0 1
gene 1 111 223 0.0 0 111 0 1
gene 2 112 223 0.0 0 112 0 1
gene 3 113 223 0.0 0 113 0 1
gene 1 114 223 0.0 0 114 0 1
gene 2 115 223 0.0 0 115 0 1
gene 2 116 223 0.0 0 116 0 1
gene 2 117 223 0.0 0 117 0 1
gene 3 118 223 0.0 0 118 0 1
gene 3 119 223 0.0 0 119 0 1
gene 1 120 223 0.0 0 120 0 1
gene 1 121 223 0.0 0 121 0 1
gene 2 122 223 0.0 0 122 0 1
gene 3 123 223 0.0 0 123 0 1
gene 1 124 223 0.0 0 124 0 1
gene 2 125 223 0.0 0 125 0 1
gene 2 126 223 0.0 0 126 0 1
gene 2 127 223 0.0 0 127 0 1
gene 3 128 223 0.0 0 128 0 1
gene 3 129 223 0.0 0 129 0 1
gene 1 130 223 0.0 0 130 0 1
gene 1 131 223 0.0 0 131 0 1
gene 2 132 223 0.0 0 132 0 1
gene 3 133 223 0.0 0 133 0 1
gene 1 134 223 0.0 0 134 0 1
gene 2 135 223 0.0 0 135 0 1
gene 2 136 223 0.0 0 136 0 1
gene 2 137 223 0.0 0 137 0 1
gene 3 138 223 0.0 0 138 0 1
gene 3 139 223 0.0 0 139 0 1
gene 1 140 223 0.0 0 140 0 1
gene 1 141 223 0.0 0 141 0 1
gene 2 142 223 0.0 0 142 0 1
gene 3 143 223 0.0 0 143 0 1
gene 1 144 223 0.0 0 144 0 1
gene 2 145 223 0.0 0 145 0 1
gene 2 146 223 0.0 0 146 0 1
gene 2 147 223 0.0 0 147 0 1
gene 3 148 223 0.0 0 148 0 1
gene 3 149 223 0.0 0 149 0 1
gene 1 150 223 0.0 0 150 0 1
gene 1 151 223 0.0 0 151 0 1
gene 2 152 223 0.0 0 152 0 1
gene 3 153 223 0.0 0 153 0 1
gene 1 154 223 0.0 0 154 0 1
gene 2 155 223 0.0 0 155 0 1
gene 2 156 223 0.0 0 156 0 1
gene 2 157 223 0.0 0 157 0 1
gene 3 158 223 0.0 0 158 0 1
gene 3 159 223 0.0 0 159 0 1
gene 1 160 223 0.0 0 160 0 1
gene 1 161 223 0.0 0 161 0 1
gene 2 162 223 0.0 0 162 0 1
gene 3 163 223 0.0 0 163 0 1
gene 1 164 223 0.0 0 164 0 1
gene 2 165 223 0.0 0 165 0 1
gene 2 166 223 0.0 0 166 0 1
gene 2 167 223 0.0 0 167 0 1
gene 3 168 223 0.0 0 168 0 1
gene 3 169 223 0.0 0 169 0 1
gene 1 170 223 0.0 0 170 0 1
gene 1 171 223 0.0 0 171 0 1
gene 2 172 223 0.0 0 172 0 1
gene 3 173 223 0.0 0 173 0 1
gene 1 174 223 0.0 0 174 0 1
gene 2 175 223 0.0 0 175 0 1
gene 2 176 223 0.0 0 176 0 1
gene 2 177 223 0.0 0 177 0 1
gene 3 178 223 0.0 0 178 0 1
gene 3 179 223 0.0 0 179 0 1
gene 1 180 223 0.0 0 180 0 1
gene 1 181 223 0.0 0 181 0 1
gene 2 182 223 0.0 0 182 0 1
gene 3 183 223 0.0 0 183 0 1
gene 1 184 223 0.0 0 184 0 1
gene 2 185 223 0.0 0 185 0 1
gene 2 186 223 0.0 0 186 0 1
gene 2 187 223 0.0 0 187 0 1
gene 3 188 223 0.0 0 188 0 1
gene 3 189 223 0.0 0 189 0 1
gene 1 190 223 0.0 0 190 0 1
gene 1 191 223 0.0 0 191 0 1
gene 2 192 223 0.0 0 192 0 1
gene 3 193 223 0.0 0 193 0 1
gene 1 194 223 0.0 0 194 0 1
gene 2 195 223 0.0 0 195 0 1
gene 2 196 223 0.0 0 196 0 1
gene 2 197 223 0.0 0 197 0 1
gene 3 198 223 0.0 0 198 0 1
gene 3 199 223 0.0 0 199 0 1
gene 1 200 223 0.0 0 200 0 1
gene 1 201 223 0.0 0 201 0 1
gene 2 202 223 0.0 0 202 0 1
gene 3 203 223 0.0 0 203 0 1
gene 1 204 223 0.0 0 204 0 1
gene 2 205 223 0.0 0 205 0 1
gene 2 206 223 0.0 0 206 0 1
gene 2 207 223 0.0 0 207 0 1
gene 3 208 223 0.0 0 208 0 1
gene 3 209 223 0.0 0 209 0 1
gene 1 210 223 0.0 0 210 0 1
gene 1 211 223 0.0 0 211 0 1
gene 2 212 223 0.0 0 212 0 1
gene 3 213 223 0.0 0 213 0 1
gene 1 214 223 0.0 0 214 0 1
gene 2 215 223 0.0 0 215 0 1
gene 2 216 223 0.0 0 216 0 1
gene 2 217 223 0.0 0 217 0 1
gene 3 218 223 0.0 0 218 0 1
gene 3 219 223 0.0 0 219 0 1
gene 1 220 223 0.0 0 220 0 1
gene 1 221 223 0.0 0 221 0 1
gene 1 1 224 0.0 0 1 0 1
gene 2 2 224 0.0 0 2 0 1
gene 3 3 224 0.0 0 3 0 1
gene 1 4 224 0.0 0 4 0 1
gene 2 5 224 0.0 0 5 0 1
gene 2 6 224 0.0 0 6 0 1
gene 2 7 224 0.0 0 7 0 1
gene 3 8 224 0.0 0 8 0 1
gene 3 9 224 0.0 0 9 0 1
gene 1 10 224 0.0 0 10 0 1
gene 1 11 224 0.0 0 11 0 1
gene 2 12 224 0.0 0 12 0 1
gene 3 13 224 0.0 0 13 0 1
gene 1 14 224 0.0 0 14 0 1
gene 2 15 224 0.0 0 15 0 1
gene 2 16 224 0.0 0 16 0 1
gene 2 17 224 0.0 0 17 0 1
gene 3 18 224 0.0 0 18 0 1
gene 3 19 224 0.0 0 19 0 1
gene 1 20 224 0.0 0 20 0 1
gene 1 21 224 0.0 0 21 0 1
gene 2 22 224 0.0 0 22 0 1
gene 3 23 224 0.0 0 23 0 1
gene 1 24 224 0.0 0 24 0 1
gene 2 25 224 0.0 0 25 0 1
gene 2 26 224 0.0 0 26 0 1
gene 2 27 224 0.0 0 27 0 1
gene 3 28 224 0.0 0 28 0 1
gene 3 29 224 0.0 0 29 0 1
gene 1 30 224 0.0 0 30 0 1
gene 1 31 224 0.0 0 31 0 1
gene 2 32 224 0.0 0 32 0 1
gene 3 33 224 0.0 0 33 0 1
gene 1 34 224 0.0 0 34 0 1
gene 2 35 224 0.0 0 35 0 1
gene 2 36 224 0.0 0 36 0 1
gene 2 37 224 0.0 0 37 0 1
gene 3 38 224 0.0 0 38 0 1
gene 3 39 224 0.0 0 39 0 1
gene 1 40 224 0.0 0 40 0 1
gene 1 41 224 0.0 0 41 0 1
gene 2 42 224 0.0 0 42 0 1
gene 3 43 224 0.0 0 43 0 1
gene 1 44 224 0.0 0 44 0 1
gene 2 45 224 0.0 0 45 0 1
gene 2 46 224 0.0 0 46 0 1
gene 2 47 224 0.0 0 47 0 1
gene 3 48 224 0.0 0 48 0 1
gene 3 49 224 0.0 0 49 0 1
gene 1 50 224 0.0 0 50 0 1
gene 1 51 224 0.0 0 51 0 1
gene 2 52 224 0.0 0 52 0 1
gene 3 53 224 0.0 0 53 0 1
gene 1 54 224 0.0 0 54 0 1
gene 2 55 224 0.0 0 55 0 1
gene 2 56 224 0.0 0 56 0 1
gene 2 57 224 0.0 0 57 0 1
gene 3 58 224 0.0 0 58 0 1
gene 3 59 224 0.0 0 59 0 1
gene 1 60 224 0.0 0 60 0 1
gene 1 61 224 0.0 0 61 0 1
gene 2 62 224 0.0 0 62 0 1
gene 3 63 224 0.0 0 63 0 1
gene 1 64 224 0.0 0 64 0 1
gene 2 65 224 0.0 0 65 0 1
gene 2 66 224 0.0 0 66 0 1
gene 2 67 224 0.0 0 67 0 1
gene 3 68 224 0.0 0 68 0 1
gene 3 69 224 0.0 0 69 0 1
gene 1 70 224 0.0 0 70 0 1
gene 1 71 224 0.0 0 71 0 1
gene 2 72 224 0.0 0 72 0 1
gene 3 73 224 0.0 0 73 0 1
gene 1 74 224 0.0 0 74 0 1
gene 2 75 224 0.0 0 75 0 1
gene 2 76 224 0.0 0 76 0 1
gene 2 77 224 0.0 0 77 0 1
gene 3 78 224 0.0 0 78 0 1
gene 3 79 224 0.0 0 79 0 1
gene 1 80 224 0.0 0 80 0 1
gene 1 81 224 0.0 0 81 0 1
gene 2 82 224 0.0 0 82 0 1
gene 3 83 224 0.0 0 83 0 1
gene 1 84 224 0.0 0 84 0 1
gene 2 85 224 0.0 0 85 0 1
gene 2 86 224 0.0 0 86 0 1
gene 2 87 224 0.0 0 87 0 1
gene 3 88 224 0.0 0 88 0 1
gene 3 89 224 0.0 0 89 0 1
gene 1 90 224 0.0 0 90 0 1
gene 1 91 224 0.0 0 91 0 1
gene 2 92 224 0.0 0 92 0 1
gene 3 93 224 0.0 0 93 0 1
gene 1 94 224 0.0 0 94 0 1
gene 2 95 224 0.0 0 95 0 1
gene 2 96 224 0.0 0 96 0 1
gene 2 97 224 0.0 0 97 0 1
gene 3 98 224 0.0 0 98 0 1
gene 3 99 224 0.0 0 99 0 1
gene 1 100 224 0.0 0 100 0 1
gene 1 101 224 0.0 0 101 0 1
gene 2 102 224 0.0 0 102 0 1
gene 3 103 224 0.0 0 103 0 1
gene 1 104 224 0.0 0 104 0 1
gene 2 105 224 0.0 0 105 0 1
gene 2 106 224 0.0 0 106 0 1
gene 2 107 224 0.0 0 107 0 1
gene 3 108 224 0.0 0 108 0 1
gene 3 109 224 0.0 0 109 0 1
gene 1 110 224 0.0 0 110 0 1
gene 1 111 224 0.0 0 111 0 1
gene 2 112 224 0.0 0 112 0 1
gene 3 113 224 0.0 0 113 0 1
gene 1 114 224 0.0 0 114 0 1
gene 2 115 224 0.0 0 115 0 1
gene 2 116 224 0.0 0 116 0 1
gene 2 117 224 0.0 0 117 0 1
gene 3 118 224 0.0 0 118 0 1
gene 3 119 224 0.0 0 119 0 1
gene 1 120 224 0.0 0 120 0 1
gene 1 121 224 0.0 0 121 0 1
gene 2 122 224 0.0 0 122 0 1
gene 3 123 224 0.0 0 123 0 1
gene 1 124 224 0.0 0 124 0 1
gene 2 125 224 0.0 0 125 0 1
gene 2 126 224 0.0 0 126 0 1
gene 2 127 224 0.0 0 127 0 1
gene 3 128 224 0.0 0 128 0 1
gene 3 129 224 0.0 0 129 0 1
gene 1 130 224 0.0 0 130 0 1
gene 1 131 224 0.0 0 131 0 1
gene 2 132 224 0.0 0 132 0 1
gene 3 133 224 0.0 0 133 0 1
gene 1 134 224 0.0 0 134 0 1
gene 2 135 224 0.0 0 135 0 1
gene 2 136 224 0.0 0 136 0 1
gene 2 137 224 0.0 0 137 0 1
gene 3 138 224 0.0 0 138 0 1
gene 3 139 224 0.0 0 139 0 1
gene 1 140 224 0.0 0 140 0 1
gene 1 141 224 0.0 0 141 0 1
gene 2 142 224 0.0 0 142 0 1
gene 3 143 224 0.0 0 143 0 1
gene 1 144 224 0.0 0 144 0 1
gene 2 145 224 0.0 0 145 0 1
gene 2 146 224 0.0 0 146 0 1
gene 2 147 224 0.0 0 147 0 1
gene 3 148 224 0.0 0 148 0 1
gene 3 149 224 0.0 0 149 0 1
gene 1 150 224 0.0 0 150 0 1
gene 1 151 224 0.0 0 151 0 1
gene 2 152 224 0.0 0 152 0 1
gene 3 153 224 0.0 0 153 0 1
gene 1 154 224 0.0 0 154 0 1
gene 2 155 224 0.0 0 155 0 1
gene 2 156 224 0.0 0 156 0 1
gene 2 157 224 0.0 0 157 0 1
gene 3 158 224 0.0 0 158 0 1
gene 3 159 224 0.0 0 159 0 1
gene 1 160 224 0.0 0 160 0 1
gene 1 161 224 0.0 0 161 0 1
gene 2 162 224 0.0 0 162 0 1
gene 3 163 224 0.0 0 163 0 1
gene 1 164 224 0.0 0 164 0 1
gene 2 165 224 0.0 0 165 0 1
gene 2 166 224 0.0 0 166 0 1
gene 2 167 224 0.0 0 167 0 1
gene 3 168 224 0.0 0 168 0 1
gene 3 169 224 0.0 0 169 0 1
gene 1 170 224 0.0 0 170 0 1
gene 1 171 224 0.0 0 171 0 1
gene 2 172 224 0.0 0 172 0 1
gene 3 173 224 0.0 0 173 0 1
gene 1 174 224 0.0 0 174 0 1
gene 2 175 224 0.0 0 175 0 1
gene 2 176 224 0.0 0 176 0 1
gene 2 177 224 0.0 0 177 0 1
gene 3 178 224 0.0 0 178 0 1
gene 3 179 224 0.0 0 179 0 1
gene 1 180 224 0.0 0 180 0 1
gene 1 181 224 0.0 0 181 0 1
gene 2 182 224 0.0 0 182 0 1
gene 3 183 224 0.0 0 183 0 1
gene 1 184 224 0.0 0 184 0 1
gene 2 185 224 0.0 0 185 0 1
gene 2 186 224 0.0 0 186 0 1
gene 2 187 224 0.0 0 187 0 1
gene 3 188 224 0.0 0 188 0 1
gene 3 189 224 0.0 0 189 0 1
gene 1 190 224 0.0 0 190 0 1
gene 1 191 224 0.0 0 191 0 1
gene 2 192 224 0.0 0 192 0 1
gene 3 193 224 0.0 0 193 0 1
gene 1 194 224 0.0 0 194 0 1
gene 2 195 224 0.0 0 195 0 1
gene 2 196 224 0.0 0 196 0 1
gene 2 197 224 0.0 0 197 0 1
gene 3 198 224 0.0 0 198 0 1
gene 3 199 224 0.0 0 199 0 1
gene 1 200 224 0.0 0 200 0 1
gene 1 201 224 0.0 0 201 0 1
gene 2 202 224 0.0 0 202 0 1
gene 3 203 224 0.0 0 203 0 1
gene 1 204 224 0.0 0 204 0 1
gene 2 205 224 0.0 0 205 0 1
gene 2 206 224 0.0 0 206 0 1
gene 2 207 224 0.0 0 207 0 1
gene 3 208 224 0.0 0 208 0 1
gene 3 209 224 0.0 0 209 0 1
gene 1 210 224 0.0 0 210 0 1
gene 1 211 224 0.0 0 211 0 1
gene 2 212 224 0.0 0 212 0 1
gene 3 213 224 0.0 0 213 0 1
gene 1 214 224 0.0 0 214 0 1
gene 2 215 224 0.0 0 215 0 1
gene 2 216 224 0.0 0 216 0 1
gene 2 217 224 0.0 0 217 0 1
gene 3 218 224 0.0 0 218 0 1
gene 3 219 224 0.0 0 219 0 1
gene 1 220 224 0.0 0 220 0 1
gene 1 221 224 0.0 0 221 0 1
gene 1 1 225 0.0 0 1 0 1
gene 2 2 225 0.0 0 2 0 1
gene 3 3 225 0.0 0 3 0 1
gene 1 4 225 0.0 0 4 0 1
gene 2 5 225 0.0 0 5 0 1
gene 2 6 225 0.0 0 6 0 1
gene 2 7 225 0.0 0 7 0 1
gene 3 8 225 0.0 0 8 0 1
gene 3 9 225 0.0 0 9 0 1
gene 1 10 225 0.0 0 10 0 1
gene 1 11 225 0.0 0 11 0 1
gene 2 12 225 0.0 0 12 0 1
gene 3 13 225 0.0 0 13 0 1
gene 1 14 225 0.0 0 14 0 1
gene 2 15 225 0.0 0 15 0 1
gene 2 16 225 0.0 0 16 0 1
gene 2 17 225 0.0 0 17 0 1
gene 3 18 225 0.0 0 18 0 1
gene 3 19 225 0.0 0 19 0 1
gene 1 20 225 0.0 0 20 0 1
gene 1 21 225 0.0 0 21 0 1
gene 2 22 225 0.0 0 22 0 1
gene 3 23 225 0.0 0 23 0 1
gene 1 24 225 0.0 0 24 0 1
gene 2 25 225 0.0 0 25 0 1
gene 2 26 225 0.0 0 26 0 1
gene 2 27 225 0.0 0 27 0 1
gene 3 28 225 0.0 0 28 0 1
gene 3 29 225 0.0 0 29 0 1
gene 1 30 225 0.0 0 30 0 1
gene 1 31 225 0.0 0 31 0 1
gene 2 32 225 0.0 0 32 0 1
gene 3 33 225 0.0 0 33 0 1
gene 1 34 225 0.0 0 34 0 1
gene 2 35 225 0.0 0 35 0 1
gene 2 36 225 0.0 0 36 0 1
gene 2 37 225 0.0 0 37 0 1
gene 3 38 225 0.0 0 38 0 1
gene 3 39 225 0.0 0 39 0 1
gene 1 40 225 0.0 0 40 0 1
gene 1 41 225 0.0 0 41 0 1
gene 2 42 225 0.0 0 42 0 1
gene 3 43 225 0.0 0 43 0 1
gene 1 44 225 0.0 0 44 0 1
gene 2 45 225 0.0 0 45 0 1
gene 2 46 225 0.0 0 46 0 1
gene 2 47 225 0.0 0 47 0 1
gene 3 48 225 0.0 0 48 0 1
gene 3 49 225 0.0 0 49 0 1
gene 1 50 225 0.0 0 50 0 1
gene 1 51 225 0.0 0 51 0 1
gene 2 52 225 0.0 0 52 0 1
gene 3 53 225 0.0 0 53 0 1
gene 1 54 225 0.0 0 54 0 1
gene 2 55 225 0.0 0 55 0 1
gene 2 56 225 0.0 0 56 0 1
gene 2 57 225 0.0 0 57 0 1
gene 3 58 225 0.0 0 58 0 1
gene 3 59 225 0.0 0 59 0 1
gene 1 60 225 0.0 0 60 0 1
gene 1 61 225 0.0 0 61 0 1
gene 2 62 225 0.0 0 62 0 1
gene 3 63 225 0.0 0 63 0 1
gene 1 64 225 0.0 0 64 0 1
gene 2 65 225 0.0 0 65 0 1
gene 2 66 225 0.0 0 66 0 1
gene 2 67 225 0.0 0 67 0 1
gene 3 68 225 0.0 0 68 0 1
gene 3 69 225 0.0 0 69 0 1
gene 1 70 225 0.0 0 70 0 1
gene 1 71 225 0.0 0 71 0 1
gene 2 72 225 0.0 0 72 0 1
gene 3 73 225 0.0 0 73 0 1
gene 1 74 225 0.0 0 74 0 1
gene 2 75 225 0.0 0 75 0 1
gene 2 76 225 0.0 0 76 0 1
gene 2 77 225 0.0 0 77 0 1
gene 3 78 225 0.0 0 78 0 1
gene 3 79 225 0.0 0 79 0 1
gene 1 80 225 0.0 0 80 0 1
gene 1 81 225 0.0 0 81 0 1
gene 2 82 225 0.0 0 82 0 1
gene 3 83 225 0.0 0 83 0 1
gene 1 84 225 0.0 0 84 0 1
gene 2 85 225 0.0 0 85 0 1
gene 2 86 225 0.0 0 86 0 1
gene 2 87 225 0.0 0 87 0 1
gene 3 88 225 0.0 0 88 0 1
gene 3 89 225 0.0 0 89 0 1
gene 1 90 225 0.0 0 90 0 1
gene 1 91 225 0.0 0 91 0 1
gene 2 92 225 0.0 0 92 0 1
gene 3 93 225 0.0 0 93 0 1
gene 1 94 225 0.0 0 94 0 1
gene 2 95 225 0.0 0 95 0 1
gene 2 96 225 0.0 0 96 0 1
gene 2 97 225 0.0 0 97 0 1
gene 3 98 225 0.0 0 98 0 1
gene 3 99 225 0.0 0 99 0 1
gene 1 100 225 0.0 0 100 0 1
gene 1 101 225 0.0 0 101 0 1
gene 2 102 225 0.0 0 102 0 1
gene 3 103 225 0.0 0 103 0 1
gene 1 104 225 0.0 0 104 0 1
gene 2 105 225 0.0 0 105 0 1
gene 2 106 225 0.0 0 106 0 1
gene 2 107 225 0.0 0 107 0 1
gene 3 108 225 0.0 0 108 0 1
gene 3 109 225 0.0 0 109 0 1
gene 1 110 225 0.0 0 110 0 1
gene 1 111 225 0.0 0 111 0 1
gene 2 112 225 0.0 0 112 0 1
gene 3 113 225 0.0 0 113 0 1
gene 1 114 225 0.0 0 114 0 1
gene 2 115 225 0.0 0 115 0 1
gene 2 116 225 0.0 0 116 0 1
gene 2 117 225 0.0 0 117 0 1
gene 3 118 225 0.0 0 118 0 1
gene 3 119 225 0.0 0 119 0 1
gene 1 120 225 0.0 0 120 0 1
gene 1 121 225 0.0 0 121 0 1
gene 2 122 225 0.0 0 122 0 1
gene 3 123 225 0.0 0 123 0 1
gene 1 124 225 0.0 0 124 0 1
gene 2 125 225 0.0 0 125 0 1
gene 2 126 225 0.0 0 126 0 1
gene 2 127 225 0.0 0 127 0 1
gene 3 128 225 0.0 0 128 0 1
gene 3 129 225 0.0 0 129 0 1
gene 1 130 225 0.0 0 130 0 1
gene 1 131 225 0.0 0 131 0 1
gene 2 132 225 0.0 0 132 0 1
gene 3 133 225 0.0 0 133 0 1
gene 1 134 225 0.0 0 134 0 1
gene 2 135 225 0.0 0 135 0 1
gene 2 136 225 0.0 0 136 0 1
gene 2 137 225 0.0 0 137 0 1
gene 3 138 225 0.0 0 138 0 1
gene 3 139 225 0.0 0 139 0 1
gene 1 140 225 0.0 0 140 0 1
gene 1 141 225 0.0 0 141 0 1
gene 2 142 225 0.0 0 142 0 1
gene 3 143 225 0.0 0 143 0 1
gene 1 144 225 0.0 0 144 0 1
gene 2 145 225 0.0 0 145 0 1
gene 2 146 225 0.0 0 146 0 1
gene 2 147 225 0.0 0 147 0 1
gene 3 148 225 0.0 0 148 0 1
gene 3 149 225 0.0 0 149 0 1
gene 1 150 225 0.0 0 150 0 1
gene 1 151 225 0.0 0 151 0 1
gene 2 152 225 0.0 0 152 0 1
gene 3 153 225 0.0 0 153 0 1
gene 1 154 225 0.0 0 154 0 1
gene 2 155 225 0.0 0 155 0 1
gene 2 156 225 0.0 0 156 0 1
gene 2 157 225 0.0 0 157 0 1
gene 3 158 225 0.0 0 158 0 1
gene 3 159 225 0.0 0 159 0 1
gene 1 160 225 0.0 0 160 0 1
gene 1 161 225 0.0 0 161 0 1
gene 2 162 225 0.0 0 162 0 1
gene 3 163 225 0.0 0 163 0 1
gene 1 164 225 0.0 0 164 0 1
gene 2 165 225 0.0 0 165 0 1
gene 2 166 225 0.0 0 166 0 1
gene 2 167 225 0.0 0 167 0 1
gene 3 168 225 0.0 0 168 0 1
gene 3 169 225 0.0 0 169 0 1
gene 1 170 225 0.0 0 170 0 1
gene 1 171 225 0.0 0 171 0 1
gene 2 172 225 0.0 0 172 0 1
gene 3 173 225 0.0 0 173 0 1
gene 1 174 225 0.0 0 174 0 1
gene 2 175 225 0.0 0 175 0 1
gene 2 176 225 0.0 0 176 0 1
gene 2 177 225 0.0 0 177 0 1
gene 3 178 225 0.0 0 178 0 1
gene 3 179 225 0.0 0 179 0 1
gene 1 180 225 0.0 0 180 0 1
gene 1 181 225 0.0 0 181 0 1
gene 2 182 225 0.0 0 182 0 1
gene 3 183 225 0.0 0 183 0 1
gene 1 184 225 0.0 0 184 0 1
gene 2 185 225 0.0 0 185 0 1
gene 2 186 225 0.0 0 186 0 1
gene 2 187 225 0.0 0 187 0 1
gene 3 188 225 0.0 0 188 0 1
gene 3 189 225 0.0 0 189 0 1
gene 1 190 225 0.0 0 190 0 1
gene 1 191 225 0.0 0 191 0 1
gene 2 192 225 0.0 0 192 0 1
gene 3 193 225 0.0 0 193 0 1
gene 1 194 225 0.0 0 194 0 1
gene 2 195 225 0.0 0 195 0 1
gene 2 196 225 0.0 0 196 0 1
gene 2 197 225 0.0 0 197 0 1
gene 3 198 225 0.0 0 198 0 1
gene 3 199 225 0.0 0 199 0 1
gene 1 200 225 0.0 0 200 0 1
gene 1 201 225 0.0 0 201 0 1
gene 2 202 225 0.0 0 202 0 1
gene 3 203 225 0.0 0 203 0 1
gene 1 204 225 0.0 0 204 0 1
gene 2 205 225 0.0 0 205 0 1
gene 2 206 225 0.0 0 206 0 1
gene 2 207 225 0.0 0 207 0 1
gene 3 208 225 0.0 0 208 0 1
gene 3 209 225 0.0 0 209 0 1
gene 1 210 225 0.0 0 210 0 1
gene 1 211 225 0.0 0 211 0 1
gene 2 212 225 0.0 0 212 0 1
gene 3 213 225 0.0 0 213 0 1
gene 1 214 225 0.0 0 214 0 1
gene 2 215 225 0.0 0 215 0 1
gene 2 216 225 0.0 0 216 0 1
gene 2 217 225 0.0 0 217 0 1
gene 3 218 225 0.0 0 218 0 1
gene 3 219 225 0.0 0 219 0 1
gene 1 220 225 0.0 0 220 0 1
gene 1 221 225 0.0 0 221 0 1
gene 1 1 226 0.0 0 1 0 1
gene 2 2 226 0.0 0 2 0 1
gene 3 3 226 0.0 0 3 0 1
gene 1 4 226 0.0 0 4 0 1
gene 2 5 226 0.0 0 5 0 1
gene 2 6 226 0.0 0 6 0 1
gene 2 7 226 0.0 0 7 0 1
gene 3 8 226 0.0 0 8 0 1
gene 3 9 226 0.0 0 9 0 1
gene 1 10 226 0.0 0 10 0 1
gene 1 11 226 0.0 0 11 0 1
gene 2 12 226 0.0 0 12 0 1
gene 3 13 226 0.0 0 13 0 1
gene 1 14 226 0.0 0 14 0 1
gene 2 15 226 0.0 0 15 0 1
gene 2 16 226 0.0 0 16 0 1
gene 2 17 226 0.0 0 17 0 1
gene 3 18 226 0.0 0 18 0 1
gene 3 19 226 0.0 0 19 0 1
gene 1 20 226 0.0 0 20 0 1
gene 1 21 226 0.0 0 21 0 1
gene 2 22 226 0.0 0 22 0 1
gene 3 23 226 0.0 0 23 0 1
gene 1 24 226 0.0 0 24 0 1
gene 2 25 226 0.0 0 25 0 1
gene 2 26 226 0.0 0 26 0 1
gene 2 27 226 0.0 0 27 0 1
gene 3 28 226 0.0 0 28 0 1
gene 3 29 226 0.0 0 29 0 1
gene 1 30 226 0.0 0 30 0 1
gene 1 31 226 0.0 0 31 0 1
gene 2 32 226 0.0 0 32 0 1
gene 3 33 226 0.0 0 33 0 1
gene 1 34 226 0.0 0 34 0 1
gene 2 35 226 0.0 0 35 0 1
gene 2 36 226 0.0 0 36 0 1
gene 2 37 226 0.0 0 37 0 1
gene 3 38 226 0.0 0 38 0 1
gene 3 39 226 0.0 0 39 0 1
gene 1 40 226 0.0 0 40 0 1
gene 1 41 226 0.0 0 41 0 1
gene 2 42 226 0.0 0 42 0 1
gene 3 43 226 0.0 0 43 0 1
gene 1 44 226 0.0 0 44 0 1
gene 2 45 226 0.0 0 45 0 1
gene 2 46 226 0.0 0 46 0 1
gene 2 47 226 0.0 0 47 0 1
gene 3 48 226 0.0 0 48 0 1
gene 3 49 226 0.0 0 49 0 1
gene 1 50 226 0.0 0 50 0 1
gene 1 51 226 0.0 0 51 0 1
gene 2 52 226 0.0 0 52 0 1
gene 3 53 226 0.0 0 53 0 1
gene 1 54 226 0.0 0 54 0 1
gene 2 55 226 0.0 0 55 0 1
gene 2 56 226 0.0 0 56 0 1
gene 2 57 226 0.0 0 57 0 1
gene 3 58 226 0.0 0 58 0 1
gene 3 59 226 0.0 0 59 0 1
gene 1 60 226 0.0 0 60 0 1
gene 1 61 226 0.0 0 61 0 1
gene 2 62 226 0.0 0 62 0 1
gene 3 63 226 0.0 0 63 0 1
gene 1 64 226 0.0 0 64 0 1
gene 2 65 226 0.0 0 65 0 1
gene 2 66 226 0.0 0 66 0 1
gene 2 67 226 0.0 0 67 0 1
gene 3 68 226 0.0 0 68 0 1
gene 3 69 226 0.0 0 69 0 1
gene 1 70 226 0.0 0 70 0 1
gene 1 71 226 0.0 0 71 0 1
gene 2 72 226 0.0 0 72 0 1
gene 3 73 226 0.0 0 73 0 1
gene 1 74 226 0.0 0 74 0 1
gene 2 75 226 0.0 0 75 0 1
gene 2 76 226 0.0 0 76 0 1
gene 2 77 226 0.0 0 77 0 1
gene 3 78 226 0.0 0 78 0 1
gene 3 79 226 0.0 0 79 0 1
gene 1 80 226 0.0 0 80 0 1
gene 1 81 226 0.0 0 81 0 1
gene 2 82 226 0.0 0 82 0 1
gene 3 83 226 0.0 0 83 0 1
gene 1 84 226 0.0 0 84 0 1
gene 2 85 226 0.0 0 85 0 1
gene 2 86 226 0.0 0 86 0 1
gene 2 87 226 0.0 0 87 0 1
gene 3 88 226 0.0 0 88 0 1
gene 3 89 226 0.0 0 89 0 1
gene 1 90 226 0.0 0 90 0 1
gene 1 91 226 0.0 0 91 0 1
gene 2 92 226 0.0 0 92 0 1
gene 3 93 226 0.0 0 93 0 1
gene 1 94 226 0.0 0 94 0 1
gene 2 95 226 0.0 0 95 0 1
gene 2 96 226 0.0 0 96 0 1
gene 2 97 226 0.0 0 97 0 1
gene 3 98 226 0.0 0 98 0 1
gene 3 99 226 0.0 0 99 0 1
gene 1 100 226 0.0 0 100 0 1
gene 1 101 226 0.0 0 101 0 1
gene 2 102 226 0.0 0 102 0 1
gene 3 103 226 0.0 0 103 0 1
gene 1 104 226 0.0 0 104 0 1
gene 2 105 226 0.0 0 105 0 1
gene 2 106 226 0.0 0 106 0 1
gene 2 107 226 0.0 0 107 0 1
gene 3 108 226 0.0 0 108 0 1
gene 3 109 226 0.0 0 109 0 1
gene 1 110 226 0.0 0 110 0 1
gene 1 111 226 0.0 0 111 0 1
gene 2 112 226 0.0 0 112 0 1
gene 3 113 226 0.0 0 113 0 1
gene 1 114 226 0.0 0 114 0 1
gene 2 115 226 0.0 0 115 0 1
gene 2 116 226 0.0 0 116 0 1
gene 2 117 226 0.0 0 117 0 1
gene 3 118 226 0.0 0 118 0 1
gene 3 119 226 0.0 0 119 0 1
gene 1 120 226 0.0 0 120 0 1
gene 1 121 226 0.0 0 121 0 1
gene 2 122 226 0.0 0 122 0 1
gene 3 123 226 0.0 0 123 0 1
gene 1 124 226 0.0 0 124 0 1
gene 2 125 226 0.0 0 125 0 1
gene 2 126 226 0.0 0 126 0 1
gene 2 127 226 0.0 0 127 0 1
gene 3 128 226 0.0 0 128 0 1
gene 3 129 226 0.0 0 129 0 1
gene 1 130 226 0.0 0 130 0 1
gene 1 131 226 0.0 0 131 0 1
gene 2 132 226 0.0 0 132 0 1
gene 3 133 226 0.0 0 133 0 1
gene 1 134 226 0.0 0 134 0 1
gene 2 135 226 0.0 0 135 0 1
gene 2 136 226 0.0 0 136 0 1
gene 2 137 226 0.0 0 137 0 1
gene 3 138 226 0.0 0 138 0 1
gene 3 139 226 0.0 0 139 0 1
gene 1 140 226 0.0 0 140 0 1
gene 1 141 226 0.0 0 141 0 1
gene 2 142 226 0.0 0 142 0 1
gene 3 143 226 0.0 0 143 0 1
gene 1 144 226 0.0 0 144 0 1
gene 2 145 226 0.0 0 145 0 1
gene 2 146 226 0.0 0 146 0 1
gene 2 147 226 0.0 0 147 0 1
gene 3 148 226 0.0 0 148 0 1
gene 3 149 226 0.0 0 149 0 1
gene 1 150 226 0.0 0 150 0 1
gene 1 151 226 0.0 0 151 0 1
gene 2 152 226 0.0 0 152 0 1
gene 3 153 226 0.0 0 153 0 1
gene 1 154 226 0.0 0 154 0 1
gene 2 155 226 0.0 0 155 0 1
gene 2 156 226 0.0 0 156 0 1
gene 2 157 226 0.0 0 157 0 1
gene 3 158 226 0.0 0 158 0 1
gene 3 159 226 0.0 0 159 0 1
gene 1 160 226 0.0 0 160 0 1
gene 1 161 226 0.0 0 161 0 1
gene 2 162 226 0.0 0 162 0 1
gene 3 163 226 0.0 0 163 0 1
gene 1 164 226 0.0 0 164 0 1
gene 2 165 226 0.0 0 165 0 1
gene 2 166 226 0.0 0 166 0 1
gene 2 167 226 0.0 0 167 0 1
gene 3 168 226 0.0 0 168 0 1
gene 3 169 226 0.0 0 169 0 1
gene 1 170 226 0.0 0 170 0 1
gene 1 171 226 0.0 0 171 0 1
gene 2 172 226 0.0 0 172 0 1
gene 3 173 226 0.0 0 173 0 1
gene 1 174 226 0.0 0 174 0 1
gene 2 175 226 0.0 0 175 0 1
gene 2 176 226 0.0 0 176 0 1
gene 2 177 226 0.0 0 177 0 1
gene 3 178 226 0.0 0 178 0 1
gene 3 179 226 0.0 0 179 0 1
gene 1 180 226 0.0 0 180 0 1
gene 1 181 226 0.0 0 181 0 1
gene 2 182 226 0.0 0 182 0 1
gene 3 183 226 0.0 0 183 0 1
gene 1 184 226 0.0 0 184 0 1
gene 2 185 226 0.0 0 185 0 1
gene 2 186 226 0.0 0 186 0 1
gene 2 187 226 0.0 0 187 0 1
gene 3 188 226 0.0 0 188 0 1
gene 3 189 226 0.0 0 189 0 1
gene 1 190 226 0.0 0 190 0 1
gene 1 191 226 0.0 0 191 0 1
gene 2 192 226 0.0 0 192 0 1
gene 3 193 226 0.0 0 193 0 1
gene 1 194 226 0.0 0 194 0 1
gene 2 195 226 0.0 0 195 0 1
gene 2 196 226 0.0 0 196 0 1
gene 2 197 226 0.0 0 197 0 1
gene 3 198 226 0.0 0 198 0 1
gene 3 199 226 0.0 0 199 0 1
gene 1 200 226 0.0 0 200 0 1
gene 1 201 226 0.0 0 201 0 1
gene 2 202 226 0.0 0 202 0 1
gene 3 203 226 0.0 0 203 0 1
gene 1 204 226 0.0 0 204 0 1
gene 2 205 226 0.0 0 205 0 1
gene 2 206 226 0.0 0 206 0 1
gene 2 207 226 0.0 0 207 0 1
gene 3 208 226 0.0 0 208 0 1
gene 3 209 226 0.0 0 209 0 1
gene 1 210 226 0.0 0 210 0 1
gene 1 211 226 0.0 0 211 0 1
gene 2 212 226 0.0 0 212 0 1
gene 3 213 226 0.0 0 213 0 1
gene 1 214 226 0.0 0 214 0 1
gene 2 215 226 0.0 0 215 0 1
gene 2 216 226 0.0 0 216 0 1
gene 2 217 226 0.0 0 217 0 1
gene 3 218 226 0.0 0 218 0 1
gene 3 219 226 0.0 0 219 0 1
gene 1 220 226 0.0 0 220 0 1
gene 1 221 226 0.0 0 221 0 1
genomeend 1




