genomestart 1
trait 1 0.1 0 0 0 0 0 0 0
trait 2 0.2 0 0 0 0 0 0 0
trait 3 0.3 0 0 0 0 0 0 0
node 1 0 1 1
node 2 0 1 1
node 3 0 1 1
node 4 0 1 1
node 5 0 1 1
node 6 0 1 1
node 7 0 1 1
node 8 0 1 1
node 9 0 1 1
node 10 0 1 1
node 11 0 1 1
node 12 0 1 1
node 13 0 1 1
node 14 0 1 1
node 15 0 1 1
node 16 0 1 1
node 17 0 1 1
node 18 0 1 1
node 19 0 1 1
node 20 0 1 1
node 21 0 1 1
node 22 0 1 1
node 23 0 1 1
node 24 0 1 1
node 25 0 1 1
node 26 0 1 1
node 27 0 1 1
node 28 0 1 1
node 29 0 1 1
node 30 0 1 1
node 31 0 1 1
node 32 0 1 1
node 33 0 1 1
node 34 0 1 1
node 35 0 1 1
node 36 0 1 1
node 37 0 1 1
node 38 0 1 1
node 39 0 1 1
node 40 0 1 1
node 41 0 1 1
node 42 0 1 1
node 43 0 1 1
node 44 0 1 1
node 45 0 1 1
node 46 0 1 1
node 47 0 1 1
node 48 0 1 1
node 49 0 1 1
node 50 0 1 1
node 51 0 1 1
node 52 0 1 1
node 53 0 1 1
node 54 0 1 1
node 55 0 1 1
node 56 0 1 1
node 57 0 1 1
node 58 0 1 1
node 59 0 1 1
node 60 0 1 1
node 61 0 1 1
node 62 0 1 1
node 63 0 1 1
node 64 0 1 1
node 65 0 1 1
node 66 0 1 1
node 67 0 1 1
node 68 0 1 1
node 69 0 1 1
node 70 0 1 1
node 71 0 1 1
node 72 0 1 1
node 73 0 1 1
node 74 0 1 1
node 75 0 1 1
node 76 0 1 1
node 77 0 1 1
node 78 0 1 1
node 79 0 1 1
node 80 0 1 1
node 81 0 1 1
node 82 0 1 1
node 83 0 1 1
node 84 0 1 1
node 85 0 1 1
node 86 0 1 1
node 87 0 1 1
node 88 0 1 1
node 89 0 1 1
node 90 0 1 1
node 91 0 1 1
node 92 0 1 1
node 93 0 1 1
node 94 0 1 1
node 95 0 1 1
node 96 0 1 1
node 97 0 1 1
node 98 0 1 1
node 99 0 1 1
node 100 0 1 1
node 101 0 1 1
node 102 0 1 1
node 103 0 1 1
node 104 0 1 1
node 105 0 1 1
node 106 0 1 1
node 107 0 1 1
node 108 0 1 1
node 109 0 1 1
node 110 0 1 1
node 111 0 1 1
node 112 0 1 1
node 113 0 1 1
node 114 0 1 1
node 115 0 1 1
node 116 0 1 1
node 117 0 1 1
node 118 0 1 1
node 119 0 1 1
node 120 0 1 1
node 121 0 1 1
node 122 0 1 1
node 123 0 1 1
node 124 0 1 1
node 125 0 1 1
node 126 0 1 1
node 127 0 1 1
node 128 0 1 1
node 129 0 1 1
node 130 0 1 1
node 131 0 1 1
node 132 0 1 1
node 133 0 1 1
node 134 0 1 1
node 135 0 1 1
node 136 0 1 1
node 137 0 1 1
node 138 0 1 1
node 139 0 1 1
node 140 0 1 1
node 141 0 1 1
node 142 0 1 1
node 143 0 1 1
node 144 0 1 1
node 145 0 1 1
node 146 0 1 1
node 147 0 1 1
node 148 0 1 1
node 149 0 1 1
node 150 0 1 1
node 151 0 1 1
node 152 0 1 1
node 153 0 1 1
node 154 0 1 1
node 155 0 1 1
node 156 0 1 1
node 157 0 1 1
node 158 0 1 1
node 159 0 1 1
node 160 0 1 1
node 161 0 1 1
node 162 0 1 1
node 163 0 1 1
node 164 0 1 1
node 165 0 1 1
node 166 0 1 1
node 167 0 1 1
node 168 0 1 1
node 169 0 1 1
node 170 0 1 1
node 171 0 1 1
node 172 0 1 1
node 173 0 1 1
node 174 0 1 1
node 175 0 1 1
node 176 0 1 1
node 177 0 1 1
node 178 0 1 1
node 179 0 1 1
node 180 0 1 1
node 181 0 1 1
node 182 0 1 1
node 183 0 1 1
node 184 0 1 1
node 185 0 1 1
node 186 0 1 1
node 187 0 1 1
node 188 0 1 1
node 189 0 1 1
node 190 0 1 1
node 191 0 1 1
node 192 0 1 1
node 193 0 1 1
node 194 0 1 1
node 195 0 1 1
node 196 0 1 1
node 197 0 1 1
node 198 0 1 1
node 199 0 1 1
node 200 0 1 1
node 201 0 1 1
node 202 0 1 1
node 203 0 1 1
node 204 0 1 1
node 205 0 1 1
node 206 0 1 1
node 207 0 1 1
node 208 0 1 1
node 209 0 1 1
node 210 0 1 1
node 211 0 1 1
node 212 0 1 1
node 213 0 1 1
node 214 0 1 1
node 215 0 1 1
node 216 0 1 1
node 217 0 1 1
node 218 0 1 1
node 219 0 1 1
node 220 0 1 1
node 221 0 1 3
node 223 0 0 2
node 224 0 0 2
node 225 0 0 2
node 226 0 0 2
gene 1 110 224 0.0 0 1 0 1
gene 2 112 226 0.0 0 2 0 1
gene 3 91 223  0.0 0 3 0 1
gene 1 131 225 0.0 0 4 0 1

genomeend 1